tree
version=v4
num_class=5
num_tree_per_iteration=5
label_index=0
max_feature_idx=19
objective=multiclass num_class:5
feature_names=0 1 2 3 4 5 6 7 8 9 10 11 12 13 14 15 16 17 18 19
feature_infos=[-7.5602395731737833:4.7296763126762693] [-8.1879450922177668:4.572528614113593] [-9.891285642091276:4.3745262402741707] [-10.344069316806152:5.8068884129061846] [-7.0706511808991328:5.1490670334710051] [-7.5600456117516543:4.7294452694172895] [-7.8226943751360194:4.5795224866850024] [2836:168648] [4250.2400000000043:7282.4600000000073] [4278.8081308549445:7275.7884028435556] [4155.3069727873208:7474.7997253780468] [4241.5216666666656:7311.4931985507246] [4298.063006092596:7339.9642942902074] [4107.6214254559927:7555.9511950834994] [4247.8602150536735:7336.4761290320012] [-264.6861164816055:327.44212966254781] [-417.92276797791408:292.78186274510102] [0.028725795984562898:82.984904529215669] [5.1313315225020366:54.488078558425492] [4.1900513118880864:53.862252585808655]
tree_sizes=3268 3275 3262 3275 3272 3341 3344 3350 3339 3334 3333 3351 3367 3347 3349 3357 3350 3348 3357 3341 3357 3343 3346 3350 3331 3356 3357 3366 3347 3343 3347 3349 3355 3353 3349 3351 3358 3367 3362 3345 3364 3361 3356 3365 3368 3362 3356 3368 3383 3356 3373 3356 3368 3378 3365 3367 3374 3361 3373 3365 3357 3373 3362 3365 3356 3373 3370 3358 3380 3360 3363 3383 3368 3374 3373 3377 3363 3362 3376 3380 3373 3377 3366 3381 3381 3381 3367 3368 3364 3375 3371 3378 3370 3355 3370 3369 3374 3374 3367 3391 3382 3364 3375 3367 3376 3378 3386 3380 3367 3374 3372 3382 3373 3368 3382 3388 3377 3382 3391 3406 3391 3375 3381 3385 3379 3375 3371 3356 3371 3398 3374 3376 3375 3368 3377 3371 3373 3390 3375 3390 3390 3387 3397 3382 3388 3385 3392 3372 3393 3393 3400 3377 3386 3378 3380 3400 3398 3377 3382 3390 3378 3368 3384 3370 3373 3386 3372 3385 3398 3375 3393 3375 3392 3386 3383 3393 3373 3369 3364 3388 3364 3390 3397 3364 3396 3398 3397 3386 3387 3370 3378 3385 3398 3374 3397 3400 3376 3384 3380 3378 3381 3400 3362 3380 3391 3393 3376 3382 3380 3387 3390 3388 3387 3374 3404 3375 3379 3378 3377 3380 3394 3377 3384 3409 3385 3389 3383 3396 3390 3390 3403 3393 3375 3380 3419 3414 3396 3390 3394 3387 3394 3393 3381 3401 3381 3404 3397 3386 3373 3398 3389 3395 3395 3390 3392 3405 3393 3382 3388 3400 3380 3403 3405 3415 3415 3406 3391 3380 3397 3412 3407 3384 3390 3405 3393 3429 3398 3415 3386 3408 3400 3390 3372 3387 3404 3406 3389 3391 3384 3398 3408 3385 3388 3376 3408 3407 3395 3376 3400 3432 3407 3398 3403 3392 3410 3420 3417 3383 3411 3409 3439 3404 3408 3393 3414 3406 3388 3404 3397 3404 3409 3421 3380 3388 3411 3422 3382 3400 3380 3426 3427 3403 3421 3396 3405 3404 3414 3390 3387 3415 3434 3407 3421 3389 3410 3404 3386 3405 3420 3429 3415 3403 3390 3387 3437 3427 3401 3412 3426 3427 3432 3415 3420 3381 3435 3425 3419 3401 3417 3441 3441 3417 3412 3407 3427 3446 3408 3418 3398 3423 3403 3424 3414 3407 3425 3428 3441 3411 3405 3435 3430 3419 3405 3431 3429 3421 3409 3403 3396 3432 3424 3398 3410 3406 3417 3433 3408 3422 3424 3423 3416 3423 3423 3389 3458 3436 3395 3442 3409 3437 3431 3396 3430 3408 3448 3444 3426 3410 3430 3432 3423 3422 3415 3423 3450 3419 3424 3416 3433 3439 3432 3415 3405 3414 3441 3432 3415 3408 3430 3437 3427 3424 3419 3426 3439 3441 3407 3405 3415 3413 3443 3417 3408 3424 3433 3439 3438 3428 3419 3440 3428 3414 3418 3401 3444 3426 3411 3423 3425 3426 3447 3437 3431 3419 3442 3427 3416 3418 3422 3438 3442 3420 3429 3419 3441 3423 3425 3409 3417 3460

Tree=0
num_leaves=31
num_cat=0
split_feature=15 1 6 5 7 6 8 14 15 7 18 3 4 13 16 5 7 5 15 18 19 10 5 7 4 6 7 6 6 4
split_gain=40.7303 27.4987 20.9379 34.3098 21.591 19.4975 28.473 18.4551 19.3209 18.2231 15.1541 16.4187 26.8533 18.7427 14.9482 14.6257 14.5487 14.0939 14.0416 13.9784 13.1764 19.9704 26.4075 11.5626 10.3484 9.42387 17.1676 9.03723 12.9909 11.6552
threshold=262.00448528157 -0.47559501987339214 -0.74404089681174057 0.35706279802390833 68454.500000000015 1.0000000180025095e-35 6032.5900000000056 7279.4488172040255 -111.47454607977305 13242.000000000002 9.1117943787893712 -0.030623328972995276 0.3298087591467081 5863.0900838880489 -22.39537799308998 -1.5537753619971 44571.000000000007 -1.1058766830735653 -18.550876559858349 31.875815310835069 19.94447906995185 5613.948201772263 0.09923487158814169 11903.500000000002 -0.33954071455336915 -1.6244634295437583 34506.000000000007 -0.50634063876014246 -0.20090197517404462 -1.0670595667024625
decision_type=2 2 2 2 2 2 2 2 2 2 2 2 2 2 2 2 2 2 2 2 2 2 2 2 2 2 2 2 2 2
left_child=1 2 15 4 5 6 9 8 23 -4 -10 12 18 -14 24 -1 -11 -13 -12 -8 27 22 -22 -3 -6 -25 -27 29 -29 -20
right_child=-2 7 3 -5 14 -7 19 -9 10 16 11 17 13 -15 -16 -17 -18 -19 20 -21 21 -23 -24 25 -26 26 -28 28 -30 -31
leaf_value=-1.5532202854325705 -1.3207485253286906 -1.7329223821999866 -1.2916539001377758 -1.6436391129529846 -1.2730395969242332 -1.6773780977446036 -1.7195235416515391 -1.4419761302908365 -1.4885275305963006 -1.6141193293370837 -1.7102211619077123 -1.5115502340082421 -1.6343760710694681 -1.3979513684887941 -1.5699924811308628 -1.7272015289321103 -1.3692395673135489 -1.6906481404695974 -1.503802208821531 -1.4995592426478559 -1.6447992385928885 -1.699782054689625 -1.3449940463211196 -1.6844313402151283 -1.4681612929626602 -1.3884933633957721 -1.5874492562454117 -1.4089140562102513 -1.63594029823027 -1.7329223821999868
leaf_weight=6.6777186095714596 4.1244732588529578 3.9280697703361538 5.8921046555042293 41.441136077046394 6.0885081440210334 10.802191868424414 7.4633325636386854 4.1244732588529578 4.910087212920188 5.8921046555042249 30.835347697138786 4.5172802358865729 6.0885081440210325 7.4633325636386871 4.910087212920188 17.479910477995872 4.1244732588529587 160.85445709526539 3.9280697703361511 4.7136837244033813 10.212981402873991 33.192189559340477 4.1244732588529578 4.1244732588529649 4.910087212920188 6.677718609571456 12.373419776558874 6.4813151210546494 4.1244732588529569 5.1064907014369982
leaf_count=34 21 20 30 211 31 55 38 21 25 30 157 23 31 38 25 89 21 819 20 24 52 169 21 21 25 34 63 33 21 26
internal_value=-1.63351 -1.63649 -1.59587 -1.57498 -1.52306 -1.5632 -1.51929 -1.65211 -1.65491 -1.4312 -1.66267 -1.66576 -1.63611 -1.50417 -1.42491 -1.67911 -1.51329 -1.68576 -1.65436 -1.63438 -1.62871 -1.65718 -1.55855 -1.57427 -1.36015 -1.54738 -1.51771 -1.55981 -1.4972 -1.6333
internal_weight=0 433.462 120.395 96.2377 54.7966 38.8879 28.0857 313.067 308.943 15.9087 281.839 276.929 111.557 13.5518 15.9087 24.1576 10.0166 165.372 98.0053 12.177 67.17 47.5296 14.3375 27.1037 10.9986 23.1756 19.0511 19.6403 10.6058 9.03456
internal_count=2228 2207 613 490 279 198 143 1594 1573 81 1435 1410 568 69 81 123 51 842 499 62 342 242 73 138 56 118 97 100 54 46
is_linear=0
shrinkage=1


Tree=1
num_leaves=31
num_cat=0
split_feature=17 1 1 1 3 7 11 16 13 9 7 4 17 5 7 7 7 4 6 13 6 12 2 3 12 12 6 19 5 18
split_gain=25.4944 13.7644 15.2688 14.9787 8.26912 11.7671 8.16947 8.63103 7.99646 17.7711 9.41091 7.90985 7.86418 12.873 8.59783 13.833 9.84003 7.54773 15.3109 6.89988 6.85339 12.1465 6.01318 5.96137 5.778 11.0044 7.51251 7.05214 9.99057 9.58108
threshold=23.200030767595269 -0.37522175833133248 0.12160059995739016 -0.099138486051365146 -0.51647057111482486 32982.500000000007 5017.6015720122969 72.530708999293822 6500.4661564101598 6500.4659194012356 43912.000000000007 -0.30029173720870422 47.953708581718764 1.4325400623167335 55623.000000000007 39317.000000000007 44571.000000000007 0.34945849032474158 0.28641940095355406 6407.4183240906177 -0.12776164202330451 6264.8525575728136 -0.061016998258768808 -0.35430031834353148 6160.1380972031211 6028.2199345687295 -0.026875078528466094 22.26463609846309 0.37774729834171056 26.317670972434499
decision_type=2 2 2 2 2 2 2 2 2 2 2 2 2 2 2 2 2 2 2 2 2 2 2 2 2 2 2 2 2 2
left_child=1 6 3 4 -3 11 -1 -8 24 -10 -11 -6 13 14 15 20 -17 18 23 -18 -2 -22 -13 -5 25 27 -27 29 -29 -4
right_child=12 2 8 17 5 -7 7 -9 9 10 -12 22 -14 -15 -16 16 19 -19 -20 -21 21 -23 -24 -25 -26 26 -28 28 -30 -31
leaf_value=-1.5169976990849301 -1.6490615727494655 -1.6634520944750533 -1.5104648590634728 -1.4111656907373231 -1.5653407152437135 -1.5915528939689834 -1.6334129082672981 -1.5060495602903501 -1.3406110185055851 -1.4582021388918149 -1.642729743190207 -1.3229723504476503 -1.6483447618559646 -1.4555890028832321 -1.6450040329910836 -1.3876474666600771 -1.5070135473540238 -1.5794114475976215 -1.3294708071005734 -1.6352805319440205 -1.6338804392278699 -1.4976950057385112 -1.4913414546370254 -1.53382227477096 -1.629885174655711 -1.5550972220900687 -1.3723606210098669 -1.6610742961189 -1.5390460341573482 -1.6593235034144709
leaf_weight=8.5040437281131727 31.586448132991791 6.6817486435174933 16.400655761361126 5.669362485408791 5.4668852537870398 19.640291467308998 56.69362485408783 5.8718397170305243 4.2520218640565899 4.2520218640565854 7.8966120332479477 4.0495446324348441 64.387759655714035 5.4668852537870398 49.606921747326851 4.2520218640565899 10.731293275952341 5.2644080221652976 7.6941348016262046 6.8842258751392356 16.80561022460461 10.731293275952337 4.4544990956783286 13.161020055413246 28.346812427043915 5.0619307905435562 4.0495446324348432 21.665063783526424 9.7189071178436262 5.8718397170305243
leaf_count=42 156 33 81 28 27 97 280 29 21 21 39 20 318 27 245 21 53 26 38 34 83 53 22 65 140 25 20 107 48 29
internal_value=-1.59297 -1.57171 -1.55697 -1.52136 -1.56185 -1.54165 -1.60896 -1.62146 -1.58084 -1.51656 -1.57815 -1.4715 -1.61955 -1.60593 -1.61222 -1.59214 -1.52418 -1.47004 -1.44833 -1.55714 -1.61727 -1.58081 -1.41117 -1.49689 -1.59241 -1.57549 -1.47388 -1.59274 -1.62328 -1.54971
internal_weight=0 250.667 179.597 72.0819 40.293 33.6112 71.0695 62.5655 107.515 16.4007 12.1486 13.9709 200.452 136.065 130.598 80.9909 21.8675 31.7889 26.5245 17.6155 59.1234 27.5369 8.50404 18.8304 91.1148 62.7679 9.11148 53.6565 31.384 22.2725
internal_count=2228 1238 887 356 199 166 351 309 531 81 60 69 990 672 645 400 108 157 131 87 292 136 42 93 450 310 45 265 155 110
is_linear=0
shrinkage=1


Tree=2
num_leaves=31
num_cat=0
split_feature=1 15 16 10 3 1 1 14 3 15 18 7 6 11 4 17 4 17 7 2 0 7 14 9 5 5 16 10 15 15
split_gain=33.1936 23.9162 38.8056 23.78 12.6906 14.4951 12.4067 10.9999 10.7325 9.83475 11.0664 9.78321 8.5222 8.34827 13.4929 11.9261 8.25236 15.5708 9.31919 12.9354 8.17867 12.9963 10.2894 9.87641 8.02586 12.4032 7.46854 6.89055 6.33804 19.5807
threshold=-0.43457981994791089 67.1242261667294 47.651425863755911 6304.1588475176968 1.3235921052555242 0.20257834685429268 -0.15969520321506755 7187.8797849459606 0.89289206449355241 -61.464276024458734 34.739580406068022 85985.000000000015 0.85496171383215158 5886.0181566416049 0.482943595053059 16.513314519377456 0.12726306713049571 23.626372664563949 51770.500000000007 0.29388563391683259 0.54465836079318508 9920.5000000000018 6368.6249462365167 6318.9695931500637 0.25286164016698159 0.57620672826109476 3.1505580050802098 6455.8476367887424 -94.540930217161517 -52.262709684824124
decision_type=2 2 2 2 2 2 2 2 2 2 2 2 2 2 2 2 2 2 2 2 2 2 2 2 2 2 2 2 2 2
left_child=9 2 7 4 13 -6 -3 11 16 -1 12 20 -11 -4 15 -15 17 -5 19 -18 21 23 28 -2 -22 -26 -14 -25 -23 -30
right_child=1 6 3 8 5 -7 -8 -9 -10 10 -12 -13 26 14 -16 -17 18 -19 -20 -21 24 22 -24 27 25 -27 -28 -29 29 -31
leaf_value=-1.6761844844436029 -1.5875523713166682 -1.5081783650559628 -1.6027350223032448 -1.4778719263018754 -1.5757932592780453 -1.3229723504476503 -1.6560687974617117 -1.446443026853192 -1.298278215166542 -1.639279251801173 -1.481720362969061 -1.679068938921604 -1.6504380574362609 -1.5245890245782183 -1.4130725737706131 -1.6933843796642756 -1.5984069362753972 -1.2488899446043251 -1.6463479315097833 -1.3970547562909752 -1.6514791803993643 -1.644964506564063 -1.662125980574265 -1.32297235044765 -1.4239938129612753 -1.636940641878885 -1.4907658337680019 -1.5052385870463072 -1.4539260981504976 -1.5923107096764832
leaf_weight=40.697923555970192 5.6693624854087821 6.4792714118957511 31.991402596235275 11.136247739195822 4.2520218640565854 4.859453558921814 45.557377114892006 4.8594535589218131 4.0495446324348441 72.08189445734024 5.6693624854087821 13.970928981900213 4.6569763273000699 15.995701298117643 7.4916575700044623 5.6693624854087821 5.2644080221653011 4.0495446324348441 4.2520218640565863 8.0990892648696882 33.408743217587471 10.326338812708846 15.995701298117636 4.0495446324348432 4.4544990956783277 7.0867031067609787 7.8966120332479477 4.2520218640565872 13.36349728703498 43.532604798674598
leaf_count=201 28 32 158 55 21 24 225 24 20 356 28 69 23 79 37 28 26 20 21 40 165 51 79 20 22 35 39 21 66 215
internal_value=-1.59297 -1.57561 -1.56357 -1.51693 -1.55106 -1.44096 -1.63765 -1.59461 -1.45187 -1.63537 -1.61698 -1.59922 -1.62604 -1.56746 -1.52876 -1.56876 -1.47083 -1.41681 -1.5174 -1.47638 -1.59137 -1.57506 -1.59004 -1.48581 -1.62664 -1.55475 -1.55 -1.41633 -1.57289 -1.55981
internal_weight=0 320.117 268.08 107.11 70.2596 9.11148 52.0366 160.969 36.8509 131.003 90.3048 156.11 84.6355 61.1481 29.1567 21.6651 32.8013 15.1858 17.6155 13.3635 142.139 97.1891 83.2181 13.9709 44.9499 11.5412 12.5536 8.30157 67.2224 56.8961
internal_count=2228 1581 1324 529 347 45 257 795 182 647 446 771 418 302 144 107 162 75 87 66 702 480 411 69 222 57 62 41 332 281
is_linear=0
shrinkage=1


Tree=3
num_leaves=31
num_cat=0
split_feature=11 0 15 18 0 19 18 3 14 1 4 1 5 1 9 7 12 14 16 15 12 10 16 18 6 17 18 11 2 4
split_gain=20.1415 21.818 13.6679 10.1177 9.50191 8.54186 9.8533 8.99903 8.90908 12.1673 10.9187 10.4138 8.74017 8.93385 8.69538 8.22113 7.39349 7.78882 13.5365 6.36951 5.73653 5.47991 6.95018 6.33155 6.01117 7.81538 8.47057 6.51642 6.33549 8.20488
threshold=5989.440740691196 1.2172028969424045 -93.241759494187576 35.293784490560107 0.97854340044227539 13.664439398335196 27.331665164185413 -0.11406486624645246 6459.5184946235131 -0.16113879171101111 -0.0076042918258957364 0.38232664525908627 -0.17870408694977155 0.59349506647125416 6311.8845538001342 12030.000000000002 6025.3206075187163 5935.6045161286975 -0.93983154315063899 50.518904145592849 6561.5553146829925 5547.1192779014655 99.282506414250605 21.973911488984225 -1.2796505823247373 26.082246815762314 29.324804213346304 5054.965146869311 -0.49750616827212607 -0.30029173720870422
decision_type=2 2 2 2 2 2 2 2 2 2 2 2 2 2 2 2 2 2 2 2 2 2 2 2 2 2 2 2 2 2
left_child=16 2 -2 4 5 6 7 -4 14 10 20 -11 -13 -14 -7 -5 17 21 -19 -12 -10 24 -23 -24 27 26 28 -1 29 -26
right_child=1 -3 3 15 -6 8 -8 -9 9 11 19 12 13 -15 -16 -17 -18 18 -20 -21 -22 22 23 -25 25 -27 -28 -29 -30 -31
leaf_value=-1.4837590968367034 -1.7017630487900015 -1.4357745313252437 -1.5861261699278173 -1.6018749504033734 -1.4715725405163327 -1.6268994956505491 -1.6229423979693582 -1.3740800899533672 -1.3836173948997443 -1.6869102470432953 -1.5548473420388658 -1.6828061834027581 -1.4139633651836712 -1.6000853162584237 -1.6840928484742905 -1.4139633651836712 -1.7274902232441174 -1.6970238324431905 -1.4654792623561472 -1.7140850112917096 -1.5317436623481631 -1.7085839769900844 -1.6787439979626346 -1.5349426333822604 -1.6543708853218932 -1.6872841831005323 -1.5050855703973522 -1.6437076485415689 -1.657938812457515 -1.4581673285639245
leaf_weight=4.29825711250305 21.100534915924072 6.2520103454589835 3.9075064659118652 5.079758405685423 4.1028817892074576 69.162864446640015 11.136393427848814 4.1028817892074603 4.4936324357986468 18.951406359672546 7.0335116386413556 5.2751337289810207 4.29825711250305 6.4473856687545776 43.177946448326111 4.2982571125030518 16.411527156829834 4.6890077590942383 5.4705090522766096 3.9075064659118652 6.2520103454589844 41.810319185256958 8.2057635784149152 4.8843830823898307 4.6890077590942383 49.625332117080688 4.6890077590942374 6.2520103454589844 51.383710026741035 3.9075064659118564
leaf_count=22 108 32 20 26 21 354 57 21 23 97 36 27 22 33 221 22 84 24 28 20 32 214 42 25 24 254 24 32 263 20
internal_value=-1.64043 -1.62002 -1.62519 -1.61717 -1.62212 -1.6254 -1.5621 -1.47752 -1.63258 -1.60025 -1.5414 -1.63674 -1.57739 -1.52564 -1.64888 -1.51575 -1.6631 -1.65753 -1.57235 -1.61172 -1.4698 -1.66235 -1.68868 -1.62509 -1.65077 -1.65743 -1.63453 -1.57854 -1.64465 -1.56519
internal_weight=0 228.98 222.728 201.627 192.249 188.146 19.1468 8.01039 169 56.6588 21.6867 34.9722 16.0208 10.7456 112.341 9.37802 206.316 189.905 10.1595 10.941 10.7456 179.745 54.9005 13.0901 124.845 114.295 64.6692 10.5503 59.9802 8.59651
internal_count=2228 1172 1140 1032 984 963 98 41 865 290 111 179 82 55 575 48 1056 972 52 56 55 920 281 67 639 585 331 54 307 44
is_linear=0
shrinkage=1


Tree=4
num_leaves=31
num_cat=0
split_feature=10 1 17 7 17 16 17 18 4 1 6 7 12 8 5 5 1 1 9 0 12 3 3 9 5 2 7 5 10 6
split_gain=73.2201 57.1988 35.6663 28.2125 25.1268 20.4057 19.7964 17.4853 18.2697 18.1837 18.0195 18.0854 15.6282 13.3035 15.1017 15.2711 11.2125 21.9433 21.7341 15.0029 14.2224 12.4874 21.7835 10.9637 13.6468 18.8337 14.4999 10.9074 10.4252 10.3087
threshold=5963.3265080181218 -2.3554025234924523 50.696442035470021 67873.000000000015 3.3913334089116258 -17.902460900678538 4.2877319721097065 34.031830114896387 -2.1182821221888575 -1.0100849653383495 0.11335966690989523 64097.500000000007 6399.2183632037149 4606.0766666666705 -1.710707381904806 -0.44690404514990495 -0.60042748146136338 -0.1808329023995793 5756.0405227512938 -0.24482765758567035 5941.9244477315833 -0.39106807400085886 -0.29915332784487886 5320.3779391792787 -0.34973883674254391 1.0187544814222471 52915.500000000007 -0.36532953202210167 6305.4252175646443 1.043272134404913
decision_type=2 2 2 2 2 2 2 2 2 2 2 2 2 2 2 2 2 2 2 2 2 2 2 2 2 2 2 2 2 2
left_child=2 -2 4 -3 -1 12 -6 8 -8 10 -10 -12 27 -4 -15 -16 -11 18 19 -18 -20 -19 -23 24 -24 -26 -27 -5 -7 -17
right_child=1 3 13 5 6 28 7 -9 9 16 11 -13 -14 14 15 29 17 21 20 -21 -22 22 23 -25 25 26 -28 -29 -30 -31
leaf_value=-1.668365350400197 -1.3062184572732565 -1.6508167819096127 -1.2824374696137149 -1.3472406609859664 -1.360914728890203 -1.5250035437410425 -1.3680490251880655 -1.4215562474220349 -1.5810338707632803 -1.6628381482157477 -1.5178692474431799 -1.2396316918265391 -1.5718860622698538 -1.2952792029498676 -1.6512257090109188 -1.3781872357166067 -1.4885393626630781 -1.682159028386917 -1.269754276195292 -1.6750276030332385 -1.5044924418846874 -1.3609147288902026 -1.4363068870649129 -1.6385170389460753 -1.662118854780785 -1.5979319058969712 -1.360914728890203 -1.5484448030054481 -1.6773717289596792 -1.5718860622698538
leaf_weight=19.298491626977921 5.4848344624042502 188.1095078587532 4.6722663938999203 7.3131126165390015 5.4848344624042502 6.0942605137825039 4.6722663938999167 9.3445327877998334 8.3288227021694201 15.235651284456251 4.6722663938999158 4.6722663938999176 17.063929438591003 4.0628403425216737 5.2816924452781757 7.7193966507911576 10.969668924808504 14.423083215951918 5.4848344624042493 7.1099705994129208 4.875408411026001 4.2659823596477429 7.5162546336650768 29.658734500408173 14.829367250204102 5.4848344624042493 4.875408411026001 4.2659823596477526 17.063929438591003 4.2659823596477509
leaf_count=95 27 926 23 36 27 30 23 46 41 75 23 23 84 20 26 38 54 71 27 35 24 21 37 146 73 27 24 21 84 21
internal_value=-1.58856 -1.62552 -1.54479 -1.63282 -1.56051 -1.56747 -1.54765 -1.5542 -1.56263 -1.56901 -1.47408 -1.37875 -1.51104 -1.43527 -1.46874 -1.50956 -1.58246 -1.57128 -1.4957 -1.56188 -1.38022 -1.59779 -1.57953 -1.59449 -1.55456 -1.58985 -1.48639 -1.42137 -1.63727 -1.44713
internal_weight=0 245.396 207.205 239.911 181.203 51.8012 161.904 156.419 147.075 142.403 17.6734 9.34453 28.643 26.0022 21.3299 17.2671 124.729 109.494 28.4399 18.0796 10.3602 81.0537 66.6306 62.3646 32.7059 25.1896 10.3602 11.5791 23.1582 11.9854
internal_count=2228 1208 1020 1181 892 255 797 770 724 701 87 46 141 128 105 85 614 539 140 89 51 399 328 307 161 124 51 57 114 59
is_linear=0
shrinkage=1


Tree=5
num_leaves=31
num_cat=0
split_feature=15 1 6 5 6 5 6 2 3 19 13 3 5 15 19 13 13 1 15 15 16 1 16 16 17 7 7 1 13 15
split_gain=26.6881 22.0952 16.6397 24.7917 15.8504 29.0266 18.2066 14.6401 20.5251 14.4246 14.0557 17.6699 13.0587 12.6668 17.3548 16.755 28.6896 16.1373 11.6709 11.5907 12.659 9.79518 19.6001 14.6676 9.60242 9.40897 15.4018 8.54382 8.18757 7.50986
threshold=262.00448528157 -0.47559501987339214 -0.74404089681174057 0.35706279802390833 -0.11355183445127055 -0.056061545719417669 -0.15869346057614592 -0.13151678513779946 -0.19395513928593214 10.789515546707905 5046.2753740858689 -0.39106807400085886 -1.5537753619971 67.1242261667294 17.944406157555097 6380.0279613044395 6554.0903599400071 0.011650907908827965 87.992698924470474 -101.80183088115699 -72.916011946198878 1.0109938934823866 4.383763151182074 -33.113722711831798 10.916388699129355 58894.500000000007 74473.500000000015 0.36320533229102753 4591.9546048695001 -103.38523412779976
decision_type=2 2 2 2 2 2 2 2 2 2 2 2 2 2 2 2 2 2 2 2 2 2 2 2 2 2 2 2 2 2
left_child=1 2 12 7 5 13 -7 8 10 -6 -4 24 -1 14 15 19 -17 -15 -19 20 -3 28 23 -23 -12 -24 -27 -20 -11 -5
right_child=-2 4 3 29 9 6 -8 -9 -10 21 11 -13 -14 17 -16 16 -18 18 27 -21 -22 22 25 -25 -26 26 -28 -29 -30 -31
leaf_value=0.071991191943763064 0.22839115600935372 -0.020336137968676466 -0.0379552406290566 0.064586200256458878 0.12384289006427307 0.029807392373578767 0.27070948018270274 0.26287745342794427 -0.085277022274973996 0.074825231601269901 -0.028576558342322141 0.26685884066014287 -0.091546069344761241 -0.098121105899601047 -0.0591280527087698 0.26188142371221773 -0.075029210259084766 0.25533653607877921 0.14287286053815157 -0.040859827107969017 0.16926335387296265 -0.01006779978567348 -0.091913462914953004 0.23533924358375008 0.11569625941470421 0.16814048188533884 -0.098742659631618213 -0.049747833796855573 -0.060980345924910653 -0.033852293650796166
leaf_weight=6.9453720003366497 5.0516331046819678 7.5283777564764023 6.3239452689886084 10.371081739664076 5.3274403661489478 6.1537161767482758 6.4000794291496259 4.6331718862056723 6.7657639086246482 4.6058072149753562 5.4947529286146155 7.0051758885383597 16.441815435886383 4.3216223418712643 55.147861778736115 6.5843338370323163 4.1022594124078751 4.510210618376731 5.3261091709136945 31.051479756832126 6.6163704395294136 4.4752460420131683 15.160023599863054 5.3434896767139417 28.758047521114349 4.4603324681520444 4.1971180886030197 4.0566343814134598 122.84020000696182 30.665280401706696
leaf_count=34 21 38 31 53 26 31 29 21 34 24 27 32 89 23 286 31 21 23 26 162 31 23 80 26 134 22 22 21 649 158
internal_value=0 -0.00279937 0.0329575 0.050714 -0.0171161 0.00745074 0.152622 0.0922424 0.0776957 -0.0380498 0.100869 0.122148 -0.0429799 -0.00665 -0.0193299 0.0199449 0.132552 0.0706427 0.123139 -0.0066808 0.0683512 -0.043404 0.00459607 0.123486 0.0925524 -0.0444162 0.038756 0.0595932 -0.0560724 -0.00897402
internal_weight=0 431.613 123.404 100.017 308.209 141.799 12.5538 58.9809 54.3477 166.41 47.5819 41.258 23.3872 129.245 111.031 55.8828 10.6866 18.2146 13.893 45.1962 14.1447 161.082 33.6362 9.81874 34.2528 23.8175 8.65745 9.38274 127.446 41.0364
internal_count=2228 2207 613 490 1594 722 60 279 258 872 224 193 123 662 569 283 52 93 70 231 69 846 173 49 161 124 44 47 673 211
is_linear=0
shrinkage=0.1


Tree=6
num_leaves=31
num_cat=0
split_feature=17 1 1 5 1 5 6 19 19 2 19 17 5 7 7 7 8 1 3 7 6 12 19 17 15 18 15 16 12 12
split_gain=21.0749 10.7932 11.8183 10.6887 8.0352 11.4958 14.9916 7.16836 11.1573 16.6748 6.98359 6.81111 10.0492 7.52598 11.3151 7.01654 6.6124 6.46873 6.54286 9.07874 6.00676 9.80797 5.83705 5.61708 5.97606 5.52032 7.2058 10.3745 6.07758 10.8592
threshold=23.200030767595269 -0.37522175833133248 0.24872299413470531 -1.0195090036343439 -0.14471273314342892 0.1375296637755008 0.66772380008992849 22.415077736086392 26.058846057740272 -0.70137972453597619 19.550487784543247 47.953708581718764 1.4325400623167335 55623.000000000007 39317.000000000007 44571.000000000007 6292.3100000000068 -1.1961231331684139 -0.030623328972995276 38777.500000000007 -0.12776164202330451 6264.8525575728136 17.851251887859494 27.702834970790224 -23.14174208234726 27.125370306704273 -33.18584030370311 65.685340535114975 6029.6969339446678 6120.8892399072465
decision_type=2 2 2 2 2 2 2 2 2 2 2 2 2 2 2 2 2 2 2 2 2 2 2 2 2 2 2 2 2 2
left_child=1 7 3 -3 22 10 16 17 9 -9 -6 12 13 14 20 -16 -7 -1 -19 -20 -2 -22 -5 -17 -25 26 27 -4 -28 -30
right_child=11 2 25 4 5 6 -8 8 -10 -11 -12 -13 -14 -15 15 23 -18 18 19 -21 21 -23 -24 24 -26 -27 28 -29 29 -31
leaf_value=0.050899162815585756 -0.053210875618440782 -0.068566400627100427 0.16472068443292764 0.12721429762855133 0.13339874691112033 0.26167132866484882 0.050026784436967633 0.25568914557679728 -0.080218375001600298 0.0068555499534674897 0.020105939046049907 -0.052006964259628009 0.11532972159047175 -0.049165886793796756 0.16877860701897721 -0.059588729597977154 0.12037266141472341 -0.07330870658543874 -0.072874279167552486 0.084257266987444221 -0.038401742793664581 0.082610668366242812 0.0071335123908271986 -0.012061662815825431 0.12440903885405881 -0.057338155330151623 -0.028477589045401021 -0.022189912101365006 0.17278938382923581 0.01039610596026882
leaf_weight=7.9562183916568747 30.420904934406281 6.2563638836145392 7.1286529749631864 4.801255106925967 7.2115458250045803 8.7322532683610934 10.465942218899725 4.214809089899064 5.1317967921495429 7.4588570296764383 22.160533010959625 61.654769316315651 5.936623901128768 47.872545257210732 4.749601989984515 4.869785442948344 5.335619091987609 30.496908769011497 7.155424088239668 7.5641040354967117 16.35400348901749 11.342997461557387 25.804352313280106 5.5970207452774083 7.5198503881692833 11.720029562711714 31.877698302268982 5.0899427533149719 4.7187321931123725 32.333380624651909
leaf_count=40 156 31 34 23 34 39 49 21 26 37 106 318 27 245 21 24 24 155 35 37 83 53 125 27 36 59 157 25 22 159
internal_value=0 0.0191612 0.0318959 0.0575565 0.0668933 0.0901272 0.140656 -0.0142572 0.0426737 0.0966976 0.047922 -0.0244793 -0.0118759 -0.0177423 0.000863063 0.0606729 0.20808 -0.0322504 -0.0468813 0.00787283 -0.0225351 0.0111575 0.0259712 0.0321262 0.0661765 0.00681582 0.0160814 0.0868587 0.00353531 0.0310775
internal_weight=0 253.614 183.636 90.7679 84.5115 53.9059 24.5338 69.9781 16.8055 11.6737 29.3721 196.318 134.663 128.727 80.8542 22.7363 14.0679 53.1727 45.2164 14.7195 58.1179 27.697 30.6056 17.9867 13.1169 92.8684 81.1484 12.2186 68.9298 37.0521
internal_count=2228 1238 887 431 400 252 112 351 84 58 140 990 672 645 400 108 63 267 227 72 292 136 148 87 63 456 397 59 338 181
is_linear=0
shrinkage=0.1


Tree=7
num_leaves=31
num_cat=0
split_feature=1 15 16 10 1 4 7 15 18 7 0 7 7 17 17 6 14 4 6 1 15 17 3 3 1 7 18 9 4 5
split_gain=27.0899 19.8469 30.1511 16.5068 10.5402 10.3181 9.58398 9.18848 9.57766 8.91567 8.88775 8.78 9.51518 8.9488 11.2533 10.2381 7.40483 9.74752 7.19239 7.00044 6.90661 11.0457 8.66855 11.0533 10.7684 6.77397 9.18902 6.43271 6.40594 6.12261
threshold=-0.43457981994791089 67.1242261667294 47.651425863755911 6304.1588475176968 -0.15969520321506755 1.6578893561016799 85985.000000000015 -61.464276024458734 34.739580406068022 29359.000000000004 0.53284444207061121 9920.5000000000018 12030.000000000002 12.368747830950394 15.150055151846407 -0.41086952599794785 5982.0449462363613 0.29845783251486729 0.85496171383215158 -0.80010036287161002 -94.540930217161517 44.336719405799634 -0.61184952905739165 -0.064720750937807436 -0.037025107014595819 9871.5000000000018 18.608757674820382 6318.9695931500637 -0.2487176841296361 0.25286164016698159
decision_type=2 2 2 2 2 2 2 2 2 2 2 2 2 2 2 2 2 2 2 2 2 2 2 2 2 2 2 2 2 2
left_child=7 2 6 5 -3 9 10 -1 18 -4 11 27 -13 15 -15 -14 -11 -18 -9 -20 -16 22 -22 -24 -25 26 -5 -2 -26 -12
right_child=1 4 3 25 -6 -7 -8 8 -10 16 29 12 13 14 20 -17 17 -19 19 -21 21 -23 23 24 28 -27 -28 -29 -30 -31
leaf_value=-0.08015561305201449 0.0078862988864016569 0.073377425503420954 -0.012751781821259531 -0.059078073700140579 -0.060224825073591372 0.18315220063396198 -0.083417273887992652 -0.043013243496252407 0.10167085865959923 0.027524843989856742 -0.053772791510084662 -0.069410589873420039 0.086458492165663897 0.20190991577046558 -0.040222143293617202 -0.066024734493908055 0.046522337642162445 0.2218643635523615 0.1181295504739435 -0.029824633392299762 0.1628208341055053 0.17598536113898205 -0.072084568133722854 0.15883247058446748 -0.10148498122449326 0.14167703548150382 0.12931890840224719 0.14436156115266349 0.063539358992896269 0.029024068730860983
leaf_weight=38.230590924620628 5.520383968949317 6.8272279947996131 30.433295413851738 4.5374414324760419 43.716963022947311 4.5370410382747641 13.183958157896994 69.392406657338142 5.8952107429504386 24.128788888454437 32.978600159287453 12.909804716706274 5.8818327039480236 4.2930406630039206 10.160624757409087 17.516601994633675 7.4415041506290418 5.5239350348711014 5.9329629838466644 6.9371638596057874 4.1593838185071901 6.0867266207933417 10.528351500630373 6.5193882137536976 4.1413951218128169 29.623706445097923 6.0287999957799911 9.2253805398941022 5.4449378699064539 12.248220354318617
leaf_count=201 27 32 147 21 225 21 69 356 28 118 169 64 29 21 52 87 36 25 29 33 20 28 52 31 20 133 28 41 26 59
internal_value=0 0.0153829 0.026038 0.0658091 -0.0421786 0.0371721 -0.0017264 -0.0392114 -0.0214554 0.027364 0.00556969 0.0218778 0.00986626 0.0235611 0.0469237 -0.0276939 0.0602763 0.121227 -0.0302791 0.0383803 0.0327793 0.0528915 0.0285603 0.00759318 0.0596787 0.117158 0.0484159 0.0932692 -0.00775286 -0.0313499
internal_weight=0 323.597 273.053 112.255 50.5442 72.0646 160.799 126.388 88.1577 67.5275 147.615 102.388 87.6421 74.7323 51.3338 23.3984 37.0942 12.9654 82.2625 12.8701 47.0408 36.8802 30.7935 26.6341 16.1057 40.1899 10.5662 14.7458 9.58633 45.2268
internal_count=2228 1581 1324 529 257 347 795 647 446 326 726 498 430 366 250 116 179 61 418 62 229 177 149 129 77 182 49 68 46 228
is_linear=0
shrinkage=0.1


Tree=8
num_leaves=31
num_cat=0
split_feature=14 0 7 5 9 15 12 15 16 3 15 19 3 15 1 15 8 19 2 14 19 19 3 5 4 18 18 16 2 12
split_gain=16.2435 15.0832 7.73292 9.84659 9.92703 8.87718 11.2048 6.7277 7.22514 7.17163 9.49825 8.0561 6.36567 7.30192 9.7762 6.195 6.24185 6.00359 6.00358 5.45571 4.86848 4.64343 5.32506 4.24814 10.1461 4.21749 8.20554 5.67597 13.1602 6.58008
threshold=6192.0460215051617 1.147857047196339 81371.500000000015 -0.80745126754156749 6265.3886257480726 12.073173845643398 6435.1051668669816 -82.484705380198633 37.671484082524394 -0.32075525811980971 5.5120662802055458 20.421075909666886 0.18659798711949391 40.964720602727091 -0.040998178446663931 -1.817937835923203 6325.9266666666736 12.9066886070399 -1.7106173742115434 6282.9447311825952 24.978406552884753 19.839393847152582 -0.96575846167031998 -0.19677361293316464 0.21672104167779063 30.392937642077893 31.476221135769809 112.00985349750444 -0.089688729304509079 4968.2763189878979
decision_type=2 2 2 2 2 2 2 2 2 2 2 2 2 2 2 2 2 2 2 2 2 2 2 2 2 2 2 2 2 2
left_child=18 2 3 4 -2 6 -6 -5 9 21 15 -12 19 14 -14 16 17 -11 -1 -10 -15 22 -9 -18 -25 27 -27 -20 -29 -30
right_child=1 -3 -4 7 5 -7 -8 8 12 10 11 -13 13 20 -16 -17 23 -19 25 -21 -22 -23 -24 24 -26 26 -28 28 29 -31
leaf_value=-0.074257515369353488 -0.049295838980201928 0.1606978954421219 -0.036472788516515121 -0.073583625921887594 0.30570730261308832 0.039337981883858952 0.080282067110378386 -0.04116244267384031 0.050552647474886851 0.033449520046681926 0.2007450944937185 0.057070768387029791 0.1981278268947968 -0.098718319059684978 0.022776433340752168 -0.076916419478262402 -0.074862192335995129 0.19560328519162959 -0.027951961103556008 -0.05561939998367086 0.023271091195569218 -0.070449781218595617 0.07232096045659224 0.16473655077395938 -0.043868453661151802 0.10056387037168245 -0.00629848151401847 0.18059522437419417 -0.085601553971334565 0.017924528883611516
leaf_weight=16.817070126533508 3.963773816823962 7.5792634785175315 23.740148887038231 8.0125267356634122 4.4318674802780134 6.4713900089263907 4.3881445229053497 6.8509480804204985 5.979181274771693 4.4239920675754565 7.9537530541419965 7.6625294387340546 4.7046257108449945 5.1643737554550162 9.8074503988027573 4.3564832806587246 4.0951639115810385 4.7185691297054291 147.93355192244053 25.399191349744797 8.9258449077606183 6.7553120404481879 10.429532960057259 4.1314802616834623 5.3519288003444672 8.9988028556108457 35.659490928053856 4.266459345817565 7.9222171157598487 27.282908603549004
leaf_count=90 20 35 121 42 22 33 21 35 30 21 39 39 24 27 50 22 21 23 768 132 45 34 52 20 27 46 186 21 42 140
internal_value=0 0.0225435 0.0166516 0.0248422 0.0917321 0.128289 0.193553 0.015282 0.0209014 0.0435407 0.0681385 0.130248 -0.00428526 0.0298365 0.0796231 0.0323188 0.0532632 0.117139 -0.0165625 -0.0353882 -0.0214407 -0.000151365 0.0273298 0.0102553 0.047011 -0.0123815 0.0152347 -0.0189624 0.0147291 -0.00537197
internal_weight=0 185.297 177.718 153.978 19.2552 15.2914 8.82001 134.723 126.71 66.7297 42.6939 15.6163 59.9807 28.6023 14.5121 27.0776 22.7211 9.14256 248.881 31.3784 14.0902 24.0358 17.2805 13.5786 9.48341 232.063 44.6583 187.405 39.4716 35.2051
internal_count=2228 935 900 779 96 76 43 683 641 333 212 78 308 146 74 134 112 44 1293 162 72 121 87 68 47 1203 232 971 203 182
is_linear=0
shrinkage=0.1


Tree=9
num_leaves=31
num_cat=0
split_feature=15 9 2 2 7 5 3 18 3 3 9 12 5 13 17 7 4 2 17 17 16 4 9 13 9 7 6 5 16 2
split_gain=59.0807 42.8998 28.4672 25.3895 19.8551 14.9735 15.7591 16.1782 14.3392 17.5979 16.978 19.8087 15.9504 13.4702 13.1069 12.7136 12.6403 12.2566 12.2115 16.7137 12.0253 18.3586 12.6056 10.5634 13.8471 14.7757 10.539 16.1204 10.4321 24.9798
threshold=-68.242649787328887 6254.608073520013 -0.43816325789249883 -2.0691322271021528 63535.000000000007 0.82807322656102678 -0.59902561526459819 44.058985655981381 -0.030623328972995276 0.039246228372210236 5307.1550650263407 5397.6517601932219 1.536397693049349 5705.5101870644512 3.6876093633039466 64097.500000000007 1.3983723516255639 -0.39918789248499137 5.3565343025972068 13.378704898058496 -17.902460900678538 -0.12177605754683617 6419.3491311247526 6438.1148905937835 5550.6316668205936 68075.000000000015 -0.52456003241593752 -0.58210937548499608 -98.246080480941899 0.25160072648832094
decision_type=2 2 2 2 2 2 2 2 2 2 2 2 2 2 2 2 2 2 2 2 2 2 2 2 2 2 2 2 2 2
left_child=2 3 5 -2 8 6 7 13 26 -10 11 12 16 -1 -6 -3 -11 -12 -16 -20 21 -17 -23 24 25 -21 27 -5 29 -4
right_child=1 15 28 4 14 -7 -8 -9 9 10 17 -13 -14 -15 18 20 -18 -19 19 23 -22 22 -24 -25 -26 -27 -28 -29 -30 -31
leaf_value=0.12309400450708732 0.1654501890561616 -0.080898077541333852 -0.037164205836746213 -0.052246998237364575 -0.10009989166168634 0.0064880412654581936 0.26269800381990577 0.27060843705255055 0.14895127634159558 -0.067616479759242162 0.094630509096425175 0.21963466662335895 0.19575094766381418 -0.07983478690622306 0.21952708956563646 -0.043823190204589038 0.12611821245794613 -0.063226332491396628 -0.049002074325394954 0.19957116006161477 -0.081653726331987211 0.21074384266398538 -0.0084114908974042817 -0.052901459818717571 0.20863174416824384 -0.00095847886524315872 -0.079543750872516861 0.12434098945742245 0.0006563344668007961 0.2445152655406283
leaf_weight=11.475933030247694 9.9638779908418638 99.5836381316185 6.2790704071521741 16.629720211029056 4.9722568094730368 7.361901491880416 10.838006570935251 5.0411785542964926 8.3727255612611753 14.912359252572069 5.6369951963424674 5.8548031300306311 3.9925614297389975 4.575132727622985 4.9310424476861945 15.656030789017679 4.3502007573842993 38.594926536083221 11.641067296266554 5.2941070199012854 17.11570779979229 6.68614214658737 4.3205562829971313 4.3834258764982215 9.909700542688368 12.010467052459715 44.131775557994843 7.5015095025300971 43.27917492389679 6.3142769187688828
leaf_count=53 44 515 31 83 25 35 47 22 40 73 28 26 18 22 22 76 20 197 58 25 88 31 21 23 45 59 223 36 213 29
internal_value=0 -0.0188583 0.0698308 0.00959767 0.00195244 0.135051 0.164692 0.114333 -0.0166584 0.0116029 -0.0040768 0.0552315 0.0138406 0.065252 0.054476 -0.0611533 -0.023864 -0.0431088 0.0704318 0.0534287 -0.0162394 0.0257522 0.124717 0.0911657 0.114371 0.0603909 -0.0504888 0.0026477 0.023965 0.104069
internal_weight=0 356.446 95.1647 213.084 203.12 39.2922 31.9303 21.0922 149.978 81.7146 73.3418 29.1099 23.2551 16.0511 53.1421 143.362 19.2626 44.2319 48.1698 43.2388 43.7784 26.6627 11.0067 31.5977 27.2143 17.3046 68.263 24.1312 55.8725 12.5933
internal_count=2228 1776 452 1045 1001 179 144 97 744 402 362 137 111 75 257 731 93 225 232 210 216 128 52 152 129 84 342 119 273 60
is_linear=0
shrinkage=0.1


Tree=10
num_leaves=31
num_cat=0
split_feature=18 16 16 3 2 10 19 6 0 10 1 2 6 16 10 1 0 15 7 4 15 15 1 6 11 12 4 13 15 8
split_gain=21.0916 21.095 19.2586 18.4852 32.645 14.4815 10.4736 11.1176 10.004 9.30444 10.9222 16.8524 14.7914 15.351 12.6037 12.5892 12.7372 12.3116 13.7303 13.4999 12.696 13.2296 9.22104 8.17945 7.8942 14.4999 7.58457 11.4566 11.1222 10.7822
threshold=11.821311785323305 4.383763151182074 136.16611536476313 -0.18176579996447315 0.39740855682385196 6333.4880855150468 20.046350319934767 -0.22034318856513194 0.56858226657955158 4739.8065865218514 -0.30347796004761735 -0.46203637243892509 -0.74404089681174057 -168.96695537064798 5976.8233675908077 -0.93977339499538204 -0.4294070479607362 -25.929456131925686 15109.000000000002 -0.40843398464495367 16.673404209586355 8.6011359665863001 -0.1544456232270805 -0.11886494620973155 6518.4657251462004 6561.5553146829925 0.90004501364935019 5419.7210594263297 68.343501985910294 6042.9633333333377
decision_type=2 2 2 2 2 2 2 2 2 2 2 2 2 2 2 2 2 2 2 2 2 2 2 2 2 2 2 2 2 2
left_child=2 9 5 4 6 -1 7 -3 -8 -2 11 12 -11 14 -14 -13 23 18 -15 -19 21 -21 -12 -17 -5 -26 28 -28 -24 -29
right_child=1 3 -4 24 -6 -7 8 -9 -10 10 22 15 13 17 -16 16 -18 19 -20 20 -22 -23 26 -25 25 -27 27 29 -30 -31
leaf_value=0.043480869007224927 -0.060315694205715677 -0.029855415472513792 -0.098630048154400823 -0.060214570266041323 0.19574484214195154 0.23142590986934075 -0.070529629235496646 0.20316323119337004 0.10039846899820898 -0.0676581606145749 -0.081907266659133893 -0.056146931582905596 0.22945198800020747 0.070941755811120527 0.034831955926182163 0.10381841286307099 0.044823354071609978 0.1667181786935856 -0.10026528739810636 -0.0036292111579515462 -0.069592846707219935 0.22723214337820163 -0.013501659788514761 0.24290360953545787 0.16546671595510898 -0.04041425116964141 -0.057199876595480641 0.23902034928424146 0.14265286005371169 0.032897433063466687
leaf_weight=7.498750686645514 15.586864814162253 4.2829530835151672 3.985911399126052 112.94707141816616 8.8711057454347593 9.0444248467683774 24.527090981602672 3.9229185879230482 3.979697421193122 16.538737699389458 13.014005094766615 4.398231402039527 6.7807217240333539 6.9560727626085308 6.5340397953987122 7.6724604517221477 11.635241195559503 7.958920329809188 14.342484444379805 6.1226281970739418 9.6695991307497007 4.1747753173112869 76.442044958472252 9.419101342558859 4.5426648408174541 13.852254435420035 4.5997258126735678 4.9349138736724836 4.8506555110216132 5.2244826704263687
leaf_count=36 82 22 21 622 38 37 129 19 20 90 72 22 28 34 31 36 58 34 72 30 48 18 396 41 24 75 23 22 22 26
internal_value=0 -0.00515375 0.098691 -0.0312784 0.0235888 0.146233 -0.0180103 0.081542 -0.0466672 0.0143608 0.0196212 0.0415259 0.0164429 0.0386837 0.133945 0.101405 0.125528 0.0129165 -0.0443494 0.056592 0.0126953 0.0899666 -0.0029135 0.180468 -0.0503208 0.0104285 0.00778932 0.0737383 -0.00418407 0.133021
internal_weight=0 413.781 20.5291 176.926 45.5838 16.5432 36.7127 8.20587 28.5068 236.856 221.269 112.203 79.078 62.5392 13.3148 33.125 28.7268 49.2245 21.2986 27.9259 19.967 10.2974 109.066 17.0916 131.342 18.3949 96.0518 14.7591 81.2927 10.1594
internal_count=2228 2134 94 949 228 73 190 41 149 1185 1103 542 385 295 59 157 135 236 106 130 96 48 561 77 721 99 489 71 418 48
is_linear=0
shrinkage=0.1


Tree=11
num_leaves=31
num_cat=0
split_feature=17 0 1 7 7 7 9 18 1 5 4 15 5 17 7 0 3 6 2 18 13 1 8 4 2 7 7 2 4 19
split_gain=16.7448 8.98406 8.9115 8.80351 7.62618 9.64086 7.48521 8.34075 6.37583 6.1005 11.7636 5.94864 9.55995 10.871 10.5444 10.8624 9.50385 15.9037 9.20366 10.4224 6.31347 6.1583 8.34524 6.57891 5.80705 5.54643 5.47161 6.18074 5.42653 4.68236
threshold=23.200030767595269 -0.37134733588644159 0.22537552606976277 11903.500000000002 13900.500000000002 35939.000000000007 4989.0533261382034 16.853287195636529 -0.13192762757281148 0.065670863148166461 -0.47672072063575482 -135.72351366333803 1.4325400623167335 44.336719405799634 59944.000000000007 0.55470943822388541 0.7021249270569625 -0.12776164202330451 0.36964473270162584 28.067924918316475 5142.3356938441184 -0.60042748146136338 4956.2766666666739 -0.39238515399215784 -0.027246191923306139 81831.500000000015 66888.000000000015 -0.082709921645795784 -0.0027216199784104249 27.607390905994464
decision_type=2 2 2 2 2 2 2 2 2 2 2 2 2 2 2 2 2 2 2 2 2 2 2 2 2 2 2 2 2 2
left_child=1 6 3 9 -5 24 -1 -8 -7 10 -3 -2 14 -14 15 18 17 -17 19 21 -16 -13 -23 -24 -6 -4 27 -10 -25 -30
right_child=11 2 25 4 5 8 7 -9 26 -11 -12 12 13 -15 20 16 -18 -19 -20 -21 -22 22 23 28 -26 -27 -28 -29 29 -31
leaf_value=0.078111096070997241 -0.066985857321861839 0.16823342039188793 -0.00075724713690217054 -0.071218753718924513 0.057091701045272815 -0.016141188271662343 0.10766472565745976 -0.036910927252244451 0.1471147440451965 0.16399680732827132 -0.037026552273664561 0.15211612548222017 0.20226896132281391 -0.026003246321035223 0.05256402262664496 -0.0093840137488721623 -0.057337000183907166 0.20012007933046738 -0.098957113490305934 -0.034582292976202439 -0.069689150848843293 -0.097924189394090685 0.16266651383935599 -0.052072394780352721 0.18615043310900439 0.083570333624782486 -0.011292263189886131 0.035127193456732438 0.0060433145443955288 0.14380133504471171
leaf_weight=7.7322306185960761 25.632168367505074 5.1265569627285004 87.620263040065765 6.3453429341316214 7.4939849525690079 22.638314977288243 4.3009747117757788 55.257668823003769 8.6770092099905032 9.9203117638826352 6.1316349953413027 4.3047581464052227 4.2073426693677884 4.1381931453943253 4.65308654308319 6.6477506309747705 4.8031890392303458 7.9643973857164392 12.096930280327795 46.23383541405201 45.833215028047562 4.6702841818332699 4.1481787562370398 6.1895990818739035 6.5194889008998853 8.5617806762456876 8.7365866899490339 11.40761841833592 5.5700104683637459 4.4294813275337219
leaf_count=36 137 23 430 30 35 114 21 279 38 42 29 20 18 22 25 34 25 39 63 239 245 25 20 31 29 40 41 51 27 20
internal_value=0 0.0169284 0.0280909 0.0501634 0.0334554 0.0435999 -0.0144533 -0.0264705 0.0235752 0.106822 0.0564411 -0.0221509 -0.0152233 0.0890786 -0.0207485 -0.00298265 0.0646938 0.104807 -0.0179748 -0.00500745 -0.0584216 0.0416405 0.0226234 0.0503061 0.117134 0.00674929 0.0547714 0.0835083 0.0215157 0.0670661
internal_weight=0 256.47 189.179 92.9968 71.8183 65.473 67.2909 59.5586 51.4595 21.1785 11.2582 191.522 165.89 8.34554 157.545 107.058 19.4153 14.6121 87.6431 75.5461 50.4863 29.3123 25.0076 20.3373 14.0135 96.182 28.8212 20.0846 16.1891 9.99949
internal_count=2228 1238 902 432 338 308 336 300 244 94 52 990 853 40 813 543 98 73 445 382 270 143 123 98 64 470 130 89 78 47
is_linear=0
shrinkage=0.1


Tree=12
num_leaves=31
num_cat=0
split_feature=1 15 16 13 3 0 7 15 1 7 15 18 14 1 6 7 1 16 19 18 15 19 2 4 5 18 3 12 0 14
split_gain=22.5199 16.1507 22.771 12.2374 12.6025 13.4009 9.29981 8.89664 8.85304 8.46704 8.27999 7.94068 6.92945 6.52057 6.13948 6.10283 6.12734 5.88806 5.5057 4.74851 6.34772 4.65619 3.87128 4.86752 7.59629 5.40586 5.03353 5.78551 11.5159 8.91722
threshold=-0.43457981994791089 80.884510728732508 47.651425863755911 6094.9932784973853 1.3235921052555242 1.7782609110767378 9871.5000000000018 -13.463430220426742 0.20257834685429268 85985.000000000015 -61.464276024458734 34.739580406068022 7187.8797849459606 -0.16113879171101111 0.85496171383215158 6568.5000000000009 1.101526541633044 -1.0000000180025095e-35 20.470013383754367 17.396381965914141 15.743175720354886 29.432375156881594 -0.97325673703811566 -1.5019358870315649 -1.0409550301929802 28.263360791955602 -0.29915332784487886 6287.6535774726244 -0.19170610793194592 6006.1802150537278
decision_type=2 2 2 2 2 2 2 2 2 2 2 2 2 2 2 2 2 2 2 2 2 2 2 2 2 2 2 2 2 2
left_child=10 2 9 4 5 7 19 18 -6 12 -1 14 15 -3 -12 -2 22 -16 -4 -5 -21 -15 -17 -24 25 -25 -26 28 -28 -30
right_child=1 13 3 6 8 -7 -8 -9 -10 -11 11 -13 -14 21 17 16 -18 -19 -20 20 -22 -23 23 24 26 -27 27 -29 29 -31
leaf_value=-0.077026839916042325 0.099936755567790636 0.066066734251062659 -0.042411723547811087 -0.060872413516014572 0.015206134317054905 0.16491308253601497 0.10757828667945513 -0.050648244985978377 0.20521587266729402 -0.081105744227332716 -0.040419336937279476 0.089160210744163471 0.1150512926041377 -0.020280763411887153 -0.056819233865419289 0.10156817344663992 -0.061771294766079045 0.083371625914906683 0.083753976295333987 -0.0385192912396424 0.10917575152673305 -0.092178766363550213 -0.084149106289307829 0.17055512383920649 -0.044288561761662598 0.026082547298037773 0.15300182973122561 -0.02504082655273639 -0.027154675706166101 0.069523015045619127
leaf_weight=35.689701825380325 5.8664615899324408 4.691745162010192 5.0989225655794099 4.9360380470752743 4.3003956824541074 4.4818684309720984 47.362474679946899 27.88868306577206 5.7053385227918625 12.605280071496962 67.31097337603569 6.209553360939025 5.4382395297288886 16.633863896131516 4.6116263419389734 3.8981924802064887 16.301543146371841 8.5512461811304057 10.753283277153967 4.5987505018711072 7.9240530282258987 19.645566076040268 6.454068884253501 4.3851544260978681 23.126012548804283 6.3265780061483383 6.638782799243919 30.395141407847404 24.308682799339302 15.704180285334585
leaf_count=201 27 21 25 24 21 21 202 137 23 70 356 28 24 88 23 18 86 39 51 21 35 108 33 21 116 32 31 152 119 75
internal_value=0 0.0138326 0.0222862 0.0546923 0.0214191 0.000227735 0.0845814 -0.0166466 0.123551 -0.00241259 -0.0364883 -0.0197975 0.00425181 -0.0448677 -0.028205 5.00393e-05 -0.00421046 0.0342556 0.0431723 0.0221954 0.0549377 -0.059214 0.00352919 0.000272169 0.00518594 0.0852265 -0.00337301 0.00890802 0.0310268 0.0107892
internal_weight=0 325.469 284.498 123.05 58.2285 48.2228 64.8213 43.7409 10.0057 161.448 122.373 86.6834 148.843 40.9712 80.4738 143.405 137.538 13.1629 15.8522 17.4588 12.5228 36.2794 121.237 117.339 110.885 10.7117 100.173 77.0468 46.6516 40.0129
internal_count=2228 1581 1364 560 278 234 282 213 44 804 647 446 734 217 418 710 683 62 76 80 56 196 597 579 546 53 493 377 225 194
is_linear=0
shrinkage=0.1


Tree=13
num_leaves=31
num_cat=0
split_feature=11 0 15 19 12 14 16 18 7 7 0 0 4 6 17 18 1 18 16 16 2 3 9 18 10 15 8 16 11 7
split_gain=13.2101 12.3732 10.5891 6.96906 6.72626 6.08868 9.83468 5.9402 5.41199 10.8545 6.80698 6.89302 6.76606 5.64482 7.53044 5.35938 5.72183 5.23363 8.98046 7.17602 7.27211 5.91062 8.99162 7.04261 9.04498 6.04199 5.00501 7.39163 7.13251 6.99508
threshold=5989.440740691196 1.2172028969424045 -93.241759494187576 25.183178613335837 6025.3206075187163 5935.6045161286975 -0.93983154315063899 16.375434546533359 68454.500000000015 64800.000000000007 -0.19170610793194592 0.59307804786496288 -0.70604873752152664 -0.82366586091016536 35.815319118027269 16.979322945827722 0.46619767277160334 24.462473319805952 -23.411732636068052 -94.622908492710465 -0.39164635674435383 0.12306888118811118 6283.5858502488836 19.540517587318888 6328.3987904160813 25.555120737658402 5149.4633333333377 98.738737984179807 4856.5619047619048 56553.500000000007
decision_type=2 2 2 2 2 2 2 2 2 2 2 2 2 2 2 2 2 2 2 2 2 2 2 2 2 2 2 2 2 2
left_child=4 2 -2 7 5 26 -7 -4 9 12 -10 -12 13 14 -9 16 -5 18 19 -14 -21 23 -23 -20 -25 -24 28 -28 -1 -30
right_child=1 -3 3 15 -6 6 -8 8 10 -11 11 -13 17 -15 -16 -17 -18 -19 21 20 -22 22 25 24 -26 -27 27 -29 29 -31
leaf_value=-0.025355868612636574 -0.057530541642321104 0.14173067752970234 -0.028582100023911608 -0.019904485806610056 -0.083287122454066553 -0.052776851501429467 0.14282882991762752 -0.0032021222197224763 -0.052491140575721774 0.17692309532589262 0.11920732158497459 -0.038540992491743697 0.010138072829162084 0.17816404412913267 0.15240709104532091 -0.057342205782777746 0.10597516327626262 0.0019189620155956044 -0.078737694875217826 0.25849503720064215 0.084796621678372888 -0.0068502304144233851 0.038994978588527407 0.15223901561675041 -0.030484170683988895 0.19613317012814147 -0.045764390787294169 0.022720204373258081 -0.013982840633078817 0.080866890124954627
leaf_weight=41.091021865606308 19.90185184776783 7.6148035228252402 17.147647365927696 11.316616013646128 14.921450614929197 4.4455095231533051 6.0937895476818067 8.1450105160474795 14.845216348767282 5.692967176437377 6.3677781224250776 4.9026798605918884 4.4387790113687506 5.3313735574483863 5.0307738631963721 19.156418338418007 5.3031204938888541 48.86166350543499 9.3166476637125033 4.4111081957817069 5.3138427734374991 9.5622409880161303 4.2813394814729673 4.3375323861837369 7.2158225625753403 5.7107492238283157 80.873723059892654 19.574416756629944 14.199366226792337 17.186324298381805
leaf_count=219 108 32 91 58 84 24 28 40 76 26 32 25 21 25 22 99 26 245 47 20 25 47 21 21 37 28 439 99 75 88
internal_value=0 0.0163488 0.0121352 0.0188432 -0.0187214 -0.0134702 0.0603217 0.0272444 0.03347 0.0419558 -0.0080071 0.0505864 0.0356555 0.0913432 0.0562125 -0.0212914 0.0202619 0.0256929 0.046973 0.115495 0.163584 0.0229643 0.0624677 -0.0140488 0.0381165 0.128804 -0.0179676 -0.0324187 0.00206078 0.0379554
internal_weight=0 234.206 226.591 206.689 198.386 183.464 10.5393 170.913 153.766 127.65 26.1157 11.2705 121.957 18.5072 13.1758 35.7762 16.6197 103.45 54.5881 14.1637 9.72495 40.4243 19.5543 20.87 11.5534 9.99209 172.925 100.448 72.4767 31.3857
internal_count=2228 1172 1140 1032 1056 972 52 849 758 625 133 57 599 87 62 183 84 512 267 66 45 201 96 105 58 49 920 538 382 163
is_linear=0
shrinkage=0.1


Tree=14
num_leaves=31
num_cat=0
split_feature=10 7 17 3 10 17 1 2 17 18 1 19 12 15 2 1 5 3 17 7 1 6 16 5 15 0 2 3 12 10
split_gain=48.1423 34.0186 22.1472 19.7245 17.7643 13.6418 13.5166 12.174 12.1277 11.6201 9.95149 12.9618 20.8606 13.1626 15.2441 12.182 11.0136 16.9966 14.5797 9.68357 11.8749 9.03711 8.31219 10.5488 8.74864 8.12904 7.88014 7.36677 7.28039 11.5629
threshold=5957.7338971684057 67873.000000000015 3.3913334089116258 -1.5530917895922383 6305.4252175646443 50.696442035470021 -1.3009153193625853 0.54046129620992833 4.2877319721097065 34.031830114896387 -0.14471273314342892 18.260534371631596 5865.7465980208135 -79.604755321414345 -0.43816325789249883 -0.49071701588973032 -0.23079227926958043 -0.39106807400085886 11.005046336669905 63535.000000000007 0.33950148075969755 -0.38604204558434635 -68.920627115927061 0.81621734125707068 -81.830113351231816 -0.24811576498097379 -0.65657351000038155 -0.35430031834353148 6231.3142960642554 6188.5187631930876
decision_type=2 2 2 2 2 2 2 2 2 2 2 2 2 2 2 2 2 2 2 2 2 2 2 2 2 2 2 2 2 2
left_child=2 22 -1 -3 7 8 -6 27 -4 10 11 13 15 14 -10 -13 17 -12 -19 20 -20 -22 23 24 -2 -17 -11 -5 29 -24
right_child=1 3 5 4 6 -7 -8 -9 9 26 16 12 -14 -15 -16 25 -18 18 19 -21 21 -23 28 -25 -26 -27 -28 -29 -30 -31
leaf_value=-0.074463025383562712 0.070119328680183182 0.19279755407717988 0.16573558630571877 0.10876614887440471 0.12810136467833053 0.10576552783285718 -0.054716501946268828 0.19317550070692269 0.15937484248952821 0.049207038686523694 -0.071344140064477243 -0.016540634984215024 0.20596443754155203 -0.050161705185172184 -0.061687379669872526 0.20103973500679856 -0.036743033748235052 -0.080319219653497975 -0.037544010543573703 0.21644076091759912 0.24240426481498864 0.045240144933305866 -0.074007912479528606 0.13249740530958318 -0.0522557102408771 0.018067951439168797 0.22229145000184802 -0.063056544465348835 -0.085031248474349563 0.029694433709004195
leaf_weight=17.38618765771389 6.94348220527172 6.9410117566585532 6.5407485514879218 5.0296516120433816 4.700047403573989 29.676646500825882 28.981075257062912 7.340109482407569 8.5265043228864652 5.7758346796035767 10.444221317768095 15.280665069818495 10.743068248033522 19.459564507007599 4.9190466701984397 5.8715635240077972 45.354585722088814 4.7139507234096554 6.1273496896028545 6.4521056562662116 4.5535395890474328 4.7495383471250507 28.770176202058792 4.2319465577602378 36.823064520955086 4.1403088271617907 4.8300233483314496 4.952003240585328 81.5142802298069 17.168135762214661
leaf_count=95 33 29 27 21 21 124 150 32 35 25 53 75 44 95 24 26 227 23 29 27 19 23 153 20 196 20 20 23 448 91
internal_value=0 -0.0317917 0.0337537 0.0346418 0.0131182 0.0432485 -0.0292051 0.0954134 0.0322367 0.0268448 0.0197534 0.0477875 0.0892218 0.00241124 0.0784994 0.0396351 -0.00370287 0.0367532 0.0792022 0.113566 0.0705503 0.141745 -0.0537318 -0.0182635 -0.0328411 0.125374 0.128032 0.0235231 -0.0670891 -0.0352521
internal_weight=0 233.395 215.545 57.9439 51.0029 198.159 33.6811 17.3218 168.483 161.942 151.336 68.9407 36.0356 32.9051 13.4456 25.2925 82.3953 37.0407 26.5965 21.8825 15.4304 9.30308 175.451 47.9985 43.7665 10.0119 10.6059 9.98165 127.453 45.9383
internal_count=2228 1217 1011 276 247 916 171 76 792 765 720 319 165 154 59 121 401 174 121 98 71 42 941 249 229 46 45 44 692 244
is_linear=0
shrinkage=0.1


Tree=15
num_leaves=31
num_cat=0
split_feature=15 19 13 10 0 2 6 3 15 16 10 13 16 8 5 2 8 19 10 13 12 7 15 19 15 2 12 13 15 0
split_gain=16.7486 23.7031 12.5712 10.3732 11.1477 13.0779 11.9791 12.237 10.4293 20.69 10.3777 17.2362 8.66852 18.6221 8.58049 8.17008 7.97365 7.92903 15.0524 11.9846 14.8051 8.33916 8.90164 7.85827 7.79996 13.618 12.4904 7.24517 7.69327 6.99716
threshold=105.42267825961973 19.94447906995185 6675.3884931622242 4739.8065865218514 -0.37134733588644159 -0.37985118306978316 -0.74404089681174057 -0.11406486624645246 -25.929456131925686 -173.85678378769163 6625.6864310428318 6396.66525058364 -109.45953920376206 5998.950000000008 0.33449797325816205 -1.8427444386756624 6311.7533333333404 22.26463609846309 6682.267804294318 5880.864531680746 5787.5525786695116 49397.500000000007 68.343501985910294 25.183178613335837 252.28031371230966 0.23456750918468197 5404.9456945268093 6209.8207269187942 -99.335433595902927 0.24348169182455187
decision_type=2 2 2 2 2 2 2 2 2 2 2 2 2 2 2 2 2 2 2 2 2 2 2 2 2 2 2 2 2 2
left_child=1 3 24 -1 5 6 -5 8 9 -8 11 16 13 -10 17 -11 -6 18 -3 20 21 -19 -23 29 25 26 -2 28 -7 -21
right_child=2 14 -4 4 10 27 7 -9 12 15 -12 -13 -14 -15 -16 -17 -18 19 -20 23 -22 22 -24 -25 -26 -27 -28 -29 -30 -31
leaf_value=-0.073589777952156613 -0.056895961646406416 -0.083286595036399902 0.16802857631948767 -0.055114103713548961 0.008726232241796604 0.14822680766933899 0.16062513249442242 -0.063261282836944599 0.18381316342408674 0.075210058920797171 -0.088821206809095332 0.11712439457272075 0.16368944745981423 -0.083232725063799459 -0.068396811584019279 -0.072717125275610126 -0.064956006410821263 0.081312615902977392 0.094157311263713322 -0.051133854666067784 0.20098128131694359 -0.088052707268603425 0.074956616654355004 -0.085740628589235035 0.12638207608179483 -0.067641737814231787 0.14227468529550827 0.20752267094989649 -0.012493357245495971 0.054565558801198025
leaf_weight=12.628026306629179 4.7481071501970318 32.255844980478287 8.513876408338545 14.347172915935515 74.239687621593475 6.5839198231697091 7.6940323859453192 8.6749130189418775 4.9686754196882266 5.0802838951349267 12.006512239575384 12.998252987861632 14.03560057282448 5.5038528442382812 53.622340276837349 14.085086926817894 18.309047266840935 11.122486114501958 5.6124055236577979 12.680647403001787 5.1677567064762107 9.917926222085951 5.0586880445480338 17.860411450266838 6.9568821042776099 12.683269947767256 9.3469798117876035 6.3568289726972571 5.4384630918502816 12.374738648533819
leaf_count=70 25 175 35 81 384 28 31 47 19 25 67 60 57 27 310 71 101 53 28 70 23 54 25 101 27 68 46 28 26 66
internal_value=0 -0.00684978 0.0594467 0.0144394 0.0197248 0.0456408 0.026978 0.046594 0.0651463 0.0221046 -0.000727075 0.00929408 0.112317 0.0434668 -0.0354992 -0.0335051 -0.00585043 -0.0197559 -0.0569879 -0.000749988 0.0463399 0.0157201 -0.0329926 -0.0350579 0.0320436 0.00753489 0.0751816 0.121178 0.0755232 0.00107059
internal_weight=0 388.624 42.2491 222.95 210.322 92.7688 74.3896 60.0424 51.3675 26.8594 117.554 105.547 24.5081 10.4725 165.673 19.1654 92.5487 112.051 37.8683 74.1827 31.2669 26.0991 14.9766 42.9158 33.7352 26.7784 14.0951 18.3792 12.0224 25.0554
internal_count=2228 2027 201 1122 1052 440 358 277 230 127 612 545 103 46 905 96 485 595 203 392 155 132 79 237 166 139 71 82 54 136
is_linear=0
shrinkage=0.1


Tree=16
num_leaves=31
num_cat=0
split_feature=17 5 2 2 6 4 6 18 6 14 15 4 7 13 0 1 2 18 0 4 2 7 5 19 2 18 18 12 7 19
split_gain=14.0075 8.4059 6.72265 10.6105 10.9257 11.7762 8.95741 7.96857 7.3883 6.33287 5.41841 8.18464 5.62772 6.76926 6.15908 9.00243 8.58702 8.07081 5.30385 8.87069 7.03613 5.25742 5.24219 10.9463 11.7509 9.38364 9.74859 13.4201 9.34188 9.21401
threshold=23.200030767595269 -1.2197843621409283 -0.24938010587577153 0.044659229099885858 0.66772380008992849 0.078524318277475871 -0.82841080114946808 23.89607412357056 0.11816347887395445 6280.1587096773919 -135.72351366333803 1.8997147285284866 60228.000000000007 5142.3356938441184 0.54465836079318508 1.235395916548206 0.36964473270162584 28.067924918316475 -0.49445444995914695 -0.39238515399215784 -0.01924893036245438 39317.000000000007 0.38774031704855105 20.742563959627869 0.78401232712580782 24.999525044220771 18.696139400020467 6399.2183632037149 10521.500000000002 26.058846057740272
decision_type=2 2 2 2 2 2 2 2 2 2 2 2 2 2 2 2 2 2 2 2 2 2 2 2 2 2 2 2 2 2
left_child=1 -1 6 4 5 8 7 -3 -4 -7 -2 12 14 -14 16 -16 17 18 -12 -20 -21 -22 25 -24 -25 26 -5 28 -28 -26
right_child=10 2 3 22 -6 9 -8 -9 -10 -11 11 -13 13 -15 15 -17 -18 -19 19 20 21 -23 23 24 29 -27 27 -29 -30 -31
leaf_value=-0.066408164389164248 -0.064320852258380579 -0.0053831465225201679 0.03261658785550136 -0.039127637549760834 -0.063067988133669622 0.26858493330304956 -0.014378099540326103 0.1873335224425825 0.1689392214889367 0.10645408573765783 0.10843250764015477 0.10232420654068974 0.066133833638623754 -0.05858446698819219 0.089859021547975107 -0.063302963848091212 -0.097456105931267759 -0.030798072470725982 0.12829870686825273 -0.087677435578056226 -0.02973967445877157 0.1151360688977027 -0.038192074796317664 0.13585458036274831 -0.061348365254012452 -0.061417785388742735 0.1260553093382806 0.16509204254365761 -0.0024078192877728458 0.11906362153058939
leaf_weight=11.957935273647307 24.471713721752167 4.1867087334394437 19.810064435005192 19.409618720412254 4.9045330584049216 4.9830845296382886 75.855827212333679 4.4008937925100327 4.9738484919071189 4.6641776561737061 7.4579336792230633 5.8459811806678763 4.8275240808725348 44.173049822449684 13.533550620079042 5.3564702719449988 11.406777918338774 46.832712978124619 5.1178937107324662 8.4608250558376383 5.5265531539916886 4.5812429040670395 10.876078590750692 16.110210403800014 7.6341058015823346 17.926280185580254 6.9192067682743064 7.7807944416999808 31.125017434358597 4.4992573261260986
leaf_count=61 137 21 92 96 23 20 377 19 20 20 33 29 25 247 66 27 63 247 23 44 27 22 52 72 38 90 31 35 150 21
internal_value=0 0.0154684 0.0194474 0.0313952 0.0765716 0.0964625 -0.00341963 0.0933785 0.059975 0.190199 -0.0204425 -0.0138597 -0.0181784 -0.0462973 -0.00545283 0.0464283 -0.0164172 -0.0045625 0.0348886 0.0117326 -0.0203954 0.0359236 0.0168627 0.0470511 0.0798767 0.00266185 0.0202707 0.0454295 0.0209561 0.00555147
internal_weight=0 258.018 246.06 161.616 39.3357 34.4312 84.4434 8.5876 24.7839 9.64726 187.592 163.121 157.275 49.0006 108.274 18.89 89.3839 77.9772 31.1444 23.6865 18.5686 10.1078 122.281 39.1197 28.2436 83.1609 65.2346 45.825 38.0442 12.1334
internal_count=2228 1238 1177 760 175 152 417 40 112 40 990 853 824 272 552 93 459 396 149 116 93 49 585 183 131 402 312 216 181 59
is_linear=0
shrinkage=0.1


Tree=17
num_leaves=31
num_cat=0
split_feature=1 15 16 7 16 11 18 1 15 7 18 16 18 6 7 0 5 4 2 7 7 17 6 15 17 17 7 6 3 6
split_gain=18.6933 13.4514 17.9747 9.6289 8.38202 8.66593 8.87891 7.64875 7.57354 7.54312 7.06258 12.8396 9.09445 7.50884 7.04829 6.11775 6.51169 9.60478 6.0105 5.90957 6.38033 6.4002 8.10433 7.16968 5.66261 7.23686 7.09195 5.52949 5.47125 7.54345
threshold=-0.43457981994791089 67.1242261667294 47.651425863755911 29359.000000000004 173.14968240921647 6008.2234798534801 22.134519976288352 -0.15969520321506755 -61.464276024458734 85985.000000000015 20.961077198539893 -1.3476151727944787 28.165083424536789 0.63738061185227657 6986.0000000000009 0.54465836079318508 0.25286164016698159 1.5313096194413125 -0.64325833945714928 9920.5000000000018 12030.000000000002 12.368747830950394 -0.41086952599794785 -94.540930217161517 44.336719405799634 15.150055151846407 49824.000000000007 -0.18822578501199402 0.089105703372105535 -0.25336174721253285
decision_type=2 2 2 2 2 2 2 2 2 2 2 2 2 2 2 2 2 2 2 2 2 2 2 2 2 2 2 2 2 2
left_child=8 2 9 14 5 6 -5 -3 -1 15 -10 12 -12 18 -4 19 -17 -18 -13 28 -21 22 -22 -23 25 -25 -27 -14 29 -2
right_child=1 7 3 4 -6 -7 -8 -9 10 -11 11 13 27 -15 -16 16 17 -19 -20 20 21 23 -24 24 -26 26 -28 -29 -30 -31
leaf_value=-0.074200278960361826 0.11283704498887806 0.056744009382485007 0.12508881786617149 -0.016190748624317606 0.1857107630444699 0.094167340273499406 0.10344962594266172 -0.054163609169916693 -0.072304255465318282 -0.078485493609618193 -0.060951727671911031 -0.071160124334493619 -0.012938072161016684 0.17078455022307917 0.0016118730160595844 -0.051646177255045389 0.10938506404232227 -0.076696787960118862 0.10619073943032789 -0.058711100615342918 0.070669216936887769 -0.038806004209305904 -0.06252671735687948 0.15108083017906049 0.13833313249737275 0.059392292759359512 -0.037235670603828264 0.090674435961912672 0.14623853591847219 -0.063578088739796729
leaf_weight=33.437155976891518 4.9584080278873452 7.3674952685832968 5.1879877299070349 19.762396693229679 6.0404277294874182 37.810575604438782 9.0407541096210462 39.863166615366936 18.700742736458778 11.70732471346855 30.115619957447052 3.7309251129627228 14.950765773653986 5.7689572274684906 42.439949706196785 30.430421888828278 7.0644462406635267 4.567070797085762 3.917324170470236 12.428004443645476 6.3073963522911098 10.057853758335112 16.565747424960136 5.010684370994567 6.8490034639835349 19.537031531333927 12.426832541823385 7.8576456010341635 6.3084681183099738 4.741672858595849
leaf_count=201 21 32 23 95 24 151 40 225 98 69 165 20 77 25 196 166 33 24 21 65 29 53 87 21 28 90 61 40 27 21
internal_value=0 0.0124926 0.0208406 0.0500071 0.0729151 0.062687 0.0213621 -0.0368632 -0.0338793 -0.0012291 -0.0180258 -0.0027254 -0.0248761 0.084648 0.0150619 0.00491316 -0.0273204 0.0363207 0.0196765 0.0178021 0.00776004 0.018523 -0.0257972 0.0373373 0.0548128 0.0393418 0.0218255 0.0227571 0.073746 0.0266004
internal_weight=0 326.473 279.242 120.282 72.6542 66.6137 28.8032 47.2307 118.479 158.96 85.042 66.3412 52.924 13.4172 47.6279 147.253 42.0619 11.6315 7.64825 105.191 89.1826 76.7545 22.8731 53.8814 43.8236 36.9745 31.9639 22.8084 16.0085 9.70008
internal_count=2228 1581 1324 529 310 286 135 257 647 795 446 348 282 66 219 726 223 57 41 503 434 369 116 253 200 172 151 117 69 42
is_linear=0
shrinkage=0.1


Tree=18
num_leaves=31
num_cat=0
split_feature=11 0 13 15 19 12 18 14 16 13 2 0 17 1 9 0 17 17 1 16 5 16 2 7 7 2 15 10 18 16
split_gain=10.6604 10.3898 13.7698 7.49982 7.01924 6.04113 5.43627 5.12724 7.32433 5.06023 5.06876 5.56266 13.8511 6.41533 7.9792 6.29293 7.22624 13.8161 7.38477 6.63191 4.39518 4.32214 4.84371 3.93741 5.21401 11.9616 8.66868 8.59244 12.6579 7.6088
threshold=5989.440740691196 1.0725093589834767 6368.7779857603864 -93.241759494187576 25.183178613335837 6025.3206075187163 16.593064219564884 5935.6045161286975 -0.93983154315063899 5858.7266099752351 -2.0691322271021528 -1.0086495050186255 32.611858246780614 -0.23479864509763174 5871.7665465172677 -0.10519703661747833 10.916388699129355 7.0040916309613737 1.1178941777352496 -48.313664960872693 1.2246272547758843 149.51278174778642 -0.31069423512387112 75416.000000000015 46840.500000000007 0.74880210222842114 -56.704806900371743 6455.8476367887424 25.90327046542404 131.61846014287713
decision_type=2 2 2 2 2 2 2 2 2 2 2 2 2 2 2 2 2 2 2 2 2 2 2 2 2 2 2 2 2 2
left_child=5 3 -3 -2 6 7 -5 9 -9 10 -1 12 -12 -13 15 19 17 18 -17 -15 -18 22 -6 24 29 26 -26 -28 -29 -8
right_child=1 2 -4 4 21 -7 23 8 -10 -11 11 13 -14 14 -16 16 20 -19 -20 -21 -22 -23 -24 -25 25 -27 27 28 -30 -31
leaf_value=-0.083950726194778974 -0.052118191813499692 0.016859754653913765 0.23363411269677067 -0.029363201395021632 0.029852627576045385 -0.080556951975784108 0.015054690406220636 -0.048527508883630666 0.12059457516812998 -0.071384658140341742 0.15951664713446162 -0.045883479195938416 -0.041064632805729001 -0.029625510892759117 0.12611775162035244 -0.054285273166946361 -0.048400382670728576 0.14320637158515534 0.099796900877983388 0.12987637569129343 0.039055052411685089 0.051690002340751155 -0.065984220055758561 -0.011454202019568586 0.20339231195589452 -0.079850219950796164 0.024573396835269837 0.19562914822945718 -0.011716545169352258 0.15063298589493257
leaf_weight=8.9439630657434446 17.982484742999077 7.2281520515680295 4.9281672984361649 17.478015542030334 7.0037976056337383 13.853441223502157 84.408360227942467 4.1892471611499786 6.5874243825674039 15.175674661993979 6.5441491901874524 40.444753915071473 7.2643590122461319 4.343324214220047 4.8973463475704184 13.72033712267879 44.109627246856689 7.4125484079122534 4.0224358141422263 6.5199830383062203 6.6072754710912696 5.9113798886537543 21.348612129688263 20.378282070159912 5.1362531036138526 5.1473078727722159 21.178633451461792 8.9097786992788297 4.3973153978586188 4.352849766612052
leaf_count=54 102 31 20 95 37 84 409 24 28 83 33 220 42 23 26 74 236 38 21 33 37 30 112 105 22 27 101 39 21 21
internal_value=0 0.0147054 0.10474 0.00981132 0.0152266 -0.0169145 0.0234871 -0.0120376 0.0548513 -0.0162776 -0.0108763 -0.00639629 0.0539952 -0.0127101 0.00193188 -0.00508002 -0.0152722 0.0285482 -0.0193535 0.066105 -0.0370069 -0.0260926 -0.04231 0.0294888 0.0357372 0.063561 0.0821917 0.0641402 0.127112 0.0217035
internal_weight=0 235.789 12.1563 223.633 205.651 194.636 171.387 180.782 10.7767 170.006 154.83 145.886 13.8085 132.078 91.6329 86.7355 75.8722 25.1553 17.7428 10.8633 50.7169 34.2638 28.3524 153.909 133.53 44.7693 39.622 34.4857 13.3071 88.7612
internal_count=2228 1172 51 1121 1019 1056 840 972 52 920 837 783 75 708 488 462 406 133 95 56 273 179 149 745 640 210 183 161 60 430
is_linear=0
shrinkage=0.1


Tree=19
num_leaves=31
num_cat=0
split_feature=9 18 17 2 17 7 17 14 18 3 1 19 17 17 5 19 4 17 4 1 4 8 5 16 2 16 13 17 2 19
split_gain=39.9811 29.2357 23.2039 16.7387 16.4352 11.6355 11.4274 11.7751 11.2913 14.3257 11.8561 10.7582 10.3662 10.3462 16.2073 10.2125 13.7284 18.6801 9.6759 9.65329 18.1934 9.20907 8.90541 11.0658 12.6473 13.2795 8.46724 7.96415 7.63521 9.87871
threshold=6254.608073520013 44.431454596131736 3.3913334089116258 -0.87481060158389101 4.2877319721097065 69108.500000000015 14.306398323602293 6006.1802150537278 32.353234090965422 -0.44870033119018166 0.023546401556001569 21.902177760422521 12.368747830950394 50.696442035470021 -0.17374261159998927 16.85957919534464 -0.39238515399215784 20.51194078672955 0.20283112046081053 0.47131413754839685 -0.12504687671328915 6251.1133333333391 0.94069199544855164 -101.23322972035733 -1.6080964335387027 -199.02354768225877 4979.4752841616 17.889509318933545 -2.345066676685772 21.98978660463623
decision_type=2 2 2 2 2 2 2 2 2 2 2 2 2 2 2 2 2 2 2 2 2 2 2 2 2 2 2 2 2 2
left_child=2 5 -1 22 -5 -2 19 8 9 -8 -10 12 18 14 15 26 -17 -18 -7 20 -6 27 23 24 25 -4 -11 -9 -25 -30
right_child=1 -3 3 4 6 11 7 21 10 13 -12 -13 -14 -15 -16 16 17 -19 -20 -21 -22 -23 -24 28 -26 -27 -28 -29 29 -31
leaf_value=-0.078060527817282191 -0.065536785371877099 0.19223829619680299 0.10263803952107708 0.14770951663551446 -0.077089174755890486 0.010784157296952316 -0.069322811846627461 0.083497406410417724 0.00068064551193863755 0.090230746495601033 0.16688045687631922 -0.09659608428678014 -0.024403609109281771 0.12861156938193882 -0.016760829342092803 0.22939085711750085 -0.099740834558985692 0.13805120125878975 0.18963805062570394 -0.092326324561471634 0.054908393889326307 0.096517397931723495 -0.037876273008904594 0.25368018821365346 0.12773365311051901 -0.084359941635128569 -0.10056209776506081 -0.072602659028956462 0.16580233851719961 -0.0043458834215954123
leaf_weight=21.746811628341675 113.1633642166853 5.1640537530183783 6.4172002077102652 9.1654969304800016 18.231174051761627 6.0810465812683123 13.340074345469473 3.8016154170036343 6.4765319973230389 4.5219172537326759 12.726429983973501 8.7712656706571561 15.141560629010199 11.905240103602408 37.588458880782134 7.2958877533674285 4.8389119356870625 10.411900714039801 6.018422469496727 16.11689330637455 24.440243244171143 5.038496956229209 5.8606366217136374 5.1063034087419537 12.178705349564552 9.302838534116745 4.7899696081876755 23.301758453249931 11.040353208780287 4.938717082142829
leaf_count=124 649 20 25 36 96 28 70 20 29 20 49 50 72 46 186 29 25 43 26 86 117 25 26 19 53 42 24 126 44 23
internal_value=0 -0.0416841 0.0212949 0.029332 0.0166996 -0.0497819 0.0108372 0.0258236 0.0409081 0.0267291 0.110827 -0.000274289 0.0307401 0.0424796 0.0277141 0.080188 0.116574 0.0626025 0.0997483 -0.0263907 -0.00148698 -0.0276288 0.0786207 0.0925589 0.0512386 -0.00802403 -0.00791176 -0.0507075 0.147231 0.113214
internal_weight=0 154.34 290.583 268.836 213.991 149.176 204.826 146.037 113.895 94.6924 19.203 36.0123 27.241 81.3523 69.447 31.8586 22.5467 15.2508 12.0995 58.7883 42.6714 32.1419 54.8448 48.9841 27.8987 15.72 9.31189 27.1034 21.0854 15.9791
internal_count=2228 845 1383 1259 1027 825 991 692 521 443 78 176 126 373 327 141 97 68 54 299 213 171 232 206 120 67 44 146 86 67
is_linear=0
shrinkage=0.1


Tree=20
num_leaves=31
num_cat=0
split_feature=16 18 19 11 19 3 4 3 9 2 15 3 6 16 19 14 6 7 11 0 3 2 13 3 4 2 6 4 13 15
split_gain=15.3473 21.936 10.9968 14.4774 13.8446 9.34353 16.5996 15.7141 9.28694 8.96823 9.48092 9.51572 14.3509 9.25351 8.59068 10.601 14.9105 8.35399 8.00525 7.34391 7.94743 6.78443 9.75559 8.63706 7.85884 8.38411 7.6604 7.59161 6.04745 6.64215
threshold=144.54268606986389 11.821311785323305 18.12511990736478 7259.6634379351544 18.034907999108654 0.39724656211148185 0.49119846822550883 0.15633082069896623 4989.0533261382034 2.8154273657973063 -13.226299872363596 -0.18176579996447315 -0.57797325255053345 -81.533848609680263 20.282127805886333 6055.6391397848975 -1.0000000180025095e-35 61649.500000000007 5404.5582009569389 -0.47892866802311973 -0.46306032457256824 0.69020098496053717 6205.9010516595545 -0.47037098193436849 -0.4891787223374115 -0.39918789248499137 0.019645118428347225 0.22897051462460971 4591.9546048695001 105.42267825961973
decision_type=2 2 2 2 2 2 2 2 2 2 2 2 2 2 2 2 2 2 2 2 2 2 2 2 2 2 2 2 2 2
left_child=1 17 4 9 5 7 -7 8 -3 10 19 12 18 -14 -15 16 -16 -1 -12 20 -4 23 -23 24 25 -10 -26 -28 -13 -30
right_child=-2 2 3 -5 -6 6 -8 -9 21 -11 11 28 13 14 15 -17 -18 -19 -20 -21 -22 22 -24 -25 26 -27 27 -29 29 -31
leaf_value=0.031800765967487481 -0.075616444037035394 -0.095932302977733086 -0.095929797184666862 0.16434611431342747 0.19852327330217814 0.1337776118654464 -0.035398769548719761 -0.097625730379385295 -0.027428496556310217 0.13680817544565846 0.043955184730423133 0.071756194061711936 -0.05663942355222517 0.15311562395647893 0.14897316897103668 -0.038718310661816538 -0.058652402401936525 0.16915122523777706 -0.080861169493087387 -0.079092547888407153 0.096711090581211356 0.019864646696421 0.20307842343723093 -0.018708694173845474 0.11245767791405877 0.093976185877248541 -0.06656225205990611 0.10986104905948944 -0.050420835488706572 0.026939008811224841
leaf_weight=7.6234852969646481 25.572500050067902 7.1447224318981162 3.5284780859947205 4.3676594495773307 4.1567060351371756 15.472863987088205 9.277419760823248 13.794243171811102 22.75914533436298 3.6029397249221793 7.3435207158327129 5.3055261522531501 6.5977121442556372 9.6310733407735807 12.357886016368866 9.9883243441581708 4.8032189607620284 10.565422117710112 17.112479224801064 40.006341025233269 5.4483498483896238 7.3593778312206251 4.8030417859554291 46.945847138762481 19.272920370101932 7.5838284939527503 6.0129143595695478 4.1036490648984909 70.967684343457222 13.156401947140692
leaf_count=35 157 42 21 19 17 74 48 77 118 16 36 29 33 39 50 55 25 39 94 232 26 36 21 247 79 36 31 18 411 67
internal_value=0 0.00428413 -0.000812865 -0.0158512 0.0182845 0.013731 0.0703634 0.00370328 0.0147979 -0.0196017 -0.022334 -0.0103683 0.0178755 0.0524115 0.0719732 0.0431885 0.0908609 0.111584 -0.043382 -0.0607509 0.0209907 0.021455 0.0922173 0.0133874 0.0386128 0.00291501 0.0754687 0.00500151 -0.0317918 -0.0383223
internal_weight=0 401.093 382.904 214.218 168.687 164.53 24.7503 139.78 125.985 209.85 206.247 157.264 67.8342 43.3782 36.7805 27.1494 17.1611 18.1889 24.456 48.9832 8.97683 118.841 12.1624 106.678 59.7325 30.343 29.3895 10.1166 89.4296 84.1241
internal_count=2228 2071 1997 1153 844 827 122 705 628 1134 1118 839 332 202 169 130 75 74 130 279 47 586 57 529 282 154 128 49 507 478
is_linear=0
shrinkage=0.1


Tree=21
num_leaves=31
num_cat=0
split_feature=17 5 1 1 2 16 16 16 15 5 7 0 2 18 17 3 6 13 13 9 7 17 17 0 17 7 19 19 12 10
split_gain=11.7775 7.16753 5.7292 8.10789 6.77059 5.91781 7.29525 5.67073 4.85114 7.39851 8.31775 7.4853 7.82573 7.02335 6.90093 6.85637 10.8116 5.06715 4.80433 7.44101 6.59734 4.7467 7.29205 5.33028 5.34671 4.51982 4.50161 5.26274 5.16143 5.16559
threshold=23.200030767595269 -1.2197843621409283 -0.37522175833133248 0.12160059995739016 -1.6080964335387027 97.151522425748468 112.00985349750444 72.530708999293822 -135.72351366333803 1.4325400623167335 59944.000000000007 0.55470943822388541 0.36964473270162584 28.067924918316475 44.336719405799634 0.7021249270569625 -0.12776164202330451 5142.3356938441184 6500.4661564101598 6500.4659194012356 43912.000000000007 20.51194078672955 13.117960047177599 -0.2615263225407663 5.2736299133582518 29359.000000000004 21.295127762012438 16.19417236623039 6229.011669272054 5552.3556284621764
decision_type=2 2 2 2 2 2 2 2 2 2 2 2 2 2 2 2 2 2 2 2 2 2 2 2 2 2 2 2 2 2
left_child=1 -1 4 5 -3 21 -7 26 -2 10 11 12 13 -10 -11 16 -13 -12 -5 -20 -21 22 23 -4 -25 -8 27 -6 29 -28
right_child=8 2 3 18 7 6 25 -9 9 14 17 15 -14 -15 -16 -17 -18 -19 19 20 -22 -23 -24 24 -26 -27 28 -29 -30 -31
leaf_value=-0.063349552548917443 -0.061517529769922336 0.085877872919389961 -0.011537137136257616 -0.00049782207548581788 0.061373899665954801 0.18737200086961883 0.12158842985453905 0.059645816560251502 0.032945145095484268 0.15832235083705504 0.043086884110608584 -0.012588615980315241 -0.095651733574712183 -0.029575391403931679 -0.020863080322288421 -0.055070778912323461 0.15376714544830564 -0.064393982794696839 0.15783956374780647 0.10714417140100532 -0.044994783603933053 0.12386105481711163 -0.027848555085687704 0.0170688217723069 0.11149930962340363 0.0035801099795825008 0.06230575058129139 -0.06391674548242908 0.10845287493846932 -0.081980902213105417
leaf_weight=11.382661283016203 23.284469068050385 6.898358851671218 9.5786095857620221 88.529536232352257 3.7498560547828665 6.3337466716766384 5.9005095213651639 7.9241895824670783 30.472652778029442 4.7446177154779416 4.9037523120641699 6.8084512948989877 10.631430909037588 43.786148339509964 3.9293225854635239 4.6531517207622519 9.1665014326572418 41.570257648825645 5.1527310758829143 4.6634324043989164 7.3309374898672104 5.4907308667898169 16.911214366555214 9.6181158125400561 15.921774327754973 7.2133302241563797 4.2063016295433027 31.641808211803436 4.2318176925182334 6.0500996857881546
leaf_count=61 137 34 44 432 20 26 23 36 143 18 25 34 63 239 22 25 39 245 20 20 38 22 78 42 68 33 20 169 20 32
internal_value=0 0.0142382 0.0178087 0.0268671 -0.00776169 0.051555 0.0992424 -0.0189367 -0.0188595 -0.0126773 -0.0178037 -0.00227862 -0.0154079 -0.00391962 0.0771508 0.051752 0.0828671 -0.053053 0.00888596 0.0573339 0.0141571 0.035432 0.0261 0.0520787 0.0759376 0.0566774 -0.0314207 -0.0506418 0.0155324 -0.0228068
internal_weight=0 258.73 247.347 182.645 64.7024 76.968 19.4476 57.8041 183.951 160.666 151.992 105.518 84.8902 74.2588 8.67394 20.6281 15.975 46.474 105.677 17.1471 11.9944 57.5204 52.0297 35.1185 25.5399 13.1138 49.8799 35.3917 14.4882 10.2564
internal_count=2228 1238 1177 846 331 336 82 297 990 853 813 543 445 382 40 98 73 270 510 78 58 254 232 154 110 56 261 189 72 52
is_linear=0
shrinkage=0.1


Tree=22
num_leaves=31
num_cat=0
split_feature=7 7 7 6 16 17 17 7 4 1 6 10 5 19 19 2 11 15 19 3 3 2 19 7 1 6 10 16 16 7
split_gain=15.8873 19.9214 10.8119 14.5136 13.3415 11.3869 10.3278 10.4249 9.53437 7.20937 6.87378 6.67055 8.03574 6.67172 15.6545 8.72349 6.54623 6.53128 13.7379 9.76636 6.34678 5.93135 5.69167 5.4929 7.01481 6.4462 5.03114 4.87943 10.1667 4.53028
threshold=55623.000000000007 32982.500000000007 38108.000000000007 0.11335966690989523 120.34557890165345 39.068914348928907 2.2581820201142935 6568.5000000000009 1.0000000180025095e-35 -1.0100849653383495 -0.24782950210576385 5626.7467331603393 1.1540164170836649 20.470013383754367 21.631392501151026 -1.0337383593367171 6250.210739766083 67.1242261667294 21.295127762012438 1.1816848467379284 0.13968629613769035 0.42643866974306571 22.149071978609211 10654.000000000002 0.29101453709594255 -0.14025773580180323 4252.3900207581819 -74.452630024141584 -173.85678378769163 28793.500000000004
decision_type=2 2 2 2 2 2 2 2 2 2 2 2 2 2 2 2 2 2 2 2 2 2 2 2 2 2 2 2 2 2
left_child=1 6 10 4 27 20 8 16 -1 -2 -3 26 13 15 -15 -13 -8 18 -11 22 -5 -10 -20 25 -25 -16 -9 28 -4 -17
right_child=9 2 3 5 -6 -7 7 11 21 17 -12 12 -14 14 23 29 -18 -19 19 -21 -22 -23 -24 24 -26 -27 -28 -29 -30 -31
leaf_value=0.20318643688845578 -0.077464943149320814 0.22372420253727576 -0.098171986995356869 0.18986933916931237 0.15152213442009221 -0.023293321791238535 0.013929604030311949 0.045339797545653572 -0.058073625126537715 -0.033647349585355937 0.078745571372571738 0.061334508161222781 0.11135586970452667 0.1486483627251724 0.10122727169284761 -0.061258326717476823 0.1652831608260921 -0.054960997352862639 0.096183656693999725 0.13340715681077472 0.084574683663199729 0.10006321693840035 -0.0066491323266240692 -0.092798827715279031 0.043151424037355807 -0.013067430008163357 -0.063873660950724734 -0.04154164538129982 0.074618578297398735 0.041388049940619148
leaf_weight=4.2089339941740027 22.519321158528328 5.0898925364017478 4.7237828522920635 7.7388676106929806 5.3095554560422888 7.8696041256189337 6.6764694601297361 4.7240723371505728 4.6633509099483472 62.15571928024292 9.1479174792766553 8.0001997202634794 5.5262794941663733 7.4213051050901404 7.2301305234432247 44.26074206829071 4.9959941357374191 33.221943348646164 6.8338636904954901 8.9275456517934781 21.993255794048309 4.8268711864948273 25.341918647289276 12.321080788969995 5.4849834889173499 15.542242050170897 39.380375117063522 28.192327901721004 12.19884237647056 4.7623305916786185
leaf_count=19 137 22 26 35 22 44 30 24 23 335 41 41 25 32 32 233 20 190 31 37 93 22 118 62 27 74 212 143 56 22
internal_value=0 0.0144786 0.0497252 0.0366483 0.00158408 0.08367 -0.00554344 -0.0124174 0.0779152 -0.0250436 0.130574 -0.0192953 -0.00617739 -0.012362 0.0151096 -0.0354863 0.0787113 -0.0163941 -0.00398583 0.0408678 0.111981 0.0223572 0.0151917 -0.00931302 -0.0509207 0.0232206 -0.0521757 -0.016062 0.0263858 -0.0512868
internal_weight=0 282.289 102.264 88.0262 50.4245 37.6017 180.025 166.326 13.6992 159 14.2378 154.654 110.549 105.023 47.9997 57.0233 11.6725 136.481 103.259 41.1033 29.7321 9.49022 32.1758 40.5784 17.8061 22.7724 44.1044 45.115 16.9226 49.0231
internal_count=2228 1380 482 419 247 172 898 834 64 848 63 784 548 523 227 296 50 711 521 186 128 45 149 195 89 106 236 225 82 255
is_linear=0
shrinkage=0.1


Tree=23
num_leaves=31
num_cat=0
split_feature=8 15 0 13 18 7 8 8 16 6 6 13 15 0 2 16 16 18 17 17 18 19 10 14 15 1 9 13 19 4
split_gain=8.70702 6.75648 9.89263 13.4433 5.61681 4.28125 4.00427 10.5631 8.06429 9.45496 6.34335 5.19067 7.79863 6.15045 4.56598 5.69053 4.43089 4.27928 4.26656 3.99881 3.99421 6.99761 6.14515 9.32479 7.94354 7.75122 7.13826 6.64248 7.0813 5.73512
threshold=6010.7466666666742 -93.241759494187576 1.0301613770150706 6352.1367141386672 35.293784490560107 12030.000000000002 5062.0533333333378 5024.3266666666723 97.151522425748468 -0.12188708653873655 -0.65162031780215302 4825.5458949204613 -11.385347240420286 -0.11570288979816683 1.2131674949075002 138.47461911089459 -109.45953920376206 30.488179759259108 47.631684648338442 10.916388699129355 31.329717051629768 19.094164190650766 6287.2938382460861 6381.9492473117034 28.424217329738443 -0.57242589140904998 6291.617844585041 6215.2771254202462 15.45702729242695 -0.33091468498187487
decision_type=2 2 2 2 2 2 2 2 2 2 2 2 2 2 2 2 2 2 2 2 2 2 2 2 2 2 2 2 2 2
left_child=6 -2 4 -4 20 -6 7 10 17 -10 16 19 -13 -14 15 -11 -1 -8 -19 -12 21 22 27 26 25 -25 -24 28 -3 -23
right_child=1 2 3 -5 5 -7 8 -9 9 14 11 12 13 -15 -16 -17 -18 18 -20 -21 -22 29 23 24 -26 -27 -28 -29 -30 -31
leaf_value=-0.011346619164709278 -0.038767271634516695 0.088425977772863609 0.0062278552264898538 0.22120895953767855 0.021501538266765013 0.14661680461743445 -0.050500204710452995 0.16986788817955978 0.14113127349685112 -0.019887392514867423 0.011459389431868363 0.12185797000852615 0.076175409667751048 -0.065368973958789781 -0.071667716404732226 0.1021999256178702 0.11783198161797402 0.032264562760831964 -0.050109565620362055 -0.071816782668981421 -0.038203866944657633 0.044537208798037957 0.063903899424581342 0.11652921201942837 0.152777322374964 -0.0186546104240062 -0.071599737757909912 0.16562943803676194 -0.057127322608350711 -0.013682692612768414
leaf_weight=4.549520805478096 22.405103713274002 11.743361011147504 6.1138703525066358 5.5484855324029922 5.5243739634752256 5.4165158420801163 75.646100416779518 3.6861452460288993 5.3538445979356792 10.869346350431448 8.0920647531747836 5.3676363229751614 4.5264357924461391 9.5400582551956123 7.3222940713167182 5.8847684413194647 6.3773312866687757 14.59294666349888 11.048142388463019 20.061491161584854 15.909589812159536 21.16342668235302 5.3560146391391781 6.2650118470192 6.4951770156621924 13.13226318359375 14.181037515401838 6.6245173066854468 4.6723587065935126 84.384720951318741
leaf_count=24 129 52 26 20 25 22 434 18 27 53 42 26 23 54 39 29 31 81 66 114 79 104 25 29 28 65 75 29 24 435
internal_value=0 0.0134631 0.0189693 0.108507 0.0137707 0.0834425 -0.0152065 0.00567898 -0.0251446 0.0209337 -0.00466416 -0.0204413 0.0193098 -0.0198216 -0.00579456 0.0229949 0.064047 -0.0385333 -0.00322851 -0.047881 0.00975721 0.0141421 0.0390394 0.0177045 0.0570589 0.0250076 -0.0344519 0.0811065 0.0469976 -0.00200904
internal_weight=0 234.936 212.531 11.6624 200.868 10.9409 192.918 62.2007 130.717 29.4303 58.5145 47.5877 19.4341 14.0665 24.0764 16.7541 10.9269 101.287 25.6411 28.1536 189.927 174.018 68.4697 45.4295 25.8925 19.3973 19.5371 23.0402 16.4157 105.548
internal_count=2228 1167 1038 46 992 47 1061 332 729 148 314 259 103 77 121 82 55 581 147 156 945 866 327 222 122 94 100 105 76 539
is_linear=0
shrinkage=0.1


Tree=24
num_leaves=31
num_cat=0
split_feature=9 18 17 0 17 15 5 7 7 19 5 1 17 6 13 3 2 12 4 5 0 16 17 0 4 3 17 17 15 5
split_gain=32.9803 23.3054 19.7815 13.4309 12.3778 10.288 18.1115 12.7129 10.2791 9.29053 9.05524 10.665 8.15409 7.76542 14.8904 12.319 17.9402 7.21589 6.9639 6.4904 7.72449 6.44372 8.63538 7.25672 7.4255 6.06737 5.99326 5.49247 5.24117 5.18007
threshold=6254.608073520013 44.431454596131736 3.3913334089116258 -2.2948368412779008 4.2877319721097065 -68.823569507313991 1.0330190190921542 63535.000000000007 69108.500000000015 21.902177760422521 1.9342942481451439 1.6913729385135685 12.368747830950394 -0.41086952599794785 5617.4062778792477 -0.018429773415022901 -0.65657351000038155 4979.4377108646977 0.20283112046081053 -0.029520591749731002 0.67715650012882123 -92.435806989764629 34.740911828829731 0.37607279760668094 -0.18693140402650901 -2.0705527867370255 31.252124476298842 27.905460870919537 -101.80183088115699 -0.46914222886520068
decision_type=2 2 2 2 2 2 2 2 2 2 2 2 2 2 2 2 2 2 2 2 2 2 2 2 2 2 2 2 2 2
left_child=2 8 -1 25 -5 6 19 10 27 12 11 13 18 14 -7 16 -16 -9 -10 21 28 23 29 24 -6 -4 -14 -2 -21 -23
right_child=1 -3 3 4 5 7 -8 17 9 -11 -12 -13 26 -15 15 -17 -18 -19 -20 20 -22 22 -24 -25 -26 -27 -28 -29 -30 -31
leaf_value=-0.075762931306329592 -0.07883024493747505 0.16217974995284415 0.066993889204694401 0.13007819628355302 -0.012424207499987067 -0.076546561427235149 -0.088248976957516656 -0.06356454060618065 0.009240871513746092 -0.094762631538118647 0.11715314220119294 0.084480383369715306 -0.076841896479793878 -0.044575603639190969 0.15899995419392665 0.16946652951651422 -0.069503313122507182 0.060179612429731369 0.15737430852471476 0.1819400451300166 0.0034027417265373363 0.12739833314724355 -0.10256239882824786 0.16525093525716275 0.13179608796802098 0.20480377335918709 0.051604294433425804 -0.031035830252367138 0.076829868407545659 -0.015244533661052859
leaf_weight=20.56963175535202 70.38321278989315 5.5337576866149893 7.6414694935083389 9.9872443079948408 9.9694872945547086 12.165061831474302 8.539842411875723 5.2828029096126548 6.1314122378826159 8.0953636169433576 5.1159280091524115 9.264319643378256 8.6781613379716855 78.138897553086281 5.2696922570466986 7.124619513750079 9.873723164200781 43.642555400729179 6.5785536766052246 10.990937903523449 5.6221014708280554 4.615664705634118 5.9566791057586661 6.4726985841989508 5.5616483986377707 5.4900840818881971 6.2480085343122473 36.520550414919853 8.3464445769786835 5.6773025095462843
leaf_count=124 439 20 31 37 41 62 44 26 28 50 20 42 45 409 24 30 53 198 26 39 28 20 29 23 22 20 27 210 34 27
internal_value=0 -0.0391709 0.018777 0.0259595 0.020931 0.016529 0.0484407 0.00350994 -0.0469826 -0.000548685 -0.0131803 -0.0186531 0.0270491 -0.0271406 0.0124245 0.0610296 0.0100126 0.0468181 0.0859133 0.066907 0.106576 0.041024 -0.0067356 0.076294 0.0392206 0.12461 -0.0230751 -0.0625027 0.136572 0.0487207
internal_weight=0 148.169 291.319 270.749 257.618 247.63 71.7528 175.878 142.635 35.7315 126.952 121.836 27.6361 112.572 34.4331 22.268 15.1434 48.9254 12.71 63.213 24.9595 38.2535 16.2496 22.0038 15.5311 13.1316 14.9262 106.904 19.3374 10.293
internal_count=2228 845 1383 1259 1208 1171 307 864 825 176 640 620 126 578 169 107 77 224 54 263 101 162 76 86 63 51 72 649 73 47
is_linear=0
shrinkage=0.1


Tree=25
num_leaves=31
num_cat=0
split_feature=16 18 19 11 19 18 18 2 3 3 5 8 10 3 3 4 9 6 5 19 19 11 15 16 4 2 7 19 3 6
split_gain=13.3348 17.2258 9.01372 11.1101 10.568 7.52406 10.3212 8.48007 7.90702 11.9067 8.85348 8.15359 7.30471 7.26885 13.8852 12.4325 8.07497 6.73423 6.24905 6.04487 13.736 11.3906 8.73763 7.02939 8.53052 7.63482 9.79651 5.88238 8.05475 8.24828
threshold=144.54268606986389 11.821311785323305 18.12511990736478 7259.6634379351544 18.034907999108654 17.299721797361194 13.415931898457172 2.8154273657973063 -0.14963576964002637 -0.64919898828041733 -0.065882876498382259 5499.0266666666721 6333.4880855150468 0.39724656211148185 0.15633082069896623 0.49119846822550883 4989.0533261382034 0.011828558964456471 -0.35597094077715552 13.664439398335196 12.50181522969428 6789.8001533973284 -56.704806900371743 -173.85678378769163 -0.4891787223374115 -0.13471624557117862 15109.000000000002 28.999350776241815 0.59972977034626263 -0.1110762797868506
decision_type=2 2 2 2 2 2 2 2 2 2 2 2 2 2 2 2 2 2 2 2 2 2 2 2 2 2 2 2 2 2
left_child=1 12 4 5 13 6 -4 8 9 -7 11 -11 -1 14 16 -15 -3 -12 -8 20 22 -21 23 24 -18 26 -25 28 29 -20
right_child=-2 2 3 -5 -6 7 18 -9 -10 10 17 -13 -14 15 -16 -17 19 -19 27 21 -22 -23 -24 25 -26 -27 -28 -29 -30 -31
leaf_value=0.02565902930649987 -0.07306857878314342 -0.094289912791211516 -0.096046080788085797 0.13671027163742971 0.16759999042637108 -0.052437841150381519 -0.041568592388858072 0.12066215925095276 -0.051581942678909046 0.06573882882641284 0.13101790677434133 -0.061649340291374671 0.1512093815767884 0.1121891907376774 -0.095987087438074478 -0.033314864159159567 0.040183069402739725 0.016774614232078659 0.13789491802082421 0.055486849324029787 -0.086801121352118676 -0.096037974027028072 -0.064538392717947826 0.085157232920381076 0.22330188713307295 0.087312858645010955 -0.081240236766589105 -0.03438647987308472 0.19008927930707348 -0.010935617159698201
leaf_weight=8.1610222756862658 23.966508068144321 6.6253813654184333 6.2752683609724036 4.7326901108026496 4.4913784563541403 32.995942518115044 6.7580574601888648 3.773821458220481 86.716962389647961 7.7741785496473339 10.449158430099489 14.205615043640135 10.723058164119719 16.674384295940403 12.837913408875464 9.0646732747554761 6.2458306550979614 10.192934721708296 6.3934303969144848 54.266800969839096 14.830772742629049 5.4602863639593116 8.9095340818166786 5.3372517228126446 4.2921793460845858 9.7554910331964582 10.496459424495695 4.723735734820365 5.7425745576620093 8.9176815524697322
leaf_count=37 157 42 37 19 17 182 37 16 520 33 40 82 37 74 77 48 32 54 29 252 78 32 49 27 15 45 56 27 27 50
internal_value=0 0.00373704 -0.000908177 -0.0147671 0.0162552 -0.0182656 0.0213764 -0.0275278 -0.0309728 -0.00733859 0.0275752 -0.0165926 0.096951 0.0121304 0.00309485 0.0609462 0.0131725 0.0746053 0.0440242 0.0191258 -0.00332995 0.0416344 0.0241574 0.0460312 0.114768 0.0177243 -0.0251507 0.066464 0.0890914 0.0512113
internal_weight=0 397.824 378.94 209.652 169.288 204.919 38.8107 166.109 162.335 75.6178 42.6219 21.9798 18.8841 164.797 139.058 25.7391 126.22 20.6421 32.5355 119.595 59.8675 59.7271 45.0367 36.1272 10.538 25.5892 15.8337 25.7774 21.0537 15.3111
internal_count=2228 2071 1997 1153 844 1134 207 927 911 391 209 115 74 827 705 122 628 94 170 586 302 284 224 175 47 128 83 133 106 79
is_linear=0
shrinkage=0.1


Tree=26
num_leaves=31
num_cat=0
split_feature=17 5 2 2 6 4 4 0 3 7 16 3 0 18 15 4 15 0 2 5 13 13 0 4 6 2 0 3 19 3
split_gain=9.75141 6.06046 4.85404 7.43179 8.50915 8.8857 8.93791 7.48468 6.97321 11.2243 9.23074 5.92898 5.96239 4.58716 4.27989 6.32116 4.48406 5.7108 9.0569 8.32821 9.02384 5.69213 4.35059 4.25113 6.25565 8.31395 7.63511 9.20569 7.35271 5.70147
threshold=23.200030767595269 -1.2197843621409283 -0.24938010587577153 0.044659229099885858 0.66772380008992849 -0.32440181422348585 -0.51265777066630547 -0.227302207546314 -0.96575846167031998 57506.000000000007 -101.23322972035733 -0.1728996311360442 0.11442478869204452 25.997449553541792 -135.72351366333803 1.9965117850920955 101.774481021645 0.55470943822388541 0.39740855682385196 0.81978179586326949 6103.8996416387863 6248.3504719959446 -1.7709110770295848 1.6022596795298305 0.38611302244778417 1.274541257500265 0.48487850312142944 0.89289206449355241 24.510717186200043 1.1816848467379284
decision_type=2 2 2 2 2 2 2 2 2 2 2 2 2 2 2 2 2 2 2 2 2 2 2 2 2 2 2 2 2 2
left_child=1 -1 8 4 5 6 -4 -7 9 10 -3 -9 -13 -10 -2 16 17 18 19 22 -21 -19 -16 24 25 -5 27 -26 -29 -28
right_child=14 2 3 23 -6 7 -8 11 13 -11 -12 12 -14 -15 15 -17 -18 21 -20 20 -22 -23 -24 -25 26 -27 29 28 -30 -31
leaf_value=-0.06019903760314025 -0.058514680104387574 0.24317620012404825 0.090043980509491015 -0.0078427018623947239 -0.062140494136118031 0.011008552817289716 -0.10378193426837051 0.22927060904729066 -0.0085731033364776915 -0.031410224423947801 0.045451484212263207 0.15326490983922411 0.025021163389814027 -0.087377045376615517 -0.095084640541172646 0.094748211752156822 -0.057332986999169437 0.0040843539645311032 -0.089094364228118839 -0.0080468740421053859 0.18713565990605663 0.11430300570280127 -0.0094921559996384748 -0.045372696822008618 0.15850482408780825 0.10109185586970909 -0.062452239650843872 -0.023075453910092771 0.1292465471747187 0.075305208889572484
leaf_weight=10.827840864658354 22.065378040075302 3.9066921025514603 4.9252273440361023 68.126403316855431 4.8060274273157111 6.0657698065042487 4.6021180450916273 5.2389843463897732 56.461626693606377 8.8483652770519239 5.9680022895336169 9.9082754403352755 5.7171934545040122 8.4984734803438169 6.4298689216375342 5.4080968499183646 21.727504566311836 15.067292317748072 15.253870353102682 5.0982881337404233 4.4242176860570908 6.800358220934867 77.708386585116386 11.016171365976332 10.265034362673761 7.8091914206743231 7.7528683543205243 8.5948332995176298 5.0198814719915381 4.9052844792604446
leaf_count=61 137 16 20 327 23 28 21 21 279 48 29 38 24 45 40 26 124 75 93 25 20 33 417 57 42 37 39 40 21 22
internal_value=0 0.0130359 0.0162277 0.0261897 0.0629316 0.0794192 -0.00358228 0.108783 -0.00338518 0.0503839 0.123677 0.137209 0.106342 -0.0188827 -0.0172612 -0.011497 -0.0152646 -0.00827551 -0.0176389 -0.00600143 0.0826362 0.0383599 -0.0160332 0.0139126 0.0197192 0.00336009 0.0537179 0.0869997 0.0330872 -0.0090685
internal_weight=0 259.264 248.436 164.753 41.2636 36.4576 9.52735 26.9302 83.6832 18.7231 9.87469 20.8645 15.6255 64.9601 179.983 157.918 152.51 130.782 108.915 93.6608 9.52251 21.8677 84.1383 123.49 112.473 75.9356 36.5379 23.8797 13.6147 12.6582
internal_count=2228 1238 1177 760 175 152 41 111 417 93 45 83 62 324 990 853 827 703 595 502 45 108 457 585 528 364 164 103 61 61
is_linear=0
shrinkage=0.1


Tree=27
num_leaves=31
num_cat=0
split_feature=1 8 16 0 13 15 15 5 3 0 5 16 17 18 16 16 19 6 1 2 3 17 5 18 19 17 6 5 4 6
split_gain=13.7139 9.60502 9.22567 8.16803 7.97394 6.88759 6.49494 6.26178 6.13005 6.24358 8.42938 8.16444 6.06865 6.03077 8.63819 7.80175 6.48316 7.45714 6.39365 5.93046 5.85393 8.30461 5.59876 8.02397 5.36537 4.99996 7.45457 4.80932 5.53962 4.74296
threshold=-0.43457981994791089 5795.1033333333389 47.651425863755911 0.61020136013040982 4250.9383999772754 69.639176083094767 -61.464276024458734 0.27679956878918971 0.89289206449355241 -0.33900888904409315 0.64534822316618745 161.22487963947643 4.846284630696716 20.961077198539893 -1.3476151727944787 -83.790799514312198 19.198726442262249 -0.18822578501199402 -0.65620819826618992 0.062592188780707006 -0.016364849179938436 8.4207505970000991 0.65739116860544289 26.742505298703204 13.664439398335196 11.756422652716582 -1.5022983031941308 -1.0409550301929802 0.45017072418369464 -0.1110762797868506
decision_type=2 2 2 2 2 2 2 2 2 2 2 2 2 2 2 2 2 2 2 2 2 2 2 2 2 2 2 2 2 2
left_child=6 4 3 12 -2 8 -1 -5 9 -4 11 20 19 -8 15 16 17 24 -16 -3 29 -22 23 -19 -15 -14 -27 -28 -29 -11
right_child=1 2 5 7 -6 -7 13 -9 -10 10 -12 -13 25 14 18 -17 -18 22 -20 -21 21 -23 -24 -25 -26 26 27 28 -30 -31
leaf_value=-0.069767980627392617 0.10168036896278827 0.01084894813733402 0.1394539685590874 -0.079051074024255152 -0.019851467239203811 -0.020358192613528586 -0.068060320071964095 0.029476091496474378 0.11979230639819412 -0.046212694539370464 -0.08569571778824836 0.1503169565395025 -0.050399417765453272 0.034562764474349965 0.12562122466401299 -0.073872764631946239 0.11836000876348796 -0.018175178471886235 -0.0086225002691436691 0.15840544336054066 -0.023774329009977297 0.084507226613665068 -0.05083657182946151 0.17267670560260748 -0.0967676031990653 -0.098298785017129783 0.12025080740799315 0.0056028154771671484 0.091769964115825775 0.051749773639437752
leaf_weight=29.966529414057732 5.6953442543745032 5.2527260482311231 6.3094547837972632 17.881120026111606 103.66774692386389 14.16099029779434 17.191598862409592 7.5659572929143897 12.453538730740545 12.950935885310175 5.2969519197940818 6.6682930737733832 12.430710956454275 4.4107665270566931 8.1020245999097806 17.95027719438076 4.5909276455640784 3.8978623598814028 6.3116192817687979 5.657388374209404 9.4755711108446175 28.049824044108391 4.1470040231943122 5.0659917294979095 10.554643660783766 5.0035419762134543 5.2430242747068396 44.898587957024574 8.9479078501462919 7.9923209100961605
leaf_count=201 25 26 26 106 546 80 98 37 46 57 24 25 67 22 36 105 24 24 30 26 41 114 22 24 61 28 23 211 39 34
internal_value=0 0.0106287 0.0228432 0.00307832 -0.0135224 0.0444291 -0.0299124 -0.0467836 0.0547148 0.0441543 0.0356174 0.0454826 0.0175903 -0.0153867 -0.00146198 -0.0209105 0.00819164 -0.00982268 0.066837 0.0873637 0.0335264 0.057165 0.0452385 0.0896862 -0.0580605 0.00764263 0.0188998 0.0288238 0.0199216 -0.00882847
internal_weight=0 325.602 216.239 112.881 109.363 103.358 112.189 25.4471 89.1969 76.7434 70.4339 65.1369 87.4339 82.2227 65.0311 50.6175 32.6672 28.0763 14.4136 10.9101 58.4687 37.5254 13.1109 8.96385 14.9654 76.5238 64.0931 59.0895 53.8465 20.9433
internal_count=2228 1581 1010 563 571 447 647 143 367 321 295 271 420 446 348 282 177 153 66 52 246 155 70 48 83 368 301 273 250 91
is_linear=0
shrinkage=0.1


Tree=28
num_leaves=31
num_cat=0
split_feature=2 8 12 12 5 7 6 6 4 7 15 4 19 1 18 19 17 6 3 0 5 19 8 13 5 5 7 1 2 0
split_gain=7.38253 6.11269 6.16753 6.87195 5.8791 6.81816 6.51626 7.45802 7.01854 6.5067 6.57508 5.96099 5.44704 9.205 8.96102 5.50602 5.10749 5.75098 4.93452 8.78171 8.04395 4.90328 4.59403 4.4332 4.2015 4.26861 6.20217 4.07569 4.04077 3.85505
threshold=-1.7106173742115434 6010.7466666666742 6025.3206075187163 6101.3867056593099 -0.47565065650285232 68454.500000000015 -0.022178371531626388 0.10562408192211804 -0.52877269772929347 8083.5000000000009 -82.484705380198633 0.66613114692569309 16.759937302282054 -0.34104989335013208 22.972839617641942 15.557875887351159 4.846284630696716 0.81341904287440536 -0.33972657466127038 -0.040436742690355409 0.50258598165696511 19.029106734804135 6571.0033333333367 6446.4578075729178 0.0055129257015975267 -0.11207942388027185 40094.000000000007 0.21280904281930144 -0.50702251269097598 0.29437664382976569
decision_type=2 2 2 2 2 2 2 2 2 2 2 2 2 2 2 2 2 2 2 2 2 2 2 2 2 2 2 2 2 2
left_child=-1 -2 -3 28 12 6 8 23 -6 -9 -11 16 15 -14 -15 22 -12 18 -18 20 -20 -13 -5 -8 25 -10 -27 -21 -4 -7
right_child=1 2 3 4 5 29 7 9 24 10 11 21 13 14 -16 -17 17 -19 19 27 -22 -23 -24 -25 -26 26 -28 -29 -30 -31
leaf_value=-0.057227176690437448 -0.010247903534454461 0.092128490471038424 0.054480249702934504 0.058885161353066678 0.12053709549528369 -0.076870892402647981 0.044362132561463402 -0.062742761168377958 -0.034986041437245818 -0.077274692255007937 0.11343659142062118 0.18178985106215115 0.18797324792395206 -0.011614896633137611 0.13274383387509237 -0.079909385077807635 -0.062390628774317614 -0.07192989734274928 0.20636412657132752 -0.055233915419988247 0.025179243866741155 0.046812949766704977 -0.055798913461905943 0.17841789283711684 -0.099311173440817024 0.13395667360093058 -0.034838030883042513 0.046372205526864926 -0.057906341487088397 0.0050304626696300132
leaf_weight=20.926401630043983 176.92941521853209 9.8039386570453626 3.8132297694683102 18.111829251050956 3.4902873933315268 13.632087662816049 4.6900079995393735 8.0040513724088651 22.877831354737282 4.9237699806690136 5.8794121295213762 5.0487352013587934 6.0250606387853649 10.927510172128679 7.0899646878242484 4.9337611943483344 4.7546137124299923 6.5491254180669776 5.3103310614824242 6.8915725797414984 4.5496921688318253 5.7638992220163345 4.327471897006034 5.2041967660188675 6.7321361005306235 4.2382383346557635 4.4755831509828568 9.2423601150512678 19.865674525499344 9.9359313398599607
leaf_count=130 978 49 18 85 16 74 22 41 118 28 26 20 25 55 32 26 22 32 22 37 21 26 22 23 36 21 23 43 109 48
internal_value=0 0.00368735 0.0145444 0.0110439 0.0172631 0.00678464 0.016545 0.0338375 -0.015221 0.0218558 0.0333494 0.0434381 0.0462423 0.0809722 0.045191 0.015738 0.02681 0.0131547 0.0312768 0.0484097 0.12276 0.109838 0.0367681 0.114873 -0.027585 -0.0123002 0.0472605 0.00297138 -0.0398077 -0.0423425
