tree
version=v4
num_class=5
num_tree_per_iteration=5
label_index=0
max_feature_idx=19
objective=multiclass num_class:5
feature_names=0 1 2 3 4 5 6 7 8 9 10 11 12 13 14 15 16 17 18 19
feature_infos=[4033.1999999999998:7596.3999999999996] [4014.5999999999999:7604.1999999999998] [3949:7593.8000000000002] [4111.3999999999996:7680.1999999999998] [3937.8000000000002:7534.1999999999998] [4033.1999999999998:7593.8000000000002] [4047.8000000000002:7591.6000000000004] [3372:168648] [4250.2400000000043:7282.4600000000073] [4278.8081308549445:7275.7884028435556] [4155.3069727873208:7474.7997253780468] [4241.5216666666656:7309.6701999999987] [4298.063006092596:7339.9642942902074] [4107.6214254559927:7555.9511950834994] [4247.8602150536735:7336.4761290320012] [-264.6861164816055:327.44212966254781] [-417.92276797791408:292.78186274510102] [0.028725795984562898:82.984904529215669] [5.1313315225020366:54.488078558425492] [4.1900513118880864:53.862252585808655]
tree_sizes=3262 3259 3260 3255 3256 3314 3328 3324 3321 3331 3334 3341 3342 3344 3329 3362 3333 3336 3334 3328 3352 3347 3337 3344 3337 3359 3363 3341 3366 3338 3355 3356 3356 3342 3343 3349 3344 3363 3356 3331 3368 3368 3350 3356 3335 3372 3348 3351 3360 3352 3375 3348 3358 3357 3345 3377 3365 3361 3373 3358 3396 3360 3344 3377 3360 3361 3368 3367 3367 3360 3365 3368 3367 3370 3369 3379 3365 3355 3353 3354 3391 3368 3367 3375 3345 3372 3351 3380 3374 3370 3374 3387 3379 3360 3358 3386 3365 3355 3356 3359 3391 3383 3365 3358 3366 3380 3377 3377 3368 3353 3382 3399 3362 3358 3361 3384 3369 3377 3377 3380 3396 3371 3360 3367 3377 3390 3379 3363 3360 3392 3411 3377 3392 3365 3359 3358 3396 3387 3377 3386 3359 3390 3345 3365 3378 3399 3366 3372 3356 3371 3368 3378 3376 3386 3369 3344 3405 3393 3368 3376 3394 3382 3367 3380 3376 3390 3372 3368 3357 3365 3399 3377 3382 3380 3371 3409 3393 3410 3388 3382 3389 3369 3403 3380 3377 3389 3371 3376 3382 3384 3382 3384 3409 3373 3359 3404 3381 3399 3379 3382 3388 3401 3362 3376 3383 3383 3392 3377 3359 3397 3360 3382 3383 3381 3392 3424 3368 3373 3390 3381 3383 3372 3395 3370 3377 3378 3402 3403 3402 3376 3379 3382 3384 3382 3377 3415 3385 3385 3378 3398 3386 3419 3384 3394 3407 3391 3374 3399 3385 3387 3398 3394 3391 3378 3395 3392 3383 3415 3381 3404 3376 3374 3413 3384 3370 3394 3406 3398 3402 3405 3421 3392 3395 3374 3414 3406 3386 3396 3376 3414 3408 3366 3422 3397 3402 3398 3376 3400 3380 3407 3426 3380 3381 3383 3387 3383 3414 3395 3383 3402 3409 3386 3404 3383 3426 3405 3364 3397 3386 3412 3410 3407 3393 3397 3407 3403 3413 3406 3408 3386 3404 3403 3372 3396 3390 3419 3379 3392 3387 3410 3414 3402 3423 3398 3423 3419 3396 3379 3381 3434 3386 3377 3400 3396 3408 3414 3418 3389 3401 3433 3398 3413 3421 3406 3400 3395 3393 3409 3389 3392 3433 3388 3405 3380 3395 3415 3414 3417 3413 3436 3411 3413 3401 3406 3430 3405 3402 3395 3389 3401 3411 3396 3413 3388 3458 3434 3394 3412 3384 3408 3418 3423 3420 3384 3421 3416 3411 3406 3377 3418 3405 3430 3396 3413 3399 3419 3386 3401 3401 3407 3413 3425 3398 3404 3388 3421 3421 3392 3411 3417 3423 3408 3412 3425 3443 3432 3424 3438 3416 3412 3426 3422 3405 3407 3437 3408 3417 3434 3394 3410 3424 3406 3407 3407 3410 3436 3399 3411 3406 3442 3411 3408 3413 3430 3439 3408 3412 3438 3405 3435 3402 3416 3414 3386 3459 3435 3408 3420 3398 3432 3420 3427 3417 3425 3411 3407 3405 3430 3434 3423 3400 3436 3417 3420 3445 3446 3438 3390 3426 3423 3424 3414 3404 3413 3423 3435 3402 3385 3412 3449

Tree=0
num_leaves=31
num_cat=0
split_feature=15 2 16 15 15 19 9 2 16 7 19 7 3 4 16 16 11 10 18 16 7 18 10 19 5 19 16 16 19 18
split_gain=41.3755 44.0683 29.2755 13.7774 13.7152 26.4827 19.9847 36.1548 19.618 25.2113 14.445 16.8582 13.0034 37.28 12.8423 12.2502 11.624 15.2788 11.3929 10.7389 10.1034 16.5156 11.304 10.3608 14.7978 9.57836 9.45619 8.16331 7.63759 7.1964
threshold=107.74513520991879 6682.6000000000013 94.867353837152862 -112.4082949909134 -37.866609768693245 18.841250820635484 6526.8370909289233 6418.4000000000005 -47.365530471167453 11719.000000000002 14.281604736582731 51629.000000000007 5532.7000000000007 5675.8000000000002 -93.699306370114371 -174.45244015254926 6015.0597500000013 6280.934519922529 17.383029108041026 -134.85392800732618 80676.000000000015 28.699818138305009 5343.6181642545707 10.099787546135504 5781.8000000000002 24.432068999291975 96.411137803471902 -202.84623920213016 16.188683791001043 28.075936151491373
decision_type=2 2 2 2 2 2 2 2 2 2 2 2 2 2 2 2 2 2 2 2 2 2 2 2 2 2 2 2 2 2
left_child=2 12 3 19 15 6 7 8 9 -6 -11 -12 -2 26 28 27 -15 -18 25 -1 21 -21 -23 -24 -25 -4 -14 -5 -13 -7
right_child=1 -3 18 4 5 29 -8 -9 -10 10 11 14 13 16 -16 -17 17 -19 -20 20 -22 22 23 24 -26 -27 -28 -29 -30 -31
leaf_value=-1.6215263760062422 -1.6609628474745952 -1.2671496918325804 -1.5178692474431799 -1.6011876363503608 -1.3393240953571977 -1.5974043951399661 -1.6672138499451035 -1.3032619020507188 -1.6391522845068438 -1.6737090321996158 -1.6141822474643248 -1.3062184572732563 -1.4429591363156229 -1.6773717289596792 -1.5953273215342594 -1.6382537585247454 -1.3691191696327449 -1.6211935386536036 -1.6796256961966411 -1.314969860731968 -1.6145065336596822 -1.6363495252469693 -1.3543511762961693 -1.3843559881546086 -1.6255741076818795 -1.6433001311916478 -1.2415774089986833 -1.4205833888359627 -1.4653348837952826 -1.674397837858971
leaf_weight=10.36024287343025 7.1099705994129172 7.1099705994129172 9.344532787799837 5.6879764795303345 7.7193966507911673 112.33753547072411 9.1413907706737501 7.516254633665084 14.016799181699751 6.5005445480346671 9.344532787799837 5.4848344624042475 4.8754084110260028 8.5319647192955035 4.2659823596477553 80.647380799055099 4.0628403425216657 5.8911184966564178 52.816924452781677 5.078550428152087 6.7036865651607505 5.6879764795303371 5.0785504281520835 4.2659823596477491 6.2974025309085846 17.47021347284317 4.4691243767738342 4.4691243767738325 6.7036865651607513 13.610515147447584
leaf_count=51 35 35 46 28 38 553 45 37 69 32 46 27 24 42 21 397 20 29 260 25 33 28 25 21 31 86 22 22 33 67
internal_value=-1.58856 -1.49409 -1.59824 -1.58514 -1.59307 -1.57823 -1.52925 -1.50876 -1.53734 -1.50168 -1.54048 -1.50692 -1.54027 -1.50943 -1.446 -1.62522 -1.59172 -1.51831 -1.65267 -1.53267 -1.50487 -1.47704 -1.51563 -1.47173 -1.52816 -1.59959 -1.34665 -1.52172 -1.39373 -1.60572
internal_weight=0 42.0504 410.55 330.918 287.446 196.641 70.6934 61.552 54.0358 40.019 32.2996 25.799 34.9404 27.8305 16.4545 90.8045 18.4859 9.95396 79.6317 43.4724 33.1121 26.4085 21.3299 15.6419 10.5634 26.8147 9.34453 10.1571 12.1885 125.948
internal_count=2228 207 2021 1629 1415 968 348 303 266 197 159 127 172 137 81 447 91 49 392 214 163 130 105 77 52 132 46 50 60 620
is_linear=0
shrinkage=1


Tree=1
num_leaves=31
num_cat=0
split_feature=17 16 1 17 5 3 17 15 4 3 9 7 15 7 11 17 17 4 9 16 18 19 18 7 7 7 12 16 0 17
split_gain=26.7632 8.8868 10.1848 8.49305 7.49054 14.8123 9.38035 12.0301 17.7431 8.06203 17.9815 11.1826 8.18321 6.96569 6.88278 6.82282 9.73857 7.45568 7.02714 7.51419 6.34725 9.63638 6.19889 5.71101 9.27315 13.3113 11.0336 9.79493 6.40082 5.60694
threshold=22.876929109739827 -28.590925740206902 4885.2000000000016 46.885537216229345 6435.4000000000005 6482.4000000000005 18.048961268147604 67.65027692876312 5992.3000000000002 6592.9000000000005 6499.1676741911997 44196.000000000007 41.951168264734413 10977.500000000002 6282.4026767676769 13.186124542845043 10.749978311051782 6114.9000000000005 5829.1587704740823 99.210786320793389 25.165681092785942 22.91934992810123 19.597429521635711 61920.500000000007 39248.500000000007 46428.000000000007 6328.6302082072116 -80.356221169212191 6276.5000000000009 35.50783376071341
decision_type=2 2 2 2 2 2 2 2 2 2 2 2 2 2 2 2 2 2 2 2 2 2 2 2 2 2 2 2 2 2
left_child=1 2 -1 23 6 -6 13 8 -8 22 -11 -12 -13 14 20 16 18 -18 19 -15 21 -3 -7 24 26 -26 -2 -28 -29 -27
right_child=3 4 -4 -5 5 9 7 -9 -10 10 11 12 -14 15 -16 -17 17 -19 -20 -21 -22 -23 -24 -25 25 29 27 28 -30 -31
leaf_value=-1.5405745823267152 -1.6806429775600613 -1.4301810119701954 -1.6552007588317326 -1.6915534620066546 -1.3765132236112776 -1.5632037352529824 -1.5844185661213581 -1.6886479525616378 -1.3557698334288661 -1.3510554265692274 -1.4783444117794804 -1.7329223821999868 -1.5681954601631884 -1.5680528394514683 -1.6763494998843187 -1.6811438119449686 -1.4520087596670141 -1.6310911940317843 -1.6667982340388163 -1.6978081793833653 -1.6228346112073353 -1.6056333969897336 -1.7054004394518238 -1.6774219715869854 -1.4391785701763256 -1.6535734044065822 -1.6952071273228746 -1.4274288176953789 -1.5874492562454117 -1.551080974756768
leaf_weight=8.8381569832563383 43.994381427764893 7.2669290751218849 63.045519813895226 62.849116325378418 3.9280697703361502 5.3028941899538022 9.4273674488067645 4.5172802358865729 5.3028941899538031 3.9280697703361538 6.2849116325378445 5.4992976784706098 6.6777186095714569 20.622366294264797 5.3028941899538031 23.175611644983292 5.6957011669874174 3.9280697703361511 30.246137231588364 5.6957011669874182 7.2669290751218787 5.4992976784706116 7.2669290751218796 41.441136077046394 5.1064907014369991 15.123068615794184 5.3028941899538067 3.9280697703361493 6.8741220980882645 8.2489465177059156
leaf_count=45 224 37 321 320 20 27 48 23 27 20 32 28 34 105 27 118 29 20 154 29 37 28 37 211 26 77 27 20 35 42
internal_value=-1.63351 -1.61156 -1.64111 -1.66137 -1.59927 -1.56063 -1.61049 -1.54589 -1.50211 -1.58132 -1.54534 -1.58668 -1.64259 -1.62133 -1.57504 -1.63445 -1.6181 -1.5251 -1.63392 -1.59613 -1.54823 -1.50576 -1.64541 -1.64678 -1.63245 -1.58544 -1.65472 -1.5839 -1.52926 -1.6174
internal_weight=0 244.719 71.8837 192.868 172.835 38.8879 133.947 19.2475 14.7303 34.9598 22.39 18.4619 12.177 114.7 25.3361 89.3636 66.188 9.62377 56.5642 26.3181 20.0332 12.7662 12.5698 130.019 88.578 28.4785 60.0995 16.1051 10.8022 23.372
internal_count=2228 1246 366 982 880 198 682 98 75 178 114 94 62 584 129 455 337 49 288 134 102 65 64 662 451 145 306 82 55 119
is_linear=0
shrinkage=1


Tree=2
num_leaves=31
num_cat=0
split_feature=16 15 2 14 7 15 17 16 15 17 15 19 17 17 17 10 18 1 7 19 10 17 15 18 8 7 0 16 15 4
split_gain=27.4857 33.8249 15.8932 19.1932 15.7975 16.4459 20.8481 17.022 12.3755 14.8375 11.5056 9.82093 10.5602 9.08019 8.01316 9.34963 10.173 6.76033 7.93526 6.68944 5.78555 5.6978 5.79578 8.52795 5.09972 4.60114 4.58482 4.46219 5.27097 4.36045
threshold=56.125398701097318 113.19608980336626 6200.1000000000013 6160.2208602147066 70100.500000000015 -81.500047426179194 42.658664963814303 -80.356221169212191 -14.200201953269696 8.8942451885120715 64.235812156121497 23.749597743194183 11.401526245466959 25.67574573820189 4.4477908034260141 6038.9848255937131 21.021669364597013 6435.0000000000009 51008.500000000007 22.553920538111683 6309.5366838228738 39.285690373995244 -64.027283309074377 27.416582440947966 6601.643333333338 42668.000000000007 5746.8000000000011 89.807465903526847 1.3938216516226023 4725.5000000000009
decision_type=2 2 2 2 2 2 2 2 2 2 2 2 2 2 2 2 2 2 2 2 2 2 2 2 2 2 2 2 2 2
left_child=4 2 8 -4 5 24 14 25 9 19 11 12 20 -13 15 26 -17 -14 -19 -2 -5 22 23 -16 -1 -8 -7 -10 -29 -24
right_child=1 -3 3 10 -6 6 7 -9 27 -11 -12 13 17 -15 21 16 -18 18 -20 -21 -22 -23 29 -25 -26 -27 -28 28 -30 -31
leaf_value=-1.6530018349685724 -1.3448490011211494 -1.6523113897718193 -1.299313778092706 -1.5194006893968492 -1.6432586485698091 -1.5530192783152241 -1.5777186497654585 -1.3152878281067164 -1.6483140754748278 -1.5730183962432125 -1.609731487584823 -1.4060580181863285 -1.547554187505833 -1.5602232616548757 -1.5982304841020041 -1.5707204945212254 -1.4063535662207756 -1.5112361749452439 -1.3206125114447198 -1.5112361749452439 -1.6371215954432514 -1.6826909784289554 -1.6618454096163462 -1.4154886872855088 -1.5357297183000598 -1.4630936931788816 -1.6826909784289554 -1.4727463211019618 -1.5922532798880966 -1.5915731928364543
leaf_weight=40.418815702199936 5.9199275523424166 26.333470836281776 4.6951149553060523 7.9612818807363572 65.935744807124138 6.9406047165393847 8.5736881792545336 4.8992503881454459 11.635719671845434 13.67707400023937 9.5943653434514982 17.351511791348461 5.919927552342414 4.8992503881454459 5.9199275523424131 7.1447401493787748 7.961281880736351 4.0827086567878705 4.6951149553060532 4.0827086567878723 8.7778236120939237 7.1447401493787757 9.5943653434514982 4.4909795224666595 4.0827086567878714 5.919927552342414 4.4909795224666595 4.2868440896272686 26.53760626912117 110.84554003179073
leaf_count=198 29 129 23 39 323 34 42 24 57 67 47 85 29 24 29 35 39 20 23 20 43 35 47 22 20 29 22 21 130 543
internal_value=-1.58199 -1.54869 -1.52835 -1.49439 -1.60014 -1.58769 -1.5745 -1.47643 -1.56325 -1.50532 -1.50887 -1.49084 -1.52682 -1.44 -1.58605 -1.53573 -1.48409 -1.46497 -1.40927 -1.41276 -1.58113 -1.59573 -1.59098 -1.5194 -1.64224 -1.5309 -1.60396 -1.59555 -1.57563 -1.59717
internal_weight=0 160.45 134.117 67.9771 294.363 228.428 183.926 19.3929 66.1399 23.6797 63.282 53.6876 31.4369 22.2508 164.533 26.5376 15.106 14.6978 8.77782 10.0026 16.7391 137.996 130.851 10.4109 44.5015 14.4936 11.4316 42.4602 30.8245 120.44
internal_count=2228 786 657 333 1442 1119 901 95 324 116 310 263 154 109 806 130 74 72 43 49 82 676 641 51 218 71 56 208 151 590
is_linear=0
shrinkage=1


Tree=3
num_leaves=31
num_cat=0
split_feature=14 8 3 14 0 17 19 9 3 6 3 18 16 10 10 7 15 7 10 16 18 18 7 14 11 16 16 18 2 9
split_gain=19.0251 7.47204 18.2317 6.99328 6.73513 10.5522 11.9745 10.508 9.25777 7.64427 7.45016 6.21449 6.04894 5.97248 5.5779 5.14958 6.52525 4.87155 6.45911 5.03679 5.42181 10.7377 6.10499 5.20738 9.93933 4.99644 4.79729 5.64909 5.45328 5.187
threshold=6175.3070967739122 6241.9466666666713 6292.9000000000005 6209.1563440858299 6491.3000000000002 9.5955983987779785 20.097521172136997 7127.3166748107315 6909.4000000000005 6301.1000000000013 6353.4000000000005 22.310209990937942 133.98503263969903 6097.1817446739815 6309.5366838228738 46961.500000000007 50.518904145592849 9994.0000000000018 6051.5837360034457 -194.05748244614179 30.473913143917539 31.251398679500209 13908.500000000002 5766.5032258062993 6021.3813759398499 -124.72265188674641 98.516078703839696 21.953799107879277 5884.3000000000011 4913.8900692803008
decision_type=2 2 2 2 2 2 2 2 2 2 2 2 2 2 2 2 2 2 2 2 2 2 2 2 2 2 2 2 2 2
left_child=13 2 -2 -4 9 6 -6 8 15 10 -3 -8 -11 17 -5 16 -7 -1 19 -19 26 -22 -23 25 -25 -24 29 -28 -29 -21
right_child=1 4 3 14 5 7 11 -9 -10 12 -12 -13 -14 -15 -16 -17 -18 18 -20 20 21 22 23 24 -26 -27 27 28 -30 -31
leaf_value=-1.6655198720825544 -1.3260602515253497 -1.580116423485465 -1.6741002100429261 -1.4391668261062271 -1.3780093541362288 -1.4760185922603981 -1.6039501496912385 -1.6629231908577049 -1.4617368455237267 -1.633499926677807 -1.4499388808282156 -1.4499388808282156 -1.5369887284464461 -1.6735246995699742 -1.5811044883253682 -1.6248263574910857 -1.6102524011025132 -1.6782641975825181 -1.4853327749147489 -1.5775714079887446 -1.457446676543541 -1.665379975267983 -1.5242660584099355 -1.4334217302545 -1.6214631367860304 -1.6605325506430881 -1.6067472723508311 -1.5915144571743485 -1.4499388808282156 -1.6331463555826462
leaf_weight=15.539403453469275 4.0362086892128017 47.627262532711029 4.2380191236734381 4.6416399925947172 6.2561234682798412 7.66879650950432 7.4669860750436765 11.503194764256476 8.4760382473468763 49.847177311778069 4.843450427055358 4.0362086892127991 7.4669860750436774 16.548455625772476 6.8615547716617584 13.723109543323515 6.8615547716617584 10.292332157492636 4.2380191236734381 19.979233011603355 6.6597443372011176 9.2832799851894361 4.0362086892127964 6.0543130338191968 5.2470712959766388 8.0724173784256017 31.886048644781113 5.6506921648979169 5.2470712959766388 105.34504678845406
leaf_count=77 20 236 21 23 31 38 37 57 42 247 24 20 37 82 34 68 34 51 21 99 33 46 20 30 26 40 158 28 26 522
internal_value=-1.59739 -1.57395 -1.51567 -1.56429 -1.5805 -1.55525 -1.48935 -1.57952 -1.5534 -1.59568 -1.5681 -1.54991 -1.62093 -1.61544 -1.52383 -1.5809 -1.53941 -1.61139 -1.6076 -1.60998 -1.60659 -1.57318 -1.59676 -1.56955 -1.52073 -1.61511 -1.61442 -1.5855 -1.52335 -1.62429
internal_weight=0 195.554 19.7774 15.7412 175.777 65.992 17.7593 48.2327 36.7295 109.785 52.4707 11.5032 57.3142 254.079 11.5032 28.2535 14.5304 237.531 221.991 217.753 207.461 39.353 32.6933 23.41 11.3014 12.1086 168.108 42.7838 10.8978 125.324
internal_count=2228 969 98 78 871 327 88 239 182 544 260 57 284 1259 57 140 72 1177 1100 1079 1028 195 162 116 56 60 833 212 54 621
is_linear=0
shrinkage=1


Tree=4
num_leaves=31
num_cat=0
split_feature=5 18 7 2 18 17 13 17 15 11 10 1 12 15 15 1 19 15 16 0 18 7 5 12 19 19 18 5 7 0
split_gain=75.4196 38.4303 27.8892 32.1335 42.112 23.6318 19.0242 18.0814 17.7103 13.9246 12.9374 12.693 12.3058 18.0489 18.5091 10.8158 10.3212 9.3972 10.6966 11.2372 8.69818 8.32299 7.67358 15.9815 7.43296 12.4938 9.16856 8.83005 6.95043 11.579
threshold=6380.4000000000005 46.047029625489621 63696.500000000007 5889.1000000000013 34.342511678429396 50.865375086806118 5286.9929087166556 69.932336102917446 118.80697866268476 4268.3731996469314 5461.0878148492839 5771.9000000000005 6454.9487181559371 -39.043009236545451 -117.68875821082882 5868.3000000000011 15.037902238481545 46.095321147399325 78.6467284440767 6281.0000000000009 32.679141579774793 52837.000000000007 6165.1000000000013 5938.1489192576055 21.137384931544847 23.169854885902797 19.898784316490453 5143.6000000000013 84480.500000000015 6473.6000000000013
decision_type=2 2 2 2 2 2 2 2 2 2 2 2 2 2 2 2 2 2 2 2 2 2 2 2 2 2 2 2 2 2
left_child=1 2 3 4 5 9 -6 28 12 -1 -8 -12 13 14 16 20 -4 -5 19 -19 -11 -7 23 -16 26 -26 -15 -27 -2 -30
right_child=7 -3 8 17 6 21 10 -9 -10 15 11 -13 -14 24 22 -17 -18 18 -20 -21 -22 -23 -24 -25 25 27 -28 -29 29 -31
leaf_value=-1.4980740258429828 -1.7377215631670249 -1.3254803005175246 -1.5463751774267946 -1.6976297781756886 -1.6392809638915757 -1.4145088998638793 -1.2564274482400049 -1.5227603286932716 -1.4145088998638793 -1.6757286185816054 -1.5898762145674947 -1.3488691698373296 -1.7464799482740156 -1.525956323258711 -1.5259563232587108 -1.5014536982570104 -1.7464799482740156 -1.4740684114904039 -1.7088295732714027 -1.6793640623997925 -1.5259563232587108 -1.5994641982638125 -1.5749615732621118 -1.3075946945670855 -1.4763385076302673 -1.7293281107728253 -1.691740041355323 -1.5839888561574753 -1.5149301420079455 -1.7230910789542107
leaf_weight=5.6359366476535788 91.341042220592499 4.2755381464958182 6.9963351488113421 92.118412792682648 4.6642234325408962 6.0246219336986524 4.081195503473281 4.4698807895183554 6.0246219336986533 77.737057209014893 4.4698807895183545 4.2755381464958191 4.8585660755634299 4.0811955034732845 6.8019925057888049 4.081195503473281 4.0811955034732819 6.6076498627662676 7.9680483639240256 4.4698807895183563 4.081195503473281 4.0811955034732819 4.081195503473281 6.6076498627662659 7.7737057209014919 5.8302792906761196 18.2682084441185 14.770040869712828 3.8868528604507437 8.5510762929916364
leaf_count=29 470 22 36 474 24 31 21 23 31 400 23 22 25 21 35 21 21 34 41 23 21 21 21 34 40 30 94 76 20 44
internal_value=-1.6474 -1.62331 -1.62728 -1.64574 -1.60966 -1.63432 -1.46633 -1.71969 -1.58014 -1.65034 -1.40344 -1.47205 -1.59199 -1.58253 -1.51896 -1.66033 -1.6201 -1.68441 -1.62047 -1.55691 -1.66826 -1.4892 -1.4549 -1.41836 -1.61833 -1.58436 -1.66147 -1.62512 -1.72817 -1.65804
internal_weight=0 324.747 320.471 230.296 119.132 101.641 17.4908 108.249 90.175 91.5354 12.8266 8.74542 84.1504 79.2918 28.5684 85.8994 11.0775 111.164 19.0456 11.0775 81.8183 10.1058 17.4908 13.4096 50.7234 28.374 22.3494 20.6003 103.779 12.4379
internal_count=2228 1671 1649 1185 613 523 90 557 464 471 66 45 433 408 147 442 57 572 98 57 421 52 90 69 261 146 115 106 534 64
is_linear=0
shrinkage=1


Tree=5
num_leaves=31
num_cat=0
split_feature=15 2 16 19 15 7 14 1 7 1 15 2 8 6 10 16 3 4 6 5 11 10 19 19 12 7 8 9 16 15
split_gain=31.6251 27.2258 24.8731 10.9232 15.755 14.7553 15.9088 15.2539 13.9857 12.2877 17.7717 12.2166 20.875 18.5626 10.5223 11.8881 10.314 25.8103 9.76059 17.0046 9.6895 10.7848 9.59712 9.96058 8.65769 8.16334 7.79553 21.6357 17.0838 7.18393
threshold=107.74513520991879 6682.6000000000013 103.45650100781675 18.841250820635484 47.146460463367937 14618.500000000002 6052.2189247311662 6268.8000000000002 50186.000000000007 6254.6000000000013 16.665917762778012 5867.7000000000007 5853.2833333333374 5067.7000000000016 6260.8730582445069 -53.26309226927944 5532.7000000000007 5675.8000000000002 6260.0000000000009 6328.8000000000011 6015.0597500000013 6280.934519922529 13.706615462835236 16.065518391034001 6229.2001078762323 65354.500000000007 5324.5866666666725 5020.869603494627 8.1762832231215672 -83.400895398784527
decision_type=2 2 2 2 2 2 2 2 2 2 2 2 2 2 2 2 2 2 2 2 2 2 2 2 2 2 2 2 2 2
left_child=2 16 3 4 5 6 11 -8 -7 14 18 12 13 29 15 22 -2 -18 -11 -20 -19 -22 24 -24 -10 -21 27 -5 -29 -1
right_child=1 -3 -4 26 -6 8 7 -9 9 10 -12 -13 -14 -15 -16 -17 17 20 19 25 21 -23 23 -25 -26 -27 -28 28 -30 -31
leaf_value=-0.075930304438754564 -0.069495488754278842 0.23971307819307786 -0.066935546408909821 -0.031531702699291772 0.18379602783604387 -0.051430225295791658 -0.06861996273485442 0.08411439821218189 -0.055682290387771782 0.0086385098373122204 -0.10124189961265016 0.18346710587688775 -0.10044699153909842 0.23255185182114058 -0.10005144977445402 -0.080841899296194536 0.19061642165051729 -0.086390372625190157 0.27803865838930808 -0.031429602567446882 0.1728005565812242 -0.031399333579174696 0.17620309301821724 0.0037926530134559122 0.10412518943055134 0.16446879186686983 -0.029669890246125319 0.29659702447031722 0.0389711395309979 0.09381167073076245
leaf_weight=4.175084665417673 6.7800851464271537 8.5931711196899396 62.476769372820854 21.990709200501442 5.5462338626384726 45.420964747667313 15.795696988701822 11.157971099019049 11.311996638774874 6.3013998717069688 4.7212830334901801 11.106354147195814 6.2568926662206641 7.4289680421352378 10.356656536459921 10.098378300666811 10.755610108375551 8.0768275409936923 6.5469040572643271 4.3805619329214078 4.6563014388084394 5.8183951526880264 8.1871372908353788 5.6725577414035788 4.840788558125495 4.1352634876966476 122.16308590769768 4.2792492955923063 6.4592380970716476 6.1900141686201131
leaf_count=21 35 35 324 111 25 229 79 51 57 30 23 50 31 34 52 50 46 42 30 22 20 29 37 27 23 20 611 21 32 31
internal_value=0 0.0797456 -0.00888349 0.00164382 0.0177364 0.0127332 0.052408 -0.00539274 -0.0074698 0.0186131 0.0743396 0.0967214 0.0566636 0.111908 -0.0101905 0.0130117 0.0416538 0.0673677 0.113141 0.15686 -0.0040882 0.0593733 0.0445909 0.105638 -0.00778998 0.0636982 -0.0180579 0.0252842 0.141634 0.0254392
internal_weight=0 44.6804 407 344.523 189.631 184.085 62.111 26.9537 121.974 76.5529 26.0854 35.1573 24.051 17.7941 50.4675 40.1109 36.0872 29.3071 21.3641 15.0627 18.5515 10.4747 30.0125 13.8597 16.1528 8.51583 154.892 32.7292 10.7385 10.3651
internal_count=2228 207 2021 1697 922 897 297 130 600 371 125 167 117 86 246 194 172 137 102 72 91 49 144 64 80 42 775 164 53 52
is_linear=0
shrinkage=0.1


Tree=6
num_leaves=31
num_cat=0
split_feature=17 16 17 17 16 5 3 19 13 17 17 4 2 9 12 6 12 19 3 15 18 16 18 19 15 17 17 2 18 19
split_gain=21.5057 7.43249 18.4746 7.23976 6.54186 6.00626 9.41565 6.47217 5.83599 7.38573 7.60582 17.04 6.03308 8.455 11.6139 10.7931 8.89439 9.06127 7.31613 6.86848 6.40085 7.94169 7.71701 5.42101 7.489 5.17771 8.98859 6.59312 6.56872 5.15181
threshold=22.876929109739827 -65.181431281879142 20.384288107277957 46.885537216229345 -55.318272354707084 6435.4000000000005 6482.4000000000005 19.124720185297747 6379.085456667709 0.69289224107372382 18.048961268147604 5992.3000000000002 6325.6000000000013 6054.55623152318 5996.1869604226713 6032.3000000000002 5819.1377288576105 26.942750116816544 6396.4000000000005 67.65027692876312 24.803930735060813 132.05495910011072 25.896745810196013 21.033381318704716 8.2889334783826616 15.076836596122117 3.9283992807292845 7226.7000000000016 16.282089007748596 23.301793676441097
decision_type=2 2 2 2 2 2 2 2 2 2 2 2 2 2 2 2 2 2 2 2 2 2 2 2 2 2 2 2 2 2
left_child=1 2 -1 -2 -3 8 -7 -8 9 -6 12 -12 13 14 16 -16 17 19 -14 20 21 23 -22 -11 -25 26 -9 29 -27 -28
right_child=3 4 -4 -5 5 6 7 25 -10 10 11 -13 18 -15 15 -17 -18 -19 -20 -21 22 -23 -24 24 -26 28 27 -29 -30 -31
leaf_value=-0.044201266501380211 -0.012062708809904288 0.13414320464177373 0.16125779913656424 -0.054230251545072675 0.14020673466983472 0.18887110223412679 -0.044703211521945486 -0.013877342994239296 -0.047676505064650189 0.14922597077624913 0.0065396350423987436 0.19439006010918691 0.17825622391017981 -0.053362589627357342 0.015140285059471013 0.24214117349562511 -0.052662894547500144 0.14912542253310768 0.012933941877301361 -0.09945994070919191 -0.10022532359041814 -0.074228639671263211 0.047306504260016223 -0.0068231536337763025 0.15118970838183265 0.087221331996965773 0.09811511419678301 0.003860640257940696 -0.081351383671757024 0.21935839883656946
leaf_weight=36.237045511603355 128.53019213676453 5.5572162568569174 4.9776272028684607 59.594955086708069 4.9917221814393988 4.7625010609626761 7.3525951802730551 7.0168447941541698 13.675899013876913 7.1911800056696 14.052601069211962 7.3569250106811515 4.2952971607446653 24.060423851013184 4.3040034323930723 4.0801550447940826 21.441595807671547 5.2130140364170066 7.1040207743644714 5.0968213230371466 7.4247959405183774 4.0463379323482505 6.7859262377023697 9.6307829767465574 4.3561040312051764 4.2256513833999616 8.0557972788810748 3.8816074132919303 5.103145033121109 6.2034336626529685
leaf_count=185 662 28 25 320 25 21 38 36 71 35 70 33 21 124 21 20 110 26 36 26 37 21 34 48 21 20 40 20 25 29
internal_value=0 0.0193973 -0.0193873 -0.0254207 0.0271095 0.0241607 0.0556422 0.0404769 0.0147022 0.0207339 0.016363 0.0710904 0.00617708 -0.00141843 0.0142883 0.12561 0.00117712 0.0243838 0.0752279 0.00978126 0.0239002 0.0541397 -0.0297757 0.0786661 0.0423887 0.0586375 0.0822326 0.119408 -0.00499325 0.150862
internal_weight=0 248.481 41.2147 188.125 207.266 201.709 46.6016 41.8391 155.108 141.432 136.44 21.4095 115.03 103.631 79.5707 8.38416 71.1866 49.745 11.3993 44.5319 39.4351 25.2244 14.2107 21.1781 13.9869 34.4865 25.1577 18.1408 9.3288 14.2592
internal_count=2228 1246 210 982 1036 1008 229 208 779 708 683 103 580 523 399 41 358 248 57 222 196 125 71 104 69 170 125 89 45 69
is_linear=0
shrinkage=0.1


Tree=7
num_leaves=31
num_cat=0
split_feature=16 15 7 16 7 7 7 13 4 17 17 9 15 17 12 15 3 9 16 18 19 4 14 9 13 3 10 1 12 11
split_gain=22.3635 20.1441 16.7417 12.7302 9.60028 10.7918 16.2486 9.35122 17.4252 10.6271 16.6922 8.9001 8.51189 7.83376 7.77487 8.26457 7.34168 10.8092 11.1204 11.15 6.76211 6.47756 6.34907 6.8427 5.84154 5.80013 5.75217 10.5566 4.70768 4.56676
threshold=0.4242157066514804 64.235812156121497 7469.5000000000009 144.85009900298797 75767.000000000015 26758.500000000004 49784.500000000007 6345.2802998049547 6342.5000000000009 15.488470558703298 29.47074971126246 6004.9749931908846 23.442672848211718 23.167994265113794 6218.8621898008196 20.670124258928812 6317.1000000000013 5997.3997948965152 17.600030869792459 22.836550605620541 19.490043846030947 6162.6000000000013 5909.0823655913528 5841.6061935930147 6350.9039994636441 6162.1000000000013 5429.6550400841743 4885.2000000000016 6062.6506503656783 6459.4936573969517
decision_type=2 2 2 2 2 2 2 2 2 2 2 2 2 2 2 2 2 2 2 2 2 2 2 2 2 2 2 2 2 2
left_child=2 3 -1 7 5 12 11 16 -9 -10 13 20 -4 29 15 -5 17 22 -19 21 -7 -20 23 -2 -16 -13 27 -8 -21 -11
right_child=1 -3 4 14 -6 6 26 8 9 10 -12 25 -14 -15 24 -17 -18 18 19 28 -22 -23 -24 -25 -26 -27 -28 -29 -30 -31
leaf_value=0.119055813647785 -0.0065403830794398578 -0.02932912343941297 -0.05580965477830311 0.13768695820117394 -0.070457103252596284 -0.02895419569560817 -0.053653092417811937 0.25113391927470169 -0.00044632286141945961 0.022921347665661434 -0.062181748435245092 0.16576880052508802 0.039964969971838286 0.23694968262302282 0.23465004639769355 -0.02603494597084316 -0.057717629273305537 0.22005199328023781 0.047040708488584167 0.05309562414293606 0.11666877273407322 0.20651745385199327 -0.10107023642113744 0.10055380159118654 0.094928751083755786 0.057623021520458256 -0.045405971146270319 0.13423889394669228 -0.072663752020809921 0.16337852505232633
leaf_weight=8.1057630330324155 43.405110865831375 56.609510183334351 72.258548885583878 5.8169574886560458 41.724202021956444 13.970243200659754 6.5130591541528684 4.5191487669944754 23.767747268080711 4.7575453072786349 4.9264717400073996 8.1801315397024172 10.646779656410216 6.1342563182115546 5.9126025885343534 6.5606729984283447 13.613580763339995 4.355071812868121 5.3866641223430651 5.1771369278430921 4.1318856924772254 4.8312426209449768 5.9481957554817191 6.9169280230998984 6.0582779198884964 12.595309436321257 43.918734908103943 5.528459906578064 7.0031629055738449 4.5084986835718155
leaf_count=38 212 285 362 27 214 69 33 21 115 22 23 38 52 27 27 31 65 21 26 25 20 22 29 33 28 61 220 27 34 21
internal_value=0 0.0223228 -0.0220768 0.0395633 -0.0272894 -0.017156 0.00588237 0.0283462 0.0641202 0.0449536 0.0980389 0.0555424 -0.0435102 0.149293 0.106479 0.0509074 0.0103499 0.0215111 0.0738406 0.0454115 0.00428485 0.122445 -0.00336853 0.00818006 0.163939 0.100204 -0.0286182 0.0326112 -0.0192108 0.0912624
internal_weight=0 226.209 227.573 169.599 219.467 177.743 94.8378 145.251 48.6137 44.0945 20.3268 38.8776 82.9053 15.4003 24.3485 12.3776 96.6371 83.0235 26.7533 22.3982 18.1021 10.2179 56.2702 50.322 11.9709 20.7754 55.9603 12.0415 12.1803 9.26604
internal_count=2228 1094 1134 809 1096 882 468 696 229 208 93 188 414 70 113 58 467 402 128 107 89 48 274 245 55 99 280 60 59 43
is_linear=0
shrinkage=0.1


Tree=8
num_leaves=31
num_cat=0
split_feature=14 18 5 8 8 15 14 14 8 11 3 11 7 9 17 19 1 19 2 6 12 12 18 5 6 7 18 17 19 7
split_gain=15.6981 6.25567 6.53265 6.91658 10.7092 14.4293 6.80974 8.68141 7.62886 7.64637 6.73542 6.37216 8.96723 8.93684 10.914 7.93713 7.40058 5.5532 5.14602 8.29984 5.03279 5.0226 7.65597 8.58042 5.19953 4.95803 4.7246 4.71334 9.58381 3.69075
threshold=6175.3070967739122 42.547275610077833 6215.7000000000016 6241.9466666666713 6301.030000000007 -75.495348760375677 6525.2703225806044 7271.638924730918 6307.1966666666713 6388.7636172387511 6307.9000000000005 6527.298285427808 45350.500000000007 6555.9246096286452 23.412112187680282 20.097521172136997 6587.8000000000002 13.394219270632346 6164.8000000000011 6135.3000000000011 6161.8971168450171 6249.3064442620798 16.563657339582868 6313.9000000000005 6413.0000000000009 60228.000000000007 27.13705249843807 23.167994265113794 20.737541301107502 9994.0000000000018
decision_type=2 2 2 2 2 2 2 2 2 2 2 2 2 2 2 2 2 2 2 2 2 2 2 2 2 2 2 2 2 2
left_child=18 2 3 -2 -5 -6 8 11 10 26 -4 -8 16 -14 15 -15 -13 -7 19 29 -12 -22 -23 -24 -25 -16 -10 28 -11 -1
right_child=1 -3 6 4 5 17 7 -9 9 27 20 12 13 14 25 -17 -18 -19 -20 -21 21 22 23 24 -26 -27 -28 -29 -30 -31
leaf_value=-0.064081509145147916 0.18151097126950635 -0.082648532596999599 0.12343459737920037 -0.049259580322789848 -0.023592304672832784 0.23780315316835635 0.17711864754345957 -0.057899805689622164 -0.070537042558478882 0.12646818116331007 -0.066752657656448486 0.090476983325878918 -0.02928559973171338 0.26537979154402241 -0.029088479328154504 0.10321095934128398 -0.061942422329173019 0.088907270156026938 -0.069492487702324343 0.12208576102467117 0.10252366681660607 -0.099961847430870429 -0.053661936226257395 0.14102839370947437 0.0064734061136779682 0.11543982721942288 0.044369545274772687 -0.028387886458496617 -0.016422501829853369 -0.011952547980421597
leaf_weight=14.500438213348387 4.5297418981790569 5.6376626640558234 7.104500323534011 7.8468045294284847 6.4947107136249604 5.3157585859298653 4.3127190619707099 7.0285169035196295 27.047031149268154 8.3590068370103854 5.9934591203927985 4.667194962501525 5.6260441392660168 5.4012197405099887 5.5485344678163511 6.8401920199394226 10.034571468830107 4.7368950843811035 17.070561558008194 4.4864253997802725 7.8490603268146542 4.9787617623806026 6.4335984587669399 7.4570578783750516 4.670620396733284 4.1480457931756973 4.1238718926906577 15.226346135139464 10.705184280872343 214.37673635780811
leaf_count=76 20 28 34 39 32 26 21 35 135 41 30 22 28 24 27 33 48 23 89 22 38 25 32 37 23 20 20 75 53 1072
internal_value=0 0.0211805 0.0242216 0.0680299 0.0469577 0.0925841 0.0164743 0.0456968 0.00222648 -0.0194885 0.0341794 0.0613291 0.0495141 0.0831535 0.111989 0.174764 -0.0135556 0.167642 -0.0164918 -0.0126148 0.0172166 0.0332498 0.0101515 0.0396876 0.0892085 0.0327385 -0.055335 0.0130969 0.0462303 -0.0152552
internal_weight=0 198.117 192.479 28.9239 24.3942 16.5474 163.556 53.607 109.948 65.4614 44.4871 46.5785 42.2658 27.564 21.938 12.2414 14.7018 10.0527 250.434 233.364 37.3826 31.3891 23.54 18.5613 12.1277 9.69658 31.1709 34.2905 19.0642 228.877
internal_count=2228 969 941 140 120 81 801 258 543 324 219 223 202 132 104 57 70 49 1259 1170 185 155 117 92 60 47 155 169 94 1148
is_linear=0
shrinkage=0.1


Tree=9
num_leaves=31
num_cat=0
split_feature=5 15 16 7 17 17 15 17 16 15 10 15 15 2 16 5 7 10 15 17 17 3 7 16 1 3 17 10 18 16
split_gain=63.3137 28.315 24.9186 21.1774 19.5329 15.4717 20.8728 18.1363 14.4213 14.8083 18.6677 13.3865 12.46 10.9201 13.7807 9.75211 8.94104 7.75601 11.7657 17.5332 27.0091 7.77134 8.2571 7.60171 7.37848 20.9481 11.6155 10.2789 8.65112 8.60589
threshold=6380.4000000000005 -66.154348635404844 -81.292867006602478 63696.500000000007 71.061607443377952 34.453857132448711 -78.001488259357743 28.790143633893091 -200.28330152655482 42.537645521333168 5019.3979046731683 118.80697866268476 -137.01790200098728 6205.1000000000013 -126.79448951049233 5100.5000000000009 38538.000000000007 5958.6093254313091 -47.535413465318918 15.925599748924492 21.457535684269626 6292.9000000000005 9300.5000000000018 74.611993955082582 5585.5000000000009 6192.5000000000009 19.340515921296788 5371.6343375172582 25.44772689272153 -27.008328052620211
decision_type=2 2 2 2 2 2 2 2 2 2 2 2 2 2 2 2 2 2 2 2 2 2 2 2 2 2 2 2 2 2
left_child=1 2 12 8 -2 6 7 -4 -3 16 -11 24 15 14 -14 -1 17 18 -10 -20 -21 -19 -23 -12 27 28 29 -5 -26 -27
right_child=4 3 5 11 -6 -7 -8 -9 9 10 23 -13 13 -15 -16 -17 -18 21 19 20 -22 22 -24 -25 25 26 -28 -29 -30 -31
leaf_value=0.27916605893311908 -0.077908410758727772 0.14090381826638917 -0.037862968129376826 0.035871068146935109 0.14719480767195342 -0.0482182398008216 0.21241257815446041 0.20327402336612491 -0.099098052064175435 0.19331938458750231 0.049716638947625236 0.18074564674067478 -0.029969576945336359 0.23474149007265802 0.12734772172107753 0.11675764566133251 -0.076297783533765443 -0.082948090346040698 -0.026102983338382402 0.24380100440826227 -0.015449906584274182 0.10604914451388031 -0.056792843612860758 -0.044678093147555692 0.086902837651044063 0.12415834172473939 -0.086928630241035754 -0.099586309466538139 0.24148704041714769 -0.033108644638159511
leaf_weight=7.5547847151756269 97.970480233430862 5.7070564329624167 14.695646002888685 18.41614064574242 4.0126957595348349 19.563503578305244 7.3365512341260901 3.9593804925680152 8.3529084324836713 6.0921780169010153 17.346144571900368 7.0025851577520362 9.9636293500661868 4.1331135481595984 12.62229733169079 7.2409666478633881 40.537608042359352 26.455018758773804 21.97406855225563 7.8630721569061306 8.219007655978201 5.3954992890357953 7.3633090555667877 16.788232386112213 7.9477407783269864 8.4584548026323283 8.7024824917316419 8.051025524735449 6.6489396691322327 5.911208495497708
leaf_count=34 538 26 76 93 19 101 36 20 43 29 87 31 50 19 60 33 213 141 114 40 41 29 40 89 38 42 46 41 30 29
internal_value=0 0.0210879 0.070024 0.00357025 -0.0690514 0.0189546 0.0695146 0.0133164 -0.015401 -0.0207622 0.0320699 0.0494642 0.126064 0.085296 0.0579483 0.199684 -0.0376078 -0.0192903 0.00837544 0.0319647 0.111307 -0.0520324 0.0120705 0.00329069 0.0351305 0.0635617 0.00424671 -0.0053336 0.157318 0.0594639
internal_weight=0 330.303 87.0699 243.233 101.983 45.5551 25.9916 18.655 172.094 166.387 40.2266 71.1386 41.5148 26.719 22.5859 14.7958 126.16 85.6229 46.4091 38.0561 16.0821 39.2138 12.7588 34.1344 64.136 37.6688 23.0721 26.4672 14.5967 14.3697
internal_count=2228 1671 429 1242 557 233 132 96 892 866 205 350 196 129 110 67 661 448 238 195 81 210 69 176 319 185 117 134 68 71
is_linear=0
shrinkage=0.1


Tree=10
num_leaves=31
num_cat=0
split_feature=13 15 16 2 15 15 19 9 5 2 15 0 0 16 16 7 15 7 12 7 16 13 8 11 3 2 11 17 0 7
split_gain=25.9053 23.2676 24.5286 14.4222 10.3084 9.54005 17.4726 13.2983 12.3093 11.8976 20.3856 14.7943 16.0881 14.1039 12.9414 10.444 12.8716 12.3935 12.4616 11.0199 10.3316 9.95385 9.39439 20.2454 7.96448 25.6891 7.88936 7.95608 7.01682 6.38128
threshold=7358.0929741598275 113.19608980336626 103.45650100781675 6682.6000000000013 -112.4082949909134 -37.866609768693245 19.310033831461215 6526.8370909289233 6313.9000000000005 6123.7000000000007 6.1218072705282802 5914.4000000000005 5523.3000000000011 2.8328581641948927 64.508420191251176 11635.000000000002 -1.817937835923203 55592.000000000007 6298.0559084859769 64350.500000000007 -174.45244015254926 6440.8371016911551 6562.6000000000067 6593.9070313900374 5581.1000000000013 5786.5000000000009 6015.0597500000013 23.412112187680282 4793.0000000000009 15721.000000000002
decision_type=2 2 2 2 2 2 2 2 2 2 2 2 2 2 2 2 2 2 2 2 2 2 2 2 2 2 2 2 2 2
left_child=1 2 4 24 29 20 7 8 15 10 28 12 13 -12 -15 16 -7 -17 19 -19 -6 -10 -11 -24 -3 -26 -27 -28 -8 -1
right_child=-2 3 -4 -5 5 6 9 -9 21 22 11 -13 -14 14 -16 17 -18 18 -20 -21 -22 -23 23 -25 25 26 27 -29 -30 -31
leaf_value=0.094548890547628939 0.21599744108420876 -0.039677344106048847 -0.068270052385260502 0.22578217408654574 0.059160133184026936 0.22307212484073435 0.068711971080936574 -0.076314319419520618 0.20688311899273781 -0.068004997841237411 0.2119570235130675 0.18947171507853278 -0.076888591028403799 -0.10000406105176347 0.13373407907003285 -0.045435714608136994 0.02736549028717656 0.21063371638945061 -0.049465476469878263 0.043776126276146507 -0.046441761400816975 0.053679745531845104 0.20712662541707388 -0.056519257862816502 0.21096925922323675 -0.083254965318003235 -0.027222732775907556 0.15340887354545812 -0.072664873344373979 0.01670558698388824
leaf_weight=16.41388912498951 5.474444016814231 8.0356095433235151 61.216314032673836 5.2225270867347708 10.514146402478216 5.721378192305564 4.1568289995193508 8.839696139097212 8.2770562022924441 51.187597677111626 5.9672815799713161 7.5971272289752951 8.9640504717826825 4.7854830622673017 4.6905462592840195 21.903520956635475 8.1446344405412656 6.2807517796754899 7.4750328958034506 10.703262880444525 77.949565723538399 8.6967805624008161 4.2286746054887763 9.3586787432432157 8.9447796195745486 6.6872135847806957 5.1890443712472898 4.6001337468624115 22.582455515861511 29.381765767931938
leaf_count=74 22 40 334 19 50 24 21 46 36 263 26 38 46 24 23 111 35 27 36 48 405 38 21 48 35 36 24 20 116 142
internal_value=0 -0.00287313 -0.00994959 0.0712291 0.000434222 -0.00635337 0.0052712 0.0398679 0.0531708 -0.0188286 0.0137616 0.0676072 0.0296752 0.0915299 0.0156941 0.031973 0.108118 0.00919982 0.0581269 0.105481 -0.0338907 0.128387 -0.0483842 0.025533 0.0471037 0.0745352 0.000467192 0.0576597 -0.0506867 0.0446059
internal_weight=0 443.716 405.037 38.6793 343.82 298.025 209.561 86.0421 77.2024 123.519 58.7438 32.0045 24.4074 15.4433 9.47603 60.2286 13.866 46.3626 24.459 16.984 88.4637 16.9738 64.775 13.5874 33.4568 25.4212 16.4764 9.78918 26.7393 45.7957
internal_count=2228 2206 2032 174 1698 1482 1027 401 355 626 294 157 119 73 47 281 59 222 111 75 455 74 332 69 155 115 80 44 137 216
is_linear=0
shrinkage=0.1


Tree=11
num_leaves=31
num_cat=0
split_feature=17 17 16 17 3 2 15 15 19 10 7 7 12 7 16 12 17 16 16 7 7 7 16 16 19 16 18 16 8 7
split_gain=17.7214 6.31331 5.98672 14.7399 5.54767 13.5674 7.0678 6.59142 8.59108 6.34575 4.73005 7.62639 9.45212 9.21201 7.67955 4.52059 4.36987 5.53794 4.23472 4.85943 6.54783 6.72535 6.95827 6.02312 6.25849 9.39048 5.99104 5.76198 4.90023 5.1122
threshold=22.876929109739827 46.885537216229345 -65.181431281879142 20.384288107277957 6592.9000000000005 6605.6000000000013 -2.2361025551672351 40.979854045490818 24.033176246944183 6544.3039214950404 61920.500000000007 39248.500000000007 6328.6302082072116 46428.000000000007 -80.356221169212191 6383.709595264243 35.50783376071341 51.098302615057548 -55.318272354707084 11423.000000000002 14208.500000000002 30016.000000000004 143.02184419949043 70.105277480624324 24.328552002744587 36.392019340633716 20.416199019782759 26.878427138905767 6328.6533333333382 54556.500000000007
decision_type=2 2 2 2 2 2 2 2 2 2 2 2 2 2 2 2 2 2 2 2 2 2 2 2 2 2 2 2 2 2
left_child=2 10 3 -1 9 -6 -7 -8 -9 18 11 12 -2 -13 -14 -16 -15 -18 -4 -20 -21 26 23 24 27 -26 -22 28 29 -23
right_child=1 -3 4 -5 5 6 7 8 -10 -11 -12 13 14 16 15 -17 17 -19 19 20 21 22 -24 -25 25 -27 -28 -29 -30 -31
leaf_value=-0.041457521357170804 -0.043836750751242798 -0.051028712439876681 0.10993491976313477 0.13536330661884455 0.19496867345939947 0.1410283834943685 -0.07247005917051251 0.12142639460943372 -0.05742979224674432 -0.098645614816622054 -0.039734046001809922 0.15725417131043312 -0.057791494666059207 -0.017222404650384087 0.16348601755683281 0.036415733414894846 -0.0080244061041141197 0.15203253620012788 0.047256274908420715 -0.048431435533663234 0.16714606772630522 0.035274844861267078 -0.085746190516361065 0.054534665403285124 -0.0093926416414923265 0.18128641508932586 0.038908224857871064 -0.065039671844301358 0.07115390127837877 -0.063760959165014244
leaf_weight=35.07926781475544 42.256592825055122 56.945389524102211 5.1694248020648947 5.4463582485914221 6.277763336896899 4.5298263281583848 7.2739777415990821 6.7076443284749967 4.4788050055503845 4.5658024847507468 39.448506325483322 5.7441532164812115 5.005379110574725 14.726919516921045 4.8889616429805738 6.551273301243782 4.3055270314216596 4.3414945751428604 42.787238091230392 17.538577646017075 4.8238035589456585 9.5852569490671211 7.598408341407775 25.659921243786812 6.6450756788253766 4.2248079627752304 14.88384987413883 17.453066691756248 8.5675255507230741 11.424682125449179
leaf_count=185 224 320 24 25 27 22 37 32 22 24 211 26 27 77 23 32 21 21 206 90 23 48 40 126 34 20 71 90 40 60
internal_value=0 -0.023353 0.0174981 -0.017694 0.0242831 0.0646755 0.0290974 0.00163174 0.0498164 0.017749 -0.0109697 0.00195108 -0.0188036 0.0437926 0.0455184 0.090719 0.0159094 0.0723369 0.0207623 0.0180696 0.00834401 0.0173256 0.00587379 0.0142051 -0.00366791 0.0647188 0.0702967 -0.0194737 0.00741384 -0.0185784
internal_weight=0 184.214 250.721 40.5256 210.195 29.268 22.9903 18.4604 11.1864 180.927 127.269 87.8203 58.7022 29.1181 16.4456 11.4402 23.3739 8.64702 176.362 171.192 128.405 110.866 91.1587 83.5603 57.9004 10.8699 19.7077 47.0305 29.5775 21.0099
internal_count=2228 982 1246 210 1036 140 113 91 54 896 662 451 306 145 82 55 119 42 872 848 642 552 458 418 292 54 94 238 148 108
is_linear=0
shrinkage=0.1


Tree=12
num_leaves=31
num_cat=0
split_feature=16 15 15 7 2 14 17 16 15 17 7 15 5 4 3 17 19 17 7 15 19 2 17 1 15 16 18 17 19 12
split_gain=18.6807 23.1256 12.3314 12.3293 9.55773 11.2452 9.5363 10.3572 9.08213 10.6724 7.1608 7.03659 6.70778 9.04994 6.59817 6.52346 8.09198 7.19721 5.69053 9.06563 8.07134 8.70352 8.2875 8.80596 7.03716 6.05111 11.0556 6.02908 8.48342 5.35921
threshold=56.125398701097318 113.19608980336626 -93.933751534230851 55009.500000000007 6200.1000000000013 6160.2208602147066 43.028717691152941 -80.356221169212191 -14.200201953269696 8.8942451885120715 42668.000000000007 64.235812156121497 6352.2000000000016 6383.4000000000005 6319.3000000000011 18.299467632872311 23.976393999414565 29.47074971126246 33246.500000000007 45.638407550974087 20.894010059491105 6042.1000000000013 28.317024848666438 5821.0000000000009 13.438235894894207 19.336198456684681 21.620309511387362 12.020351879438282 17.464046852560227 6064.5411265568209
decision_type=2 2 2 2 2 2 2 2 2 2 2 2 2 2 2 2 2 2 2 2 2 2 2 2 2 2 2 2 2 2
left_child=2 4 -1 6 8 -6 18 10 9 -2 -8 12 14 -14 -7 16 -15 -17 20 24 22 -22 -4 -24 27 26 -23 -20 29 -29
right_child=1 -3 3 -5 5 11 7 -9 -10 -11 -12 -13 13 15 -16 17 -18 -19 19 -21 21 25 23 -25 -26 -27 -28 28 -30 -31
leaf_value=-0.061215236011926348 0.13520051893057525 -0.064265073410006521 -0.0629090714534533 -0.036589899514796853 0.20100634209945289 0.087869470758324353 -0.020310849795643786 0.1886530380954819 -0.013411404041404668 0.0044216457947314266 0.1199181330824729 -0.025039083379013467 0.16339353439970697 -0.037195048533755166 -0.069716964267962186 0.13544195895812258 0.10261065369529715 -0.0035391691936562854 -0.028485605719581641 -0.072076817339556301 -0.042975272249061718 -0.0090018672692319304 0.092051770342292283 -0.037576198433403714 0.14602814688206908 -0.0017093467796992366 0.19414799178262107 0.079861457045913797 0.16276861750619306 -0.051163770274576227
leaf_weight=48.704897031188011 11.19860376417637 23.869357272982597 37.822315827012062 84.669402688741684 5.7653901875019065 4.6251203566789609 9.9423163086175936 5.6792955994606009 42.329979196190834 14.092586800456045 5.7461856454610816 9.3472873270511609 11.130947962403296 10.827924728393556 6.2438138872385025 14.674099743366243 6.7028800249099723 4.9942338317632666 10.901578187942507 7.1515799015760413 10.452022463083269 4.3369214385747927 8.7594888061285037 13.045169055461882 6.4271248131990424 7.0079874247312537 7.0069039613008499 6.6492631584405917 6.0213971585035315 5.8842203915119171
leaf_count=260 49 129 191 439 23 20 49 23 208 67 25 47 49 52 30 60 29 23 52 36 52 21 42 68 30 34 31 33 28 28
internal_value=0 0.0268043 -0.0153784 -0.00597865 0.0421198 0.066874 0.0109799 0.0729393 0.0149164 0.0623288 0.0310504 0.0555922 0.0683235 0.0842866 -0.0026583 0.0606158 0.0162595 0.100152 0.000909327 0.0307329 -0.0136044 0.0298633 -0.0346023 0.0144987 0.0512228 0.0713475 0.116481 0.0305372 0.0652149 0.0183477
internal_weight=0 165.802 286.208 237.503 141.933 74.3117 152.834 21.3678 67.6212 25.2912 15.6885 68.5463 59.199 48.3301 10.8689 37.1991 17.5308 19.6683 131.466 43.0352 88.4308 28.8038 59.627 21.8047 35.8836 18.3518 11.3438 29.4565 18.5549 12.5335
internal_count=2228 786 1442 1182 657 333 743 97 324 116 74 310 263 213 50 164 81 83 646 207 439 138 301 110 171 86 52 141 89 61
is_linear=0
shrinkage=0.1


Tree=13
num_leaves=31
num_cat=0
split_feature=14 18 18 18 10 8 14 7 18 4 12 19 15 19 19 19 16 2 10 9 17 16 15 5 4 15 16 7 5 11
split_gain=12.5819 5.28386 5.59574 4.88839 6.42847 9.3968 8.08066 8.02143 6.97841 11.1025 5.95763 5.95537 5.51494 12.3804 5.67653 5.1004 5.0783 5.99764 4.7057 4.67486 4.45233 4.26449 4.12655 5.73224 6.57414 4.44713 3.80192 6.10966 3.50772 3.45286
threshold=6175.3070967739122 42.547275610077833 36.207370747253385 30.803126132765382 6302.9214120531751 6510.8500000000085 7271.638924730918 51955.500000000007 16.900472348201369 6789.0000000000009 6502.0102886288178 20.318998439606784 -39.430744265499463 17.643048545709195 13.706615462835236 30.068053267022147 23.308982994843969 6317.6000000000013 6097.1817446739815 6395.6589657684963 14.479090537404081 133.98503263969903 -109.85623178959666 5503.5000000000009 5791.5000000000009 -144.68549849017242 60.123570338520601 46155.500000000007 6251.7000000000016 6349.8539101921479
decision_type=2 2 2 2 2 2 2 2 2 2 2 2 2 2 2 2 2 2 2 2 2 2 2 2 2 2 2 2 2 2
left_child=18 2 3 4 12 15 7 10 -9 11 -7 -10 14 -14 -2 16 17 28 22 29 -21 -18 23 -1 25 -25 27 -12 -6 -19
right_child=1 -3 -4 -5 5 6 -8 8 9 -11 26 -13 13 -15 -16 -17 21 19 -20 20 -22 -23 -24 24 -26 -27 -28 -29 -30 -31
leaf_value=-0.072733638624131694 0.063412113704531342 -0.079604550398460858 0.10523974714590796 -0.034152643665053509 0.024877715450826607 0.12407943807720954 -0.05446399715521854 0.0053790102792336224 0.16313511229722891 0.27257730276159742 -0.031700479212312095 0.0051454354492582177 0.20675182980922113 0.045187531660031421 -0.079436210070725932 0.096354790546295463 -0.055060542824131364 0.044000295263086506 -0.069716529160895283 0.055770654034627609 -0.063148832504443253 0.023693185298629262 -0.0057054397304228382 -0.010899498114604776 -0.098409843336972239 0.13176126895696186 -0.052167445726891686 0.12214504836608682 -0.064663083491737564 0.16160400506127723
leaf_weight=22.770337402820587 6.6019808799028379 5.3010807186365119 7.6803767681121817 16.313141658902168 7.0960910916328457 4.8225489109754589 6.6236009150743476 4.5755469650030163 4.8376254439353925 4.7298431992530814 5.5944990962743777 4.7077185809612274 6.4170601367950466 18.179510399699211 4.8075889945030212 4.5488484948873511 31.362811908125877 5.5181058496236819 14.691565230488775 7.585035637021063 5.3824475407600403 8.8065322339534742 196.66464824974537 4.4485105425119391 3.7970546633005133 4.2945931404829016 8.0832645893096906 4.7927946448326111 11.409518137574194 4.5592405796051025
leaf_count=118 31 28 36 79 34 22 34 21 22 20 26 23 29 85 24 22 160 27 82 36 27 43 996 22 20 21 39 21 58 22
internal_value=0 0.0189031 0.0215806 0.0181511 0.0231396 0.0131288 0.0482142 0.0643518 0.112848 0.147295 0.0251046 0.0852154 0.0606834 0.0873384 0.00322089 -0.00670485 -0.0124416 0.0120691 -0.0148328 0.0461152 0.00641043 -0.037795 -0.0113569 -0.0428332 0.0114597 0.0591752 -0.000737143 0.0392853 -0.0303281 0.0972071
internal_weight=0 200.337 195.036 187.355 171.042 135.036 48.7674 42.1438 18.8507 14.2752 23.2931 9.54534 36.0061 24.5966 11.4096 86.2686 81.7198 41.5504 246.667 23.0448 12.9675 40.1693 231.975 35.3105 12.5402 8.7431 18.4706 10.3873 18.5056 10.0773
internal_count=2228 969 941 905 826 657 228 194 86 65 108 45 169 114 55 429 407 204 1259 112 63 203 1177 181 63 43 86 47 92 49
is_linear=0
shrinkage=0.1


Tree=14
num_leaves=31
num_cat=0
split_feature=5 7 2 18 17 17 13 19 1 11 17 17 16 2 9 13 18 18 16 16 15 11 11 13 19 10 18 7 19 15
split_gain=53.6223 22.5027 27.213 30.1812 20.3216 16.3642 13.5396 11.1085 14.7433 16.6027 10.4429 10.0282 8.82574 10.5596 8.43882 8.5131 7.97158 16.322 9.79312 11.9461 9.38777 7.90833 8.57811 7.78706 7.11918 6.59749 6.3867 6.08814 11.3399 5.79413
threshold=6380.4000000000005 70100.500000000015 5889.1000000000013 34.342511678429396 74.08054018984312 14.266276186116885 5286.9929087166556 13.706615462835236 5579.0000000000009 6301.6454689542506 16.205337732163038 50.865375086806118 -107.49792190079978 5786.5000000000009 4423.3411414824905 4948.1574437005347 29.606569926659322 27.092281369485388 80.628841080051885 64.508420191251176 -19.844865195229428 5203.0547082868825 5078.3320297390992 6370.4142171057838 11.919550249724951 5013.1344477318189 30.954605184560201 84480.500000000015 21.546944010122314 -36.81368905797671
decision_type=2 2 2 2 2 2 2 2 2 2 2 2 2 2 2 2 2 2 2 2 2 2 2 2 2 2 2 2 2 2
left_child=1 2 3 5 27 -1 -5 -3 21 29 -7 12 -12 14 -14 -16 17 18 19 23 -19 22 -9 -4 -8 -13 -17 -2 -29 -10
right_child=4 7 16 6 -6 10 24 8 9 -11 11 25 13 -15 15 26 -18 20 -20 -21 -22 -23 -24 -25 -26 -27 -28 28 -30 -31
leaf_value=-0.040614155981965362 -0.085492084484892622 0.1355688664771372 -0.046683178576890583 -0.0060385180935513122 0.16348802362635817 0.16657405352003041 0.10827649342244311 -0.026768717615649581 0.20510728868983588 -0.026856933744286868 -0.070851143889436363 0.18933128718669306 0.13519341110235419 0.16385514691937786 -0.080562162387943767 0.0027097677514433846 -0.075044582987985262 0.17120529886324792 -0.085329369010571185 0.11939644731720417 0.0036604691530016547 -0.079962952757285918 0.13963108369204399 0.068182092520962995 0.2333413142363952 0.045754886649913735 0.12501586775847459 0.13073491373989937 -0.074315729838892716 0.098717550565487339
leaf_weight=37.942606031894684 79.98457807302475 17.666093081235886 35.111340746283531 5.1437973231077221 3.7062396407127371 5.969159558415412 8.2270146012306231 8.2115425318479556 6.9884660542011288 9.5574938207864744 10.687062606215475 5.6750663518905622 5.0145916044712058 5.2232523560523978 10.275729358196257 22.394705206155781 30.572539806365967 6.568794846534729 24.790346026420593 6.3843465447425833 6.8126948922872526 10.611631110310553 4.9749857485294333 7.094484642148017 10.188029542565344 7.3396846055984497 5.2752585113048545 3.909588709473609 8.6960227936506254 19.136514320969582
leaf_count=200 473 76 190 24 16 29 34 42 29 49 56 23 23 24 52 115 166 32 136 33 36 56 24 35 42 34 25 20 48 86
internal_value=0 0.0185822 0.00434897 0.0342257 -0.0661214 0.0132347 0.137401 0.0659405 0.0452605 0.0859192 0.0394781 0.0289244 0.011363 0.029598 0.0132746 -0.0028372 -0.0311351 -0.0156626 -0.0341844 -0.0080906 0.085906 -0.0157024 0.0360103 -0.0273752 0.177468 0.108361 0.0260273 -0.0753123 -0.01072 0.127177
internal_weight=0 333.837 256.691 139.356 96.2964 115.797 23.5588 77.1467 59.4806 35.6825 77.8545 71.8854 58.8706 48.1835 42.9603 37.9457 117.335 86.762 73.3805 48.5902 13.3815 23.7982 13.1865 42.2058 18.415 13.0148 27.67 92.5902 12.6056 26.125
internal_count=2228 1671 1309 681 557 581 100 362 286 164 381 352 295 239 215 192 628 462 394 258 68 122 66 225 76 57 140 541 68 115
is_linear=0
shrinkage=0.1


Tree=15
num_leaves=31
num_cat=0
split_feature=16 18 13 12 15 16 17 6 15 18 9 7 15 15 12 7 6 7 19 19 19 19 19 9 8 15 15 10 18 16
split_gain=20.1379 25.2544 18.2545 10.3083 9.09431 13.7275 12.7423 6.44698 26.7157 35.0282 15.6044 15.0815 12.1817 14.8613 11.6991 7.19993 6.79413 8.51168 6.44145 7.57146 5.93222 8.52663 6.89158 11.6742 12.7069 7.97737 6.64717 6.55486 5.78946 7.76438
threshold=129.85204765271249 11.861544624394449 7358.0929741598275 6375.6681436942099 121.9807557236045 4.651049362767572 24.215141536609622 6092.9000000000005 6.5707692348796636 26.42885945525197 6307.0507074380976 20783.500000000004 2.0124961226092641 -17.700313567390364 6229.2001078762323 44196.000000000007 6234.1000000000013 77382.500000000015 18.684847851072757 13.706615462835236 19.430360664327601 21.98978660463623 26.777502216756059 5975.3627476366901 5765.9900000000025 67.65027692876312 28.29546712322054 5114.3720374153027 21.841045836644149 -40.201484843710183
decision_type=2 2 2 2 2 2 2 2 2 2 2 2 2 2 2 2 2 2 2 2 2 2 2 2 2 2 2 2 2 2
left_child=1 3 4 -1 5 7 -6 8 11 -10 -9 -3 13 16 15 -13 -12 -18 19 -17 26 -22 23 24 25 -23 27 -7 29 -14
right_child=-2 2 -4 -5 6 20 -8 10 9 -11 12 14 28 -15 -16 18 17 -19 -20 -21 21 22 -24 -25 -26 -27 -28 -29 -30 -31
leaf_value=0.021403857130299398 -0.066736014241194616 0.043313569646815431 0.20664077494893324 0.18999240117079455 -0.030096870097438375 0.092306743433484273 0.13484082828300178 -0.085012791482740865 0.20766679843489766 -0.050575713381084603 -0.054344921111223778 -0.092715574871326187 0.083365928026380542 0.13936193078362905 0.10178279129915031 -0.049551974396853868 0.0091461154220875435 0.16560738175633899 -0.098202486337840955 0.050830979167035474 -0.087358619074619809 -0.032431785884313884 -0.073112152225866353 -0.044479729223670092 0.1890517529309142 0.12553557144785946 0.095209467426581984 -0.039216215018402147 -0.08644851567352399 -0.080129931211179187
leaf_weight=5.6201294362545005 41.445743694901466 53.455798104405403 4.286008656024932 10.226026698946951 8.0331237763166445 4.6033381521701839 11.234280556440352 21.434734508395195 15.638155162334444 7.9088255465030661 11.092486724257471 19.257047191262245 6.4068586677312851 12.013877987861632 6.1932940036058417 14.251572445034983 16.216601178050045 4.4259306490421286 7.8740245997905722 15.893011346459387 29.318836122751236 12.151760131120687 20.025796040892601 29.894905880093575 5.1513172537088385 4.3381461054086676 6.7794845551252356 21.428577348589897 13.728155881166456 5.3136818408966082
leaf_count=29 233 253 16 38 38 22 46 113 63 40 59 104 31 51 27 75 80 20 42 71 160 65 108 162 25 20 29 111 69 28
internal_value=0 0.00645604 0.00140684 0.130199 -0.000883497 -0.00441997 0.0660737 0.0103344 0.0237503 0.12093 -0.0104591 0.00417977 0.0126347 0.0446352 -0.0287801 -0.042898 0.0087747 0.0426927 -0.0176646 0.00337254 -0.0299247 -0.0419381 -0.0233293 -0.00398484 0.0519543 0.00912609 0.00701106 -0.0159584 -0.0423774 0.00924264
internal_weight=0 404.196 388.35 15.8462 384.064 364.796 19.2674 231.104 140.472 23.547 90.6323 116.925 69.1976 43.7489 63.4689 57.2757 31.735 20.6425 38.0186 30.1446 133.692 100.881 71.5619 51.5361 21.6412 16.4899 32.8114 26.0319 25.4487 11.7205
internal_count=2228 1995 1928 67 1912 1828 84 1126 675 103 451 572 338 210 319 292 159 100 188 146 702 540 380 272 110 85 162 133 128 59
is_linear=0
shrinkage=0.1


Tree=16
num_leaves=31
num_cat=0
split_feature=17 16 7 19 16 18 9 3 3 2 19 7 15 7 1 16 8 18 14 16 1 10 1 15 17 3 16 16 8 8
split_gain=14.9563 7.76735 10.3622 6.67816 8.96846 5.6002 5.1158 9.47212 8.52847 11.4158 6.91634 6.32801 10.5928 4.9309 9.45495 8.64596 9.42122 6.13896 5.25259 4.23296 3.60133 9.50916 8.83971 4.82516 3.56762 3.56727 5.27999 8.96659 6.61981 6.02609
threshold=42.658664963814303 -61.522563408938581 60228.000000000007 14.554756869839455 -115.74852424136267 27.416582440947966 6401.234563331459 6531.1000000000013 6592.9000000000005 6605.6000000000013 23.976393999414565 44196.000000000007 41.951168264734413 10690.500000000002 6383.7000000000007 15.061488838560132 5954.143333333338 26.603387377841369 6203.8339784944728 -55.318272354707084 6320.7000000000007 6124.7804922079058 6106.5000000000009 -78.001488259357743 15.332027183919374 4923.5000000000009 39.009917522889552 54.270212747042414 6139.143333333338 6281.5766666666741
decision_type=2 2 2 2 2 2 2 2 2 2 2 2 2 2 2 2 2 2 2 2 2 2 2 2 2 2 2 2 2 2
left_child=1 2 3 4 -1 6 13 -8 -9 -10 11 -11 -13 14 15 -3 -17 19 -18 -15 21 -2 -23 -24 -7 -21 28 -28 -27 -30
right_child=20 5 -4 -5 -6 24 7 8 9 10 -12 12 -14 17 -16 16 18 -19 -20 25 -22 22 23 -25 -26 26 27 -29 29 -31
leaf_value=-0.026943862205412668 -0.05567801146621934 -0.021423024351802392 -0.06152687139902642 -0.010356699796794598 0.13859913186288783 0.041496433322844459 0.18322357216548027 -0.069580015194372943 0.15957089719372522 0.13847734946824306 -0.037152495726232408 -0.079479344638525046 0.11040728009498153 0.12941824416724901 -0.026807663539039545 0.0036377824405353222 0.22821900246108828 0.097911804160249152 0.10459469262215999 0.048170873309785874 -0.089338053700176723 0.17381288442965562 0.069489125410192462 -0.077146807882677276 -0.038696140248395794 -0.063177763267782724 0.1102621927452202 -0.0007626336322068346 0.121690509248296 -0.016389715834264285
leaf_weight=5.5823214203119278 39.775447010993958 6.2816069573164013 33.342200592160225 43.807830944657326 7.9096362739801389 7.0239494442939749 4.8550170958042136 6.5147093683481208 8.0959990024566633 6.9314660131931367 11.034284040331839 5.7216755896806699 6.0379814505577087 2.5738971680402747 11.938560143113135 5.6010854840278652 5.9642347395420066 7.0325407534837714 8.1106735169887525 13.934688717126845 13.600924909114836 3.6994976997375479 4.1550327688455573 4.8791760206222525 26.395083069801331 27.720893293619156 8.0226076394319517 77.979400277137756 4.0669119656085995 14.183121487498282
leaf_count=30 232 31 183 228 39 35 22 33 33 30 56 32 27 12 58 26 26 35 37 66 78 21 22 27 138 145 40 393 21 72
internal_value=0 0.00819586 -0.0172027 0.00858912 0.0701054 0.0165365 0.0218231 0.0506174 0.0360964 0.0542991 0.0256273 0.0626893 0.0180177 0.0144997 0.046845 0.0807197 0.113329 0.00661772 0.15698 0.00229375 -0.0434784 -0.0315998 0.0436116 -0.00970569 -0.0218414 5.11964e-05 -0.00502964 0.0095942 -0.0323878 0.0143806
internal_weight=0 366.662 90.642 57.2998 13.492 276.02 242.601 49.1911 44.3361 37.8214 29.7254 18.6911 11.7597 193.41 37.8962 25.9576 19.676 155.514 14.0749 148.482 66.1101 52.5092 12.7337 9.03421 33.419 145.908 131.973 86.002 45.9709 18.25
internal_count=2228 1848 480 297 69 1368 1195 233 211 178 145 89 59 962 178 120 89 784 63 749 380 302 70 49 173 737 671 433 238 93
is_linear=0
shrinkage=0.1


Tree=17
num_leaves=31
num_cat=0
split_feature=16 15 7 7 7 7 16 15 17 18 9 7 7 19 16 6 14 4 9 16 9 16 3 7 13 12 13 12 4 3
split_gain=15.4551 12.5419 11.6927 7.84261 8.35215 10.6911 7.68211 6.84029 6.47504 7.18227 6.21511 8.36763 6.96639 7.42401 9.5197 5.8698 5.73273 5.33305 6.65874 10.1448 4.90975 4.82874 4.92041 10.2605 7.28147 4.63852 6.92484 6.1203 4.48078 4.4192
threshold=0.4242157066514804 64.235812156121497 7469.5000000000009 75767.000000000015 26758.500000000004 49784.500000000007 144.85009900298797 23.442672848211718 16.56371576738178 20.822581458354993 5997.3997948965152 68075.000000000015 60819.500000000007 23.169854885902797 13.874924253959405 5534.2000000000016 5909.0823655913528 6200.2000000000007 6290.1333527466713 -51.824089067846622 5841.6061935930147 46.118636923190223 6909.4000000000005 30016.000000000004 6392.83853810652 6393.1045259224547 6407.4183240906177 6201.3498505173902 6156.4000000000005 6478.3000000000002
decision_type=2 2 2 2 2 2 2 2 2 2 2 2 2 2 2 2 2 2 2 2 2 2 2 2 2 2 2 2 2 2
left_child=2 6 -1 4 7 15 10 -4 9 -8 16 12 13 14 -12 -6 20 18 19 -7 -2 -16 23 -23 -25 26 27 28 -15 -10
right_child=1 -3 3 -5 5 17 8 -9 29 -11 11 -13 -14 25 21 -17 -18 -19 -20 -21 -22 22 -24 24 -26 -27 -28 -29 -30 -31
leaf_value=0.093542702487620033 -0.0062930080595268714 -0.024169979258661295 -0.050664126928704589 -0.064842500100562708 -0.015898585525528666 -0.047299372487736968 0.19110954128197316 0.034605447838150206 -0.03805840313058384 0.057184515470555614 0.15235115332234514 -0.050839870900331721 0.16057355849788849 0.050734003851318592 -0.048590839045572598 0.067721497574780368 -0.099671550739916029 -0.069527158885965737 0.10647411590061401 0.096814861056546034 0.081464092406149172 -0.024443080097484124 -0.063431825428868646 0.037747257115278099 0.1907627245971372 0.0034438530531736285 0.18125491386299811 -0.020493679325905595 0.17631984562299949 0.089985597585337029
leaf_weight=8.8788395375013334 43.190143719315529 53.499309733510017 67.282226547598839 37.837204039096832 11.761593982577322 25.004386484622955 7.6061779707670274 10.937045305967329 5.8810169100761396 8.4564597308635694 4.6254779845476142 9.4970480650663358 5.1764123737812033 6.4139722287654966 13.341193586587904 29.324571326375008 5.6340534985065451 17.40127782523632 4.8825636953115454 6.0704490691423443 7.4792014062404624 11.726838245987897 5.3021124005317679 7.0215234160423261 5.5824476927518845 6.4256431907415381 7.2030731141567221 5.6792547702789298 5.1000142693519592 4.9760706424713135
leaf_count=38 212 285 362 214 58 131 31 52 26 36 20 45 22 29 66 130 29 93 26 30 33 58 26 32 22 29 30 24 19 20
internal_value=0 0.0182396 -0.0188681 -0.0236095 -0.0145738 0.00544163 0.0311077 -0.0387413 0.0802811 0.120602 0.0222473 0.0381092 0.0482142 0.0407976 0.0160388 0.0437839 -0.00397959 -0.0240819 -0.00208901 -0.0191467 0.00666064 0.00136695 0.0238587 0.0428809 0.10552 0.0790337 0.098943 0.0644585 0.106361 0.0206273
internal_weight=0 229.817 219.38 210.501 172.664 94.4448 176.318 78.2193 26.9197 16.0626 149.398 93.095 83.598 78.4216 47.5996 41.0862 56.3034 53.3587 35.9574 31.0748 50.6693 42.9741 29.6329 24.3308 12.604 30.822 24.3963 17.1932 11.514 10.8571
internal_count=2228 1094 1134 1096 882 468 809 414 113 67 696 422 377 355 224 188 274 280 187 161 245 204 138 112 54 131 102 72 48 46
is_linear=0
shrinkage=0.1


Tree=18
num_leaves=31
num_cat=0
split_feature=14 17 10 2 6 7 18 16 18 8 3 7 4 11 1 2 6 2 5 8 12 13 12 19 4 13 11 19 16 11
split_gain=10.0477 4.7671 10.7124 4.18891 6.29165 3.93101 4.27164 9.62794 4.71239 5.33326 7.6592 7.0703 4.64273 7.08863 4.41196 8.63246 4.77359 6.50998 5.50899 4.31269 8.23057 3.98725 5.08821 3.94134 4.38566 4.3075 5.25305 3.61009 3.25914 3.23383
threshold=6175.3070967739122 53.761212361172909 6177.8100564851011 6164.8000000000011 6142.4000000000005 7469.5000000000009 16.563657339582868 149.17143706209546 17.155283434164716 7229.9733333333379 6909.4000000000005 51955.500000000007 6728.2000000000007 6593.9070313900374 6587.8000000000002 6510.7000000000007 6301.1000000000013 6317.6000000000013 6313.9000000000005 6297.8833333333405 6229.2001078762323 6345.2802998049547 6226.5988438054092 13.706615462835236 6103.5000000000009 6215.2771254202462 6333.1649107142875 27.445020273430782 57.386871361639855 6356.2879901960796
decision_type=2 2 2 2 2 2 2 2 2 2 2 2 2 2 2 2 2 2 2 2 2 2 2 2 2 2 2 2 2 2
left_child=3 2 -2 4 -1 -4 7 27 -8 10 12 -12 13 14 15 16 17 21 -18 20 -20 22 -10 24 -24 -25 -27 28 -7 -21
right_child=1 -3 5 -5 -6 6 8 -9 9 -11 11 -13 -14 -15 -16 -17 18 -19 19 29 -22 -23 23 25 -26 26 -28 -29 -30 -31
leaf_value=-0.012105731644206575 0.18065555871254912 -0.040576073771103033 -0.036538600615845795 -0.063755599250444425 0.11184665226932307 0.0052184376024907546 0.12763243200394178 0.11784384102670492 0.13952106562036887 -0.052178138229459582 0.034472048818270318 0.19570122037724333 -0.080476001012075679 0.1225514399770586 -0.077541442948984615 0.13462563395465729 -0.099795608407072495 0.13902351419676046 -0.074091696420563874 -0.097378600849187438 0.092683292486151481 -0.043099103296821553 -0.0014903324116280834 -0.069194840830107296 0.12363942623200581 0.088478851538016309 -0.053874374077805001 0.040132058030789591 -0.074828979120335995 -0.0023385774852674036
leaf_weight=223.48628237843513 4.1129449605941764 13.452740892767904 12.554681181907652 15.380698993802069 4.1714458614587775 7.4438011050224366 4.7039617151021949 5.0036126673221579 4.4284621477127066 8.230721712112425 5.7316865772008878 5.1761474609375 4.1565241962671271 7.2786476463079444 4.4000188410282126 6.6719902753829947 5.5298340320587149 5.7456575483083716 4.0235043764114371 4.3536035418510464 11.186357855796812 7.0443789213895789 4.897847071290018 6.5968927741050747 6.5426561385393143 6.6712640076875669 4.2396514117717743 5.5590306967496863 16.060747817158699 20.152615278959274
leaf_count=1151 17 69 64 89 19 36 21 24 19 41 26 22 19 30 22 30 28 26 21 24 51 36 23 34 29 29 21 26 83 98
internal_value=0 0.0169351 0.0210396 -0.0132469 -0.00983451 0.0174791 0.0214259 -0.0102804 0.0292665 0.025789 0.0309299 0.110981 0.023265 0.0271935 0.020421 0.0248156 0.0168008 0.0394235 -0.00628232 0.00673792 0.0485659 0.0252658 0.0396947 0.0244234 0.0700695 -0.00540409 0.0331647 -0.0323384 -0.0494783 -0.0192227
internal_weight=0 201.95 188.497 243.038 227.658 184.384 171.83 34.0672 137.762 133.058 124.828 10.9078 113.92 109.763 102.485 98.0847 91.4127 46.1668 45.2459 39.7161 15.2099 40.4212 33.3768 28.9483 11.4405 17.5078 10.9109 29.0636 23.5045 24.5062
internal_count=2228 969 900 1259 1170 883 819 169 650 629 588 48 540 521 491 469 439 217 222 194 72 191 155 136 52 84 50 145 119 122
is_linear=0
shrinkage=0.1


Tree=19
num_leaves=31
num_cat=0
split_feature=5 17 17 7 2 18 17 7 17 13 11 7 17 18 7 15 12 0 13 17 17 15 15 19 1 17 17 15 1 5
split_gain=45.6169 18.5127 16.8107 15.4754 22.841 17.3481 12.9195 11.64 11.6181 9.66593 9.29005 8.65703 8.32715 9.20367 8.71602 8.71432 7.72256 6.88036 7.59736 9.54105 8.15258 6.7162 9.01149 10.6334 8.07366 6.62046 9.26199 6.02902 8.2384 9.92813
threshold=6380.4000000000005 3.4133582522830612 74.08054018984312 63696.500000000007 5889.1000000000013 34.342511678429396 4.4477908034260141 60032.500000000007 50.865375086806118 5286.9929087166556 4268.3731996469314 57754.000000000007 5.9130346233538269 48.184530222733244 77138.000000000015 118.80697866268476 6454.9487181559371 5588.6000000000013 5874.7097565416725 15.925599748924492 26.539848786704521 -39.043009236545451 -79.604755321414345 13.706615462835236 5153.2000000000007 32.571261474736382 35.789948216880695 -22.49174941881574 5585.5000000000009 6143.6000000000013
decision_type=2 2 2 2 2 2 2 2 2 2 2 2 2 2 2 2 2 2 2 2 2 2 2 2 2 2 2 2 2 2
left_child=1 -1 -2 4 5 7 -6 8 10 -7 -3 17 14 15 -5 16 21 25 19 -19 -21 22 23 24 -14 -12 -27 -23 -29 -30
right_child=2 3 -4 12 6 9 -8 -9 -10 -11 11 -13 13 -15 -16 -17 -18 18 -20 20 -22 27 -24 -25 -26 26 -28 28 29 -31
leaf_value=-0.063965491098828361 -0.072688328106500541 0.13660202203112728 0.13624125222442374 0.21650585096831265 0.13218966663712065 -0.0071023055519981483 -0.037562044437027889 -0.097523774036181204 0.1252981005285535 0.1474145119688699 -0.049916315814604845 0.13700876442520671 0.16776025754685864 0.19055718240327438 0.037286773205499057 0.13790830973982812 -0.098703076489018549 -0.038776413131303235 -0.062771873506119472 0.19319466389042833 0.017252019967630549 -0.099818237376919028 0.12875288838175933 -0.083436712819876302 -0.0097864626780189354 0.15419786971369606 -0.036311542162866216 -0.030452472518895497 0.13700818041427235 -0.0060150922879075568
leaf_weight=26.366758123040199 86.77647776901722 5.7787818014621726 4.0299493670463553 6.192903667688368 4.7229487597942343 5.1782561540603664 88.431745901703835 7.9777297824621192 10.885940030217169 18.555976316332817 32.776231944561005 4.6132430136203757 5.3500143140554481 4.1787406206130973 4.8300888985395432 7.9688157886266699 4.5256254673004142 5.0542472898960176 5.2812519818544379 6.9717705845832807 4.2324438989162445 4.5197022557258597 14.423564150929449 6.1600108295679084 4.9133946895599365 4.2972180992364866 6.2834174185991287 15.933830618858336 9.8546316176652926 9.5636873096227628
leaf_count=143 541 26 16 27 24 24 493 44 43 71 173 23 21 15 21 31 24 27 27 30 21 24 58 32 20 21 33 83 43 49
internal_value=0 0.0164707 -0.0634161 0.0233241 0.00805306 0.0372976 -0.0289556 0.0180371 0.0287353 0.113703 0.0147734 0.00464502 0.0560714 0.0457406 0.137975 0.0384684 0.0279371 -0.0047642 0.0414317 0.0752803 0.126732 0.0360414 0.0710779 0.020426 0.0827634 -0.0277144 0.0410619 0.00893526 0.0228392 0.066568
internal_weight=0 335.823 90.8064 309.456 211.041 117.887 93.1547 94.1523 86.1745 23.7342 75.2886 69.5098 98.415 87.392 11.023 83.2133 75.2445 64.8966 21.5397 16.2585 11.2042 70.7188 30.847 16.4234 10.2634 43.3569 10.5806 39.8719 35.3521 19.4183
internal_count=2228 1671 557 1528 1080 563 517 468 424 95 381 355 448 400 48 385 354 332 105 78 51 330 131 73 41 227 54 199 175 92
is_linear=0
shrinkage=0.1


Tree=20
num_leaves=31
num_cat=0
split_feature=16 18 13 15 16 9 3 15 15 19 9 2 16 8 11 2 16 16 18 2 15 15 0 2 16 16 16 16 16 18
split_gain=17.3435 19.7438 16.2255 9.07462 12.104 8.71459 15.0014 7.11717 7.13123 12.0983 10.8771 13.9827 12.1304 10.2397 19.4351 12.9337 8.17603 5.96975 5.93766 8.42014 12.9973 12.6633 12.08 10.9473 9.62231 11.3677 6.94915 5.32392 6.04082 5.23294
threshold=137.29265096201178 9.567377197714217 7358.0929741598275 115.29160992552626 103.45650100781675 6081.0961904010428 5581.1000000000013 -112.4082949909134 -37.866609768693245 18.841250820635484 6526.8370909289233 6418.4000000000005 -47.365530471167453 5999.6700000000046 5569.1098616831941 6268.3000000000011 -174.45244015254926 -202.84623920213016 28.699818138305009 6054.4000000000005 6.1218072705282802 10.744718382056364 5914.4000000000005 5523.3000000000011 2.8328581641948927 64.508420191251176 18.610432149254699 -134.85392800732618 -163.93849092815603 16.42655071614001
decision_type=2 2 2 2 2 2 2 2 2 2 2 2 2 2 2 2 2 2 2 2 2 2 2 2 2 2 2 2 2 2
left_child=1 -1 3 4 7 6 -5 27 16 10 11 12 13 14 -10 -15 17 -9 19 20 -11 26 23 24 -22 -26 -21 28 -3 -23
right_child=-2 2 -4 5 -6 -7 -8 8 9 18 -12 -13 -14 15 -16 -17 -18 -19 -20 21 22 29 -24 -25 25 -27 -28 -29 -30 -31
leaf_value=0.140351973950123 -0.071479413765716232 0.058262596973225493 0.17672022026538028 -0.061473467049334554 -0.06948121383196719 -0.043552629496761142 0.13656100535600779 -0.018116697249645184 -0.0073568774829685605 -0.036663428038250394 -0.073536996626986997 0.15453236893949254 -0.051566280538775391 -0.066048485593022066 0.18280109039892922 0.083510304169331195 -0.0421744586827551 0.12999283744449372 -0.087686517996015165 0.14082107728776858 0.17484930739252819 0.0058517531301363092 0.19442253657353098 -0.06979289603145386 -0.097477952624864667 0.12241439761788644 -0.0056007610373987196 0.053178980571966954 -0.098913323065355233 -0.067750447780676251
leaf_weight=10.505989462137221 31.935112357139587 4.3937409818172455 5.214015305042266 5.0904425233602586 26.961113892495632 6.767598643898963 15.389185234904287 5.8779550641775131 9.2368114590644854 20.978662595152855 8.2079679369926435 10.499203145503996 14.122670367360113 11.663183227181436 12.8546966612339 11.467620253562925 73.622286528348923 5.0675829946994764 10.20979283750057 5.6805055439472181 6.3884446471929612 12.399272069334982 5.9000283628702155 7.0411033630371085 4.5621635913848859 4.8506560325622559 7.548475056886673 37.637541711330414 5.5139251351356489 43.719823777675629
leaf_count=41 192 22 18 26 161 33 58 28 43 111 45 38 72 60 48 46 405 22 57 26 23 66 24 38 25 22 41 165 29 243
internal_value=0 0.00503538 0.00147119 -0.000850023 -0.00499038 0.0548272 0.0873373 0.000131947 -0.005712 0.00427043 0.0353591 0.0481563 0.0293365 0.054602 0.103293 0.00809868 -0.0301855 0.0504553 -0.0144993 -0.00822377 0.0231818 -0.0307409 0.066862 0.033914 0.0801262 0.015838 0.0572726 0.0360103 -0.0292107 -0.0514884
internal_weight=0 409.372 398.866 393.652 366.405 27.2472 20.4796 339.444 291.899 207.331 78.0522 69.8442 59.345 45.2223 22.0915 23.1308 84.5678 10.9455 129.279 119.069 49.7211 69.3481 28.7424 22.8424 15.8013 9.41282 13.229 47.5452 9.90767 56.1191
internal_count=2228 2036 1995 1977 1860 117 84 1699 1483 1028 352 307 269 197 91 106 455 50 676 619 243 376 132 108 70 47 67 216 51 309
is_linear=0
shrinkage=0.1


Tree=21
num_leaves=31
num_cat=0
split_feature=17 16 7 7 17 16 12 8 3 7 7 7 19 18 17 19 8 14 16 1 16 19 2 13 13 13 10 2 15 12
split_gain=12.5562 6.45149 9.1718 6.05045 8.89026 6.21529 5.87503 4.77795 6.06181 5.15148 10.0315 7.3573 6.27377 6.63791 6.14938 10.2869 4.07826 4.414 4.18389 6.53311 4.38943 3.81555 3.7093 4.91861 3.66911 3.44679 12.0821 11.9458 3.16846 3.15432
threshold=42.658664963814303 -61.522563408938581 60228.000000000007 34406.000000000007 19.126219514988694 -124.72265188674641 6411.7737635305739 6325.9600000000073 6350.2000000000016 44196.000000000007 10360.500000000002 9120.5000000000018 18.429216698154971 21.595241383090734 8.1865399518259014 23.843940279660924 6295.7266666666737 6320.2313978490993 2.8328581641948927 4885.2000000000016 -50.203996389026592 26.282969117741963 6327.3000000000002 6402.8394735085376 6379.085456667709 6213.3446279080354 6124.7804922079058 6180.7000000000007 37.41108066788275 5996.1869604226713
decision_type=2 2 2 2 2 2 2 2 2 2 2 2 2 2 2 2 2 2 2 2 2 2 2 2 2 2 2 2 2 2
left_child=1 2 3 6 5 -5 -1 16 -9 10 11 28 -11 14 -14 -16 17 18 19 -3 -21 -17 -18 -24 29 26 -2 -28 -10 -20
right_child=25 7 -4 4 -6 -7 -8 8 9 12 -12 -13 13 -15 15 21 22 -19 24 20 -22 -23 23 -25 -26 -27 27 -29 -30 -31
leaf_value=-0.036579211548163036 -0.053180189893001675 0.070989751036424034 -0.058871698035095538 -0.097064337828006803 0.11157428975478186 0.046393849721627467 0.08149076103750659 0.14708290930264131 -0.0071391205510661975 -0.067081138751939745 0.12572955081783943 -0.10240113940896321 -0.081894951261407167 0.12888966105784902 0.11608301215019637 -0.073628053071575592 -0.098309730576553012 0.11282638369287168 0.011419208271225972 0.048022016815076916 -0.043707958946132275 0.049306950113365222 0.058851581811380296 -0.066795747478670967 -0.061736825631098273 -0.082270235117329102 0.17920623212217016 -0.038912205636754515 0.098078324367467787 0.045589893439814178
leaf_weight=28.737402901053429 38.377577662467957 7.4522805362939826 31.91056889295578 5.0339204519987106 11.170473426580427 7.5488337129354495 4.9386009871959677 4.6693221777677527 5.2888408452272433 9.0674225986003858 13.219442948698996 4.384155496954917 6.0356413573026719 5.3427885621786109 8.5254628360271472 7.1367945969104749 6.4978983402252224 4.2130835354328147 85.797630473971367 6.0914498567581168 36.321354433894157 3.9066881984472275 6.1190898418426496 6.3473337143659592 5.4367180764675131 15.156428292393683 5.0158850252628309 5.027773454785347 6.2372637987136841 39.42953784763813
leaf_count=152 235 35 183 28 53 39 25 20 27 47 56 21 33 22 38 37 35 21 425 32 195 19 29 34 29 92 26 27 27 186
internal_value=0 0.00748451 -0.015888 0.00799596 0.0466439 -0.0109988 -0.0192642 0.0150086 0.0368061 0.0293591 0.0613503 0.00785909 0.00607047 0.0275035 0.00634775 0.0335644 0.00711021 0.0116436 0.00928223 -0.0153609 -0.0305334 -0.0301392 -0.0370519 -0.0051223 0.0186868 -0.0406529 -0.0276261 0.0700179 0.0497985 0.0221783
internal_weight=0 366.86 89.3398 57.4292 23.7532 12.5828 33.676 277.52 73.8138 69.1445 29.1297 15.9103 40.0148 30.9474 25.6046 19.5689 203.706 184.742 180.529 49.8651 42.4128 11.0435 18.9643 12.4664 130.664 63.5777 48.4212 10.0437 11.5261 125.227
internal_count=2228 1848 480 297 120 67 177 1368 347 327 131 75 196 149 127 94 1021 923 902 262 227 56 98 63 640 380 288 53 54 611
is_linear=0
shrinkage=0.1


Tree=22
num_leaves=31
num_cat=0
split_feature=16 15 7 7 7 7 16 16 15 15 15 2 17 19 4 7 9 7 8 2 19 15 16 19 19 14 19 3 4 10
split_gain=12.6502 10.4476 9.57329 6.9437 6.93556 8.63991 6.6876 6.33229 5.78697 5.26449 12.148 5.82356 9.22756 7.3365 6.28416 6.23342 5.99178 5.46004 5.41117 7.02706 4.91747 6.3783 4.74159 4.71455 6.12021 4.68369 4.97825 4.89496 4.63034 6.09256
threshold=0.4242157066514804 113.19608980336626 7469.5000000000009 75767.000000000015 26758.500000000004 49784.500000000007 36.392019340633716 86.060329613435371 23.442672848211718 -35.507231598141509 -52.165329319250752 6224.9000000000005 2.4648813629853206 22.424905368298337 6373.9000000000005 30586.500000000004 6303.7475687874585 43708.000000000007 6301.030000000007 6518.4000000000005 27.445020273430782 61.783306144669048 131.14138601302611 23.584069799403469 19.614781089905168 6016.0836559139798 19.490043846030947 6162.1000000000013 6200.2000000000007 6267.5489554566493
decision_type=2 2 2 2 2 2 2 2 2 2 2 2 2 2 2 2 2 2 2 2 2 2 2 2 2 2 2 2 2 2
left_child=2 7 -1 4 8 25 -3 23 -4 10 -9 12 -11 16 -15 -14 -13 -17 -16 -20 -19 -22 -21 24 -2 26 -6 -27 29 -7
right_child=1 6 3 -5 5 28 -8 9 -10 11 -12 13 15 14 18 17 -18 20 19 22 21 -23 -24 -25 -26 27 -28 -29 -30 -31
leaf_value=0.082259319736878014 -0.012082541864420331 0.094758476485355958 -0.047430875853946362 -0.061785664688540867 -0.01930426603359902 -0.01746566480178097 -0.061322582324649981 0.023793524669364255 0.030485912773181356 0.13839322462168463 0.20784273397567066 0.060421578456214264 -0.066618304165342077 0.13881818991368056 -0.032974519780613852 0.12662540453284396 -0.084861536586402608 -0.062766292443087984 0.1710482617498579 -0.0014005029935988053 0.12524304077449575 -0.037291955762445782 0.10236132148942795 -0.029652182556799651 0.047010165201555307 0.14062350109964725 0.10011671891965433 0.03786435578738976 -0.066373064260638423 0.10937044166424059
leaf_weight=9.2465922534465772 32.975573971867561 3.1132941842079189 64.418488159775734 35.79272335767746 16.85974028706551 31.639461368322372 23.216597467660904 9.184185639023779 11.187554463744162 4.4690853059291831 5.883669137954711 5.3260079622268659 13.780899554491041 10.872684597969053 6.2191490083932903 3.8985888510942486 6.078622043132782 7.8911728709936169 5.4844896942377117 10.564791113138201 4.8092480003833753 4.8485535085201263 7.5522029995918265 27.267648607492447 37.41034072637558 6.9531673341989544 4.4021644592285147 13.907926753163336 16.424606040120125 4.3021154999732962
leaf_count=38 160 17 362 214 81 165 137 40 52 19 23 23 66 41 25 18 30 39 20 48 23 25 32 133 175 26 20 61 93 22
internal_value=0 0.0164234 -0.0172813 -0.0217517 -0.0133274 0.00473522 -0.0428673 0.0240566 -0.0359014 0.0408774 0.0956607 0.0318849 0.00303053 0.0538714 0.0737375 -0.0141416 -0.0170137 0.0195767 0.0500089 0.0718756 -0.00420463 0.0436448 0.0418534 0.00564948 0.0193254 0.0384507 0.00542121 0.0721148 -0.0223853 -0.0022837
internal_weight=0 230.847 215.135 205.888 170.095 94.4892 26.3299 204.517 75.606 106.863 15.0679 91.7955 39.6975 52.0979 40.6933 35.2285 11.4046 21.4476 29.8206 23.6015 17.549 9.6578 18.117 97.6536 70.3859 42.123 21.2619 20.8611 52.3662 35.9416
internal_count=2228 1094 1134 1096 882 468 154 940 414 472 63 409 190 219 166 171 53 105 125 100 87 48 80 468 335 188 101 87 280 187
is_linear=0
shrinkage=0.1


Tree=23
num_leaves=31
num_cat=0
split_feature=14 18 3 6 5 15 8 8 11 16 19 15 16 8 11 8 7 16 7 15 15 5 4 18 18 16 7 13 18 19
split_gain=8.14862 3.9454 5.55194 4.31875 6.35024 7.05743 5.13317 4.42804 5.89802 6.414 6.82909 6.69602 6.79958 4.88503 5.58539 5.08491 3.9059 7.11053 3.86196 3.79696 3.65323 5.1786 6.14303 3.7107 6.30014 4.6284 6.66285 7.5534 5.47854 4.52014
threshold=6175.3070967739122 42.547275610077833 6127.1000000000013 6122.6000000000013 6206.2000000000007 -74.822403476294753 6314.8233333333419 6510.8500000000085 6527.298285427808 -144.61116795754916 19.839393847152582 -29.346974480436071 -12.95958773771574 6310.5666666666721 6388.7636172387511 6447.9633333333395 51955.500000000007 57.386871361639855 9994.0000000000018 115.29160992552626 -119.73961803013707 5503.5000000000009 5656.0000000000009 28.178811913159482 28.862736988206823 98.516078703839696 68276.000000000015 6031.2673457695328 22.001857636607632 21.815180317618434
decision_type=2 2 2 2 2 2 2 2 2 2 2 2 2 2 2 2 2 2 2 2 2 2 2 2 2 2 2 2 2 2
left_child=18 2 -2 -4 5 -5 -7 13 -9 -10 11 12 -11 -6 -15 -16 -12 -18 -1 20 21 -20 -23 25 -25 -22 27 28 -27 -26
right_child=1 -3 3 4 7 6 -8 8 9 10 16 -13 -14 14 15 -17 17 -19 19 -21 23 22 -24 24 29 26 -28 -29 -30 -31
leaf_value=-0.061696551203834098 0.14088561165341051 -0.074665513873828304 -0.068728692911414827 -0.047417401812357977 0.023558302616565718 0.047885876308735566 0.17022400031195384 0.1288154391021229 -0.083865260450458723 0.11318750939236727 -0.038654402058841346 0.13468835264175408 -0.050432473841099834 -0.050568357229966367 0.044725407137632067 -0.034155510723352364 -0.040464776568203735 0.10080061072687668 -0.069473030778780032 -0.047734457596519099 -0.020543604150599113 0.11146941055778155 -0.055776702991388476 0.1340015586637093 0.0023484718786226638 -0.065177055831107764 0.095302571770781594 0.1037003922499657 0.038871167666006179 0.11056708446162451
leaf_weight=14.606856167316435 3.5826116502284995 4.7530104815959922 5.9357613027095786 3.6852845996618298 50.268760591745377 6.9282183498144132 6.7921134382486343 5.9335782378911963 5.019966945052146 4.5104711055755615 12.659496650099756 10.418434426188467 5.8133876174688357 28.840968906879425 18.37075275182724 14.720687195658682 6.4576943814754468 7.9491939544677734 17.993514806032184 22.372162312269211 89.257566794753075 4.205442547798155 4.5967210680246353 4.7109492272138587 41.126593962311745 14.420267105102544 9.2003385871648771 5.3493216931819907 7.7965917140245429 4.2593820095062247
leaf_count=85 16 28 29 18 238 30 28 26 24 20 62 43 28 153 89 72 32 33 100 127 465 20 24 24 210 73 46 27 37 21
internal_value=0 0.0153686 0.0175311 0.0152567 0.0179032 0.0754468 0.108448 0.0120447 0.0342831 0.0236655 0.0349563 0.0781296 0.0210527 0.000397973 -0.0184006 0.00963533 0.00187056 0.0374803 -0.0118673 -0.0086366 -0.00432595 -0.0387255 0.0241291 0.000907724 0.0239297 -0.00824396 0.0216157 -0.0029776 -0.0286633 0.0125046
internal_weight=0 202.64 197.887 194.305 188.369 17.4056 13.7203 170.963 58.7622 52.8286 47.8087 20.7423 10.3239 112.201 61.9324 33.0914 27.0664 14.4069 239.896 225.289 202.917 26.7957 8.80216 176.121 50.0969 126.024 36.7665 27.5662 22.2169 45.386
internal_count=2228 969 941 925 896 76 58 820 268 242 218 91 48 552 314 161 127 65 1259 1174 1047 144 44 903 255 648 183 137 110 231
is_linear=0
shrinkage=0.1


Tree=24
num_leaves=31
num_cat=0
split_feature=5 17 17 17 7 2 18 13 12 17 11 17 16 11 9 17 17 17 7 0 16 16 1 2 17 7 12 13 18 18
split_gain=38.6273 15.6456 14.0777 12.6121 13.6502 27.4267 14.7582 7.85329 7.0015 7.81517 6.3647 7.65515 6.41532 7.14298 10.4881 7.52498 11.7997 8.84322 6.19512 9.68209 5.48552 7.45078 7.66174 10.425 6.23785 8.57637 9.74253 9.2285 5.14422 18.1649
threshold=6380.4000000000005 3.4133582522830612 74.08054018984312 4.1964601969151989 70100.500000000015 5889.1000000000013 34.342511678429396 5286.9929087166556 6567.9936375970865 5.9130346233538269 4268.3731996469314 50.865375086806118 129.85204765271249 5092.8468949275375 5240.0220207628145 34.319209885753125 14.479090537404081 18.048961268147604 84480.500000000015 6473.6000000000013 165.37566997941371 100.40297175661068 6272.1000000000013 6173.3000000000011 17.200277528802264 101391.00000000001 5960.0831954332825 4951.4392785272339 29.606569926659322 27.092281369485388
decision_type=2 2 2 2 2 2 2 2 2 2 2 2 2 2 2 2 2 2 2 2 2 2 2 2 2 2 2 2 2 2
left_child=1 -1 18 -3 5 6 10 -8 9 -6 -5 12 13 -12 -15 16 -16 -18 -2 -20 21 22 23 24 -11 26 27 -26 29 -7
right_child=2 3 -4 4 8 28 7 -9 -10 20 11 -13 -14 14 15 -17 17 -19 19 -21 -22 -23 -24 -25 25 -27 -28 -29 -30 -31
leaf_value=-0.061220820890393157 -0.081308625224345982 0.14517712954765696 0.11621444010173143 0.11673074541231898 0.14671932142128405 -0.045210234980179127 -0.0077114042564287444 0.12955889961216138 0.16762916331857375 -0.041290412201736404 -0.044795620137893191 0.079683291546346943 0.090853826727733247 0.15445465153146398 -0.060497724860703352 -0.077378935426552886 0.17650706968968435 0.02880904349277634 0.12308745105227337 -0.068481198335837754 0.13759351286487795 -0.086390243640349584 -0.066510683745452992 0.1474586307009188 0.0077472108205222908 -0.04933113447340777 -0.044413019340932794 0.16691046826982603 -0.071025169367888094 0.085137278387333148
leaf_weight=25.187834814190865 69.547879807651043 7.9346526265144339 4.2741254717111579 6.1894902288913718 6.9634427577257147 55.910790860652924 5.2002824842929867 20.989830508828163 5.0901986360549918 9.5592567175626737 31.076714530587196 14.354453563690184 7.2120320647954932 4.9712207168340674 10.787495270371439 9.4944938868284208 5.5490460693836239 15.044000267982481 4.0195580124855024 7.677436575293541 4.8236031830310813 5.3027923703193656 6.204637646675109 9.1563414782285673 5.2827922105789282 6.4257123172283164 4.7543675601482382 11.735188290476797 28.104477569460869 13.218900159001349
leaf_count=143 473 36 16 26 28 319 24 76 18 47 164 57 35 22 59 52 23 72 20 48 20 24 34 37 26 28 21 49 166 65
internal_value=0 0.0145858 -0.0606781 0.0207187 0.0174638 0.00527705 0.0351661 0.102303 0.0543815 0.0461708 0.0183689 0.0121874 0.000671831 -0.00778332 0.0173053 0.000625232 0.0242262 0.0686081 -0.0699841 -0.0026505 0.0351001 0.0266377 0.0379212 0.051733 0.0285191 0.0521848 0.0821453 0.117502 -0.0349511 -0.0202853
internal_weight=0 336.524 85.519 311.336 303.402 228.103 130.869 26.1901 75.2983 70.2081 104.679 98.4895 84.135 76.923 45.8463 40.875 31.3805 20.593 81.2449 11.697 63.2447 58.4211 53.1183 46.9137 37.7573 28.1981 21.7723 17.018 97.2342 69.1297
internal_count=2228 1671 557 1528 1492 1160 610 100 332 314 510 484 427 392 228 206 154 95 541 68 286 266 242 208 171 124 96 75 550 384
is_linear=0
shrinkage=0.1


Tree=25
num_leaves=31
num_cat=0
split_feature=16 18 13 7 2 15 15 16 16 18 9 8 1 15 0 17 15 9 19 15 2 4 7 19 15 17 19 17 7 12
split_gain=14.6722 16.076 10.7312 8.61129 7.15137 5.93351 9.53456 7.37488 5.69427 7.98789 15.6218 11.8794 10.743 11.4141 9.04994 8.65312 7.68982 14.0452 10.8356 8.49926 7.59524 12.1544 7.38203 8.85534 7.33821 10.8037 6.65455 7.61693 6.4273 7.09922
threshold=137.29265096201178 11.861544624394449 7358.0929741598275 61649.500000000007 7084.6000000000013 -153.24592338517593 -165.31748498321255 -38.003195644276182 -40.201484843710183 27.042661723664903 5565.6115274825688 4869.9500000000062 6254.6000000000013 -1.817937835923203 5979.7000000000016 30.027866867301398 -37.866609768693245 5997.3997948965152 12.486570641452248 -59.886332630627287 6155.4000000000005 6211.6000000000013 67329.500000000015 8.6652181040507958 121.9807557236045 24.215141536609622 9.8585581945281664 50.508562389803032 59832.500000000007 5978.1563089723468
decision_type=2 2 2 2 2 2 2 2 2 2 2 2 2 2 2 2 2 2 2 2 2 2 2 2 2 2 2 2 2 2
left_child=1 3 4 -1 5 6 7 -3 9 10 11 -7 15 -14 -12 -11 18 -18 19 22 -16 -22 23 -17 28 -26 -25 -28 29 -10
right_child=-2 2 -4 -5 -6 8 -8 -9 24 12 14 -13 13 -15 20 16 17 -19 -20 -21 21 -23 -24 26 25 -27 27 -29 -30 -31
leaf_value=0.020175373593371553 -0.068330255792727723 -0.047766479104693317 0.14819560560188078 0.15600494119378594 -0.095858953849742773 -0.0028749116466617319 0.14737686653058873 0.10346348403999167 0.019480128674435934 -0.083869956821011657 -0.096604399163318685 0.16427709147198299 0.098119735757837653 -0.081401538327412773 0.12292332664559957 -0.042825138816736878 0.13601246208196308 -0.096279997834082282 -0.092652681985727139 -0.096351280163125885 -0.097045706920012326 0.042424900507388751 -0.078047913039822725 0.20245119860145713 -0.069146300553170739 0.097313680758555843 0.15229146773692373 -0.045970109327767433 -0.053838189745377789 -0.028352647139369736
leaf_weight=8.5264333784580248 29.839942164719105 9.3178627789020538 4.8208288252353659 10.312731117010115 7.9391165226697913 6.1861726492643383 6.958236262202262 4.9311389923095712 50.809491708874702 18.794020861387253 7.2811687141656867 13.597143515944479 15.524022698402407 4.5885381996631613 6.5654393881559363 5.123849079012877 8.4729296267032606 3.7570790573954573 15.347121223807333 5.753911808133128 8.5609800219535845 23.130659833550453 4.2730466276407233 5.0226443558931333 5.6481239497661617 12.590148478746412 3.9364070296287537 3.8165347725152969 44.234272450208664 79.699205324053764
leaf_count=39 192 47 16 38 47 32 29 19 261 100 42 52 65 23 27 27 33 22 82 34 49 107 22 20 27 48 20 21 246 441
internal_value=0 0.00432507 -6.97239e-05 0.0945297 -0.00194152 5.25484e-05 0.0514256 0.00456954 -0.00303631 0.0109296 0.0378141 0.112009 -0.00767151 0.0571632 0.00558129 -0.0252225 -0.00536386 0.0646518 -0.0251518 0.0119438 0.0250295 0.00474919 0.0400471 0.0682393 -0.014596 0.0457635 0.112783 0.0546934 -0.0208958 -0.00973045
internal_weight=0 405.519 386.68 18.8392 381.859 373.92 21.2072 14.249 352.713 159.732 65.3216 19.7833 94.4101 20.1126 45.5382 74.2975 55.5035 12.23 43.2735 27.9264 38.2571 31.6916 22.1725 17.8994 192.981 18.2383 12.7756 7.75294 174.743 130.509
internal_count=2228 2036 1959 77 1943 1896 95 66 1801 778 309 84 469 88 225 381 281 55 226 144 183 156 110 88 1023 75 61 41 948 702
is_linear=0
shrinkage=0.1


Tree=26
num_leaves=31
num_cat=0
split_feature=17 17 17 16 19 17 17 16 18 17 15 9 11 18 16 7 9 8 15 17 16 4 16 7 16 13 15 15 15 16
split_gain=10.6168 4.82774 4.04221 5.691 4.82126 4.17243 4.77183 4.48743 4.34593 4.13467 7.0209 4.8748 6.69713 8.84714 4.55966 5.90622 3.56743 5.62718 5.97348 3.32443 3.22471 4.14768 3.17106 5.76279 3.83133 3.83699 3.51791 3.51716 4.16427 3.2141
threshold=22.876929109739827 59.24246316783276 21.457535684269626 2.8328581641948927 18.73010428996162 9.1061657712344939 12.943129477257981 25.030128427192324 25.896745810196013 12.394647749095958 36.523888108163653 6406.3890554407544 5808.1280639834904 24.510144362308569 -104.34921810711914 53031.000000000007 5565.6115274825688 6031.5833333333385 55.492805751462136 18.048961268147604 -54.634507800489708 6032.2000000000007 -99.021459528294145 61920.500000000007 -81.778063833029194 6691.0036151705553 -70.873204275601424 -109.85623178959666 -78.001488259357743 158.50731496203866
decision_type=2 2 2 2 2 2 2 2 2 2 2 2 2 2 2 2 2 2 2 2 2 2 2 2 2 2 2 2 2 2
left_child=2 22 3 9 -4 8 -7 -8 -5 10 11 12 13 -1 15 -11 -9 19 -19 -18 -14 -22 -2 24 -24 27 -25 -26 -29 -30
right_child=1 -3 4 5 -6 6 7 16 -10 14 -12 -13 20 -15 -16 -17 17 18 -20 -21 21 -23 23 26 25 -27 -28 28 29 -31
leaf_value=0.12747273863094161 -0.034022159026190699 -0.062228447534748321 0.1504326006052881 -0.0045654403631380331 0.013782464853382345 0.070356287683595184 -0.06502960808118953 -0.017740885946635764 0.082036853645266916 0.089171575362987754 -0.039174549665326575 0.10398788464795439 -0.095788106673732748 -0.040471133497431956 -0.054398617125433341 -0.07001922832324016 0.050854075349043848 -0.002971755874463551 0.12053512762765124 0.15885497260807052 -0.073373280011093597 0.05869604400337225 0.090527194935766039 0.024637231237839924 -0.052334018684808394 0.082970411639964645 -0.058055960136451236 0.081033436202236603 -0.01030407972225611 0.080039026112375108
leaf_weight=8.6090633571147936 46.340962797403336 22.116697154939175 4.6378507614135724 58.710640281438828 5.8243338018655777 29.207181841135025 5.5357601642608634 11.939673110842703 6.4291564375162116 5.7946836501359922 19.750815480947495 7.9725500643253318 5.0607450604438773 4.9346473813056937 28.089734524488449 3.8986944854259491 5.8315242826938611 21.494779363274578 4.7883911579847327 5.5747252404689789 4.1324002146720868 5.6009497344493866 5.7505467534065238 6.6024369746446636 11.221328243613241 5.8714942187070838 23.29786291718483 7.0195449143648139 41.325694471597672 4.3527103513479224
leaf_count=39 271 146 20 287 26 131 28 59 30 30 109 36 30 25 147 23 28 102 21 24 23 28 29 38 64 28 133 34 219 20
internal_value=0 -0.0185795 0.0134954 0.0108788 0.074359 0.0229942 0.0376727 0.0203683 0.00398202 -0.00842341 0.00880852 0.0349086 0.0154739 0.0662824 -0.0339915 0.0251447 0.0298938 0.044984 0.0195293 0.103639 -0.0310403 0.00262457 -0.0122192 -0.00263699 0.0120711 0.00560653 -0.0397961 -0.00149995 0.00932449 -0.00169526
internal_weight=0 173.899 253.818 243.356 10.4622 149.512 84.372 55.1649 65.1398 93.8443 56.0612 36.3104 28.3378 13.5437 37.7831 9.69338 49.6291 37.6894 26.2832 11.4062 14.7941 9.73335 151.783 105.442 75.5413 69.7908 29.9003 63.9193 52.6979 45.6784
internal_count=2228 982 1246 1200 46 710 393 262 317 490 290 181 145 64 200 53 234 175 123 52 81 51 836 565 394 365 171 337 273 239
is_linear=0
shrinkage=0.1


Tree=27
num_leaves=31
num_cat=0
split_feature=6 7 2 19 12 12 16 19 19 10 16 18 16 15 19 19 15 17 15 18 12 7 18 13 17 3 7 3 18 16
split_gain=10.8828 11.7956 9.21681 6.74075 6.48717 8.3349 9.47002 8.90247 7.6589 6.4771 5.61796 5.52576 7.23952 6.13924 8.37436 5.21696 5.33758 5.19066 6.93948 7.44455 5.09341 5.06429 4.93461 4.69844 4.20433 5.16851 4.19214 4.05637 5.04085 3.90345
threshold=5892.0000000000009 75353.000000000015 5884.3000000000011 20.760672239272086 5972.3954512853552 6402.4216991686908 119.1706019170099 22.043973641943456 22.553920538111683 4240.0431920584697 147.31447632473768 28.389124710015597 1.0000000180025095e-35 -78.001488259357743 15.523837190647734 12.697246672330939 157.16298430597092 18.048961268147604 38.423925939499902 21.21758193905718 6308.6989767748701 12022.000000000002 33.149060765708668 6255.0330147198565 4.7427604446507443 6317.1000000000013 12022.000000000002 5898.4000000000005 34.773007381737123 21.545397989716786
decision_type=2 2 2 2 2 2 2 2 2 2 2 2 2 2 2 2 2 2 2 2 2 2 2 2 2 2 2 2 2 2
left_child=9 2 -2 11 26 7 -7 -6 -9 -1 -3 12 -4 -13 22 -11 27 18 19 -10 -19 -14 -15 -16 -23 -26 -5 28 -17 -21
right_child=1 10 3 4 5 6 -8 8 17 15 -12 13 21 14 23 16 -18 20 -20 29 -22 24 -24 -25 25 -27 -28 -29 -30 -31
leaf_value=0.08410872567365224 0.18407014803702684 -0.055376087627478809 -0.043009698588015149 0.064919769026982696 0.15902140423099193 -0.043849920778086242 0.086745526387113442 -0.055912397039304708 0.11632327435993231 -0.065032971281033844 0.054140903672331812 -0.025794591626567016 -0.038694241979623997 0.15532321664946236 -0.052336224469607201 -0.010032401752819014 -0.094978102392511157 -0.013488250811806379 0.13890182985732455 0.054992010117316449 0.091314328522470234 0.12245069480455416 0.045883131247613923 0.065626493239416148 0.083628272430093353 -0.016546130653784057 -0.05242503660283257 -0.075512260878872778 0.097021235852196352 -0.06842964535483885
leaf_weight=5.80770519375801 3.4120922088623038 32.11553929746151 40.39914658665657 4.0905020833015433 8.7238882780075055 17.428746044635776 8.1486260294914228 6.0370660573244086 8.4793144613504428 25.371294140815735 5.4837896078824988 13.289341494441031 11.221403688192366 8.7363626360893303 7.8851705938577634 116.31957605481148 7.9983542263507834 13.268284782767298 14.59189300239086 4.8481798321008664 7.1288324594497672 5.1574654728174236 7.7971110492944709 5.9050604403018951 8.3757254779338854 13.375740706920622 11.904943585395811 9.016968756914137 4.571320876479148 5.4353883564472198
leaf_count=27 15 193 213 19 35 89 35 28 32 149 26 68 57 34 39 605 49 58 59 21 29 23 36 30 37 62 58 51 26 25
internal_value=0 0.0126111 0.0209106 0.0185133 0.0364592 0.0464681 -0.00224387 0.0646534 0.050884 -0.0196676 -0.0394032 0.00233889 -0.013512 0.03088 0.0557176 -0.0233589 -0.0156919 0.0628787 0.0871795 0.046955 0.0231405 0.0177408 0.103712 -0.00182387 0.041275 0.0220275 -0.0224165 -0.0108103 -0.00598432 -0.0102426
internal_weight=0 273.24 235.64 232.228 110.086 94.0902 25.5774 68.5128 59.789 169.085 37.5993 122.143 78.5295 43.613 30.3237 163.278 137.906 53.7519 33.3548 18.7629 20.3971 38.1303 16.5335 13.7902 26.9089 21.7515 15.9954 129.908 120.891 10.2836
internal_count=2228 1321 1102 1087 488 411 124 287 252 907 219 599 392 207 139 880 731 224 137 78 87 179 70 69 122 99 77 682 631 46
is_linear=0
shrinkage=0.1


Tree=28
num_leaves=31
num_cat=0
split_feature=14 10 17 10 10 16 18 18 15 15 16 17 18 7 16 4 19 16 15 15 15 14 14 19 14 18 7 18 8 3
split_gain=6.49007 3.79873 3.41764 7.72224 3.28174 3.54648 3.92045 6.03001 4.78135 5.48058 4.67515 4.62803 9.66828 4.17686 4.65427 4.22556 4.15043 3.9742 3.99611 6.8435 3.09095 2.98421 2.98266 6.16153 6.1769 5.77051 5.24388 4.61821 4.12645 6.01128
threshold=6175.3070967739122 6097.1817446739815 53.761212361172909 6177.8100564851011 6051.5837360034457 -194.05748244614179 30.473913143917539 30.954605184560201 -40.779262385896793 4.3717821168347664 103.45650100781675 19.681434652217508 28.862736988206823 13908.500000000002 -134.85392800732618 5341.5000000000009 23.920154173481301 115.31354398552304 57.643262162881918 117.19171724199215 34.937523248230271 5895.1539784943006 6209.1563440858299 29.648942165771039 6224.5838709675199 16.563657339582868 7469.5000000000009 17.155283434164716 7229.9733333333379 6909.4000000000005
decision_type=2 2 2 2 2 2 2 2 2 2 2 2 2 2 2 2 2 2 2 2 2 2 2 2 2 2 2 2 2 2
left_child=1 4 3 -2 5 -1 8 -8 -7 11 -11 16 -13 -9 -15 -16 -10 -12 20 -20 -19 -17 -5 24 -24 -26 -27 -28 29 -29
right_child=2 -3 -4 22 -6 6 7 13 9 10 17 12 -14 14 15 21 -18 18 19 -21 -22 -23 23 -25 25 26 27 28 -30 -31
leaf_value=-0.072403276830208516 0.14668418623076043 -0.063366808539211145 -0.036378333045491179 -0.063284075425625058 0.071176269516244034 -0.040207445679068615 0.12641971911873681 -0.043512200143208356 -0.011345446240772938 -0.041543567423464101 0.088699003985534638 0.15404130913744185 -0.045300261619422293 0.099163140487799353 -0.050256586673819353 0.11060353478697237 0.066192508006840609 -0.0015667400072254204 0.11674096113143294 -0.042064121266601313 -0.10150227192934236 0.00042038843290407018 0.13597012916394979 0.11279304632032346 -0.030473084418516334 -0.049917522788735118 0.12733255725018464 0.01753221761384384 -0.049772426044466432 0.094005131607549516
leaf_weight=8.570607975125311 4.4962480813264838 12.864328153431414 12.705633297562597 4.8561526685953131 5.1808441430330268 48.077389568090439 4.7816819697618476 11.306470826268194 29.525706008076668 42.741595700383186 5.3133851736784008 6.6972952187061292 3.8213116079568863 6.9682742804288855 8.1905849725008064 4.2171225696802122 9.0100593864917737 7.0412698984146136 5.4277696013450605 5.4267158359289169 5.5221702009439468 5.8930680751800537 3.9671397954225531 6.3627829253673545 29.509076490998268 10.481211125850676 4.1549945026636115 107.50495466589928 7.9043239206075659 11.365739732980726
leaf_count=51 17 82 69 23 25 257 22 65 152 234 28 34 21 34 43 20 45 35 25 30 27 29 16 28 149 58 17 503 41 48
internal_value=0 -0.0105241 0.0138388 0.0171863 -0.00748549 -0.00935036 -0.00677655 0.0208138 -0.0135442 -0.00290846 -0.0205745 0.0228312 0.0816224 0.00700747 0.0296122 0.00312966 0.00678373 0.0106198 -0.00709592 0.0373461 -0.0454927 0.0463795 0.0140577 0.0161299 0.0126131 0.00974991 0.0181435 0.0235919 0.0201918 0.0248441
internal_weight=0 236.578 203.308 190.603 223.713 218.532 209.962 41.3572 168.605 120.527 71.4729 49.0544 10.5186 36.5755 25.269 18.3008 38.5358 28.7313 23.4179 10.8545 12.5634 10.1102 186.106 181.25 174.887 170.92 141.411 130.93 126.775 118.871
internal_count=2228 1259 969 900 1177 1152 1101 213 888 631 379 252 55 191 126 92 197 145 117 55 62 49 883 860 832 816 667 609 592 551
is_linear=0
shrinkage=0.1


Tree=29
num_leaves=31
num_cat=0
